<?xml version="1.0"?>
<MethodSetup Method="BDT::BDT-0.4.6_fold7">
  <GeneralInfo>
    <Info name="TMVA Release" value="4.2.1 [262657]"/>
    <Info name="ROOT Release" value="6.32/00 [401408]"/>
    <Info name="Creator" value="abennett"/>
    <Info name="Date" value="Thu Aug 22 16:00:03 2024"/>
    <Info name="Host" value="Linux 6772f6b99311 6.5.0-1022-azure #23~22.04.1-Ubuntu SMP Thu May 9 17:59:24 UTC 2024 x86_64 x86_64 x86_64 GNU/Linux"/>
    <Info name="Dir" value="/gluster/home/abennett/BDT_training"/>
    <Info name="Training events" value="17885"/>
    <Info name="TrainingTime" value="8.51751089e-01"/>
    <Info name="AnalysisType" value="Classification"/>
  </GeneralInfo>
  <Options>
    <Option name="V" modified="Yes">False</Option>
    <Option name="VerbosityLevel" modified="No">Default</Option>
    <Option name="VarTransform" modified="No">None</Option>
    <Option name="H" modified="Yes">False</Option>
    <Option name="CreateMVAPdfs" modified="No">False</Option>
    <Option name="IgnoreNegWeightsInTraining" modified="No">False</Option>
    <Option name="NTrees" modified="Yes">125</Option>
    <Option name="MaxDepth" modified="Yes">2</Option>
    <Option name="MinNodeSize" modified="Yes">3%</Option>
    <Option name="nCuts" modified="Yes">80</Option>
    <Option name="BoostType" modified="Yes">Grad</Option>
    <Option name="AdaBoostR2Loss" modified="No">quadratic</Option>
    <Option name="UseBaggedBoost" modified="Yes">True</Option>
    <Option name="Shrinkage" modified="Yes">1.000000e-01</Option>
    <Option name="AdaBoostBeta" modified="No">5.000000e-01</Option>
    <Option name="UseRandomisedTrees" modified="No">False</Option>
    <Option name="UseNvars" modified="Yes">2</Option>
    <Option name="UsePoissonNvars" modified="No">True</Option>
    <Option name="BaggedSampleFraction" modified="Yes">5.000000e-01</Option>
    <Option name="UseYesNoLeaf" modified="No">True</Option>
    <Option name="NegWeightTreatment" modified="No">pray</Option>
    <Option name="Css" modified="No">1.000000e+00</Option>
    <Option name="Cts_sb" modified="No">1.000000e+00</Option>
    <Option name="Ctb_ss" modified="No">1.000000e+00</Option>
    <Option name="Cbb" modified="No">1.000000e+00</Option>
    <Option name="NodePurityLimit" modified="No">5.000000e-01</Option>
    <Option name="SeparationType" modified="Yes">sdivsqrtsplusb</Option>
    <Option name="RegressionLossFunctionBDTG" modified="No">huber</Option>
    <Option name="HuberQuantile" modified="No">7.000000e-01</Option>
    <Option name="DoBoostMonitor" modified="No">False</Option>
    <Option name="UseFisherCuts" modified="No">False</Option>
    <Option name="MinLinCorrForFisher" modified="No">8.000000e-01</Option>
    <Option name="UseExclusiveVars" modified="No">False</Option>
    <Option name="DoPreselection" modified="No">False</Option>
    <Option name="SigToBkgFraction" modified="No">1.000000e+00</Option>
    <Option name="PruneMethod" modified="No">nopruning</Option>
    <Option name="PruneStrength" modified="No">0.000000e+00</Option>
    <Option name="PruningValFraction" modified="No">5.000000e-01</Option>
    <Option name="SkipNormalization" modified="No">False</Option>
    <Option name="nEventsMin" modified="No">0</Option>
    <Option name="UseBaggedGrad" modified="No">False</Option>
    <Option name="GradBaggingFraction" modified="No">5.000000e-01</Option>
    <Option name="UseNTrainEvents" modified="No">0</Option>
    <Option name="NNodesMax" modified="No">0</Option>
  </Options>
  <Variables NVar="4">
    <Variable VarIndex="0" Expression="mjj" Label="mjj" Title="m_{jj}" Unit="GeV" Internal="mjj" Type="D" Min="5.00083496e+02" Max="7.10228711e+03"/>
    <Variable VarIndex="1" Expression="JetGap" Label="JetGap" Title="#Delta y_{jj}" Unit="" Internal="JetGap" Type="D" Min="2.04434600e-02" Max="8.30311966e+00"/>
    <Variable VarIndex="2" Expression="PtBalance" Label="PtBalance" Title="pT_{balance}" Unit="" Internal="PtBalance" Type="D" Min="1.21698218e-09" Max="1.49861991e-01"/>
    <Variable VarIndex="3" Expression="centrality" Label="centrality" Title="#xi(Z)" Unit="" Internal="centrality" Type="D" Min="5.42057251e-06" Max="9.99970436e-01"/>
  </Variables>
  <Spectators NSpec="1">
    <Spectator SpecIndex="0" Expression="eventNumber" Label="eventNumber" Title="I" Unit="" Internal="eventNumber" Type="F" Min="7.03000000e+02" Max="6.84984192e+08"/>
  </Spectators>
  <Classes NClass="2">
    <Class Name="Signal" Index="0"/>
    <Class Name="Background" Index="1"/>
  </Classes>
  <Transformations NTransformations="0"/>
  <MVAPdfs/>
  <Weights NTrees="125" AnalysisType="1">
    <BinaryTree type="DecisionTree" boostWeight="1.0000000000000000e+00" itree="0">
      <Node pos="s" depth="0" NCoef="0" IVar="1" Cut="3.8119528293609619e+00" cType="1" res="2.8106305748224258e-02" rms="4.9920940399169922e-01" purity="5.2810633182525635e-01" nType="0">
        <Node pos="l" depth="1" NCoef="0" IVar="0" Cut="7.0857427978515625e+02" cType="1" res="-1.6959460079669952e-01" rms="4.7035908699035645e-01" purity="3.3040541410446167e-01" nType="0">
          <Node pos="l" depth="2" NCoef="0" IVar="-1" Cut="0.0000000000000000e+00" cType="1" res="-5.8032061904668808e-02" rms="4.0719404816627502e-01" purity="2.0983968675136566e-01" nType="-99"/>
          <Node pos="r" depth="2" NCoef="0" IVar="-1" Cut="0.0000000000000000e+00" cType="1" res="-9.2272348701953888e-03" rms="4.9786689877510071e-01" purity="4.5386379957199097e-01" nType="-99"/>
        </Node>
        <Node pos="r" depth="1" NCoef="0" IVar="0" Cut="1.9066884765625000e+03" cType="1" res="3.5371872782707214e-01" rms="3.5338798165321350e-01" purity="8.5371869802474976e-01" nType="0">
          <Node pos="l" depth="2" NCoef="0" IVar="-1" Cut="0.0000000000000000e+00" cType="1" res="4.7331117093563080e-02" rms="4.4044765830039978e-01" purity="7.3665553331375122e-01" nType="-99"/>
          <Node pos="r" depth="2" NCoef="0" IVar="-1" Cut="0.0000000000000000e+00" cType="1" res="1.1920350044965744e-01" rms="-nan" purity="1.0960174798965454e+00" nType="-99"/>
        </Node>
      </Node>
    </BinaryTree>
    <BinaryTree type="DecisionTree" boostWeight="1.0000000000000000e+00" itree="1">
      <Node pos="s" depth="0" NCoef="0" IVar="1" Cut="3.0058479309082031e+00" cType="1" res="-1.7180524766445160e-02" rms="4.8798272013664246e-01" purity="4.8695877194404602e-01" nType="0">
        <Node pos="l" depth="1" NCoef="0" IVar="3" Cut="3.0924344062805176e-01" cType="1" res="-2.5730586051940918e-01" rms="4.1551622748374939e-01" purity="2.2372609376907349e-01" nType="0">
          <Node pos="l" depth="2" NCoef="0" IVar="-1" Cut="0.0000000000000000e+00" cType="1" res="-3.7084624171257019e-02" rms="4.5456916093826294e-01" purity="2.9579982161521912e-01" nType="-99"/>
          <Node pos="r" depth="2" NCoef="0" IVar="-1" Cut="0.0000000000000000e+00" cType="1" res="-6.2718302011489868e-02" rms="3.7331020832061768e-01" purity="1.6821016371250153e-01" nType="-99"/>
        </Node>
        <Node pos="r" depth="1" NCoef="0" IVar="2" Cut="5.5361506529152393e-03" cType="1" res="1.2470012158155441e-01" rms="4.7181940078735352e-01" purity="6.4249265193939209e-01" nType="0">
          <Node pos="l" depth="2" NCoef="0" IVar="-1" Cut="0.0000000000000000e+00" cType="1" res="1.2727425992488861e-01" rms="-nan" purity="1.1687579154968262e+00" nType="-99"/>
          <Node pos="r" depth="2" NCoef="0" IVar="-1" Cut="0.0000000000000000e+00" cType="1" res="1.1964726261794567e-02" rms="4.8625305294990540e-01" purity="5.7492697238922119e-01" nType="-99"/>
        </Node>
      </Node>
    </BinaryTree>
    <BinaryTree type="DecisionTree" boostWeight="1.0000000000000000e+00" itree="2">
      <Node pos="s" depth="0" NCoef="0" IVar="1" Cut="4.1106538772583008e+00" cType="1" res="1.2274702079594135e-02" rms="4.7274211049079895e-01" purity="5.1229715347290039e-01" nType="0">
        <Node pos="l" depth="1" NCoef="0" IVar="1" Cut="2.6963615417480469e+00" cType="1" res="-1.2515847384929657e-01" rms="4.6698307991027832e-01" purity="3.5531589388847351e-01" nType="0">
          <Node pos="l" depth="2" NCoef="0" IVar="-1" Cut="0.0000000000000000e+00" cType="1" res="-5.5763598531484604e-02" rms="3.8099244236946106e-01" purity="1.7828050255775452e-01" nType="-99"/>
          <Node pos="r" depth="2" NCoef="0" IVar="-1" Cut="0.0000000000000000e+00" cType="1" res="-2.8067871462553740e-03" rms="4.9247351288795471e-01" purity="4.8551762104034424e-01" nType="-99"/>
        </Node>
        <Node pos="r" depth="1" NCoef="0" IVar="2" Cut="5.5059101432561874e-03" cType="1" res="3.7549167871475220e-01" rms="2.3652350902557373e-01" purity="9.2717725038528442e-01" nType="0">
          <Node pos="l" depth="2" NCoef="0" IVar="-1" Cut="0.0000000000000000e+00" cType="1" res="1.7203180491924286e-01" rms="-nan" purity="1.4263209104537964e+00" nType="-99"/>
          <Node pos="r" depth="2" NCoef="0" IVar="-1" Cut="0.0000000000000000e+00" cType="1" res="6.2827497720718384e-02" rms="3.4521022439002991e-01" purity="8.5525876283645630e-01" nType="-99"/>
        </Node>
      </Node>
    </BinaryTree>
    <BinaryTree type="DecisionTree" boostWeight="1.0000000000000000e+00" itree="3">
      <Node pos="s" depth="0" NCoef="0" IVar="0" Cut="1.3151704101562500e+03" cType="1" res="3.8475310429930687e-03" rms="4.6849957108497620e-01" purity="5.1468789577484131e-01" nType="0">
        <Node pos="l" depth="1" NCoef="0" IVar="3" Cut="4.5623105764389038e-01" cType="1" res="-9.7760178148746490e-02" rms="4.7054696083068848e-01" purity="3.8469269871711731e-01" nType="0">
          <Node pos="l" depth="2" NCoef="0" IVar="-1" Cut="0.0000000000000000e+00" cType="1" res="-6.9750132970511913e-03" rms="4.8418188095092773e-01" purity="4.5826518535614014e-01" nType="-99"/>
          <Node pos="r" depth="2" NCoef="0" IVar="-1" Cut="0.0000000000000000e+00" cType="1" res="-5.7119403034448624e-02" rms="3.7267336249351501e-01" purity="1.7218859493732452e-01" nType="-99"/>
        </Node>
        <Node pos="r" depth="1" NCoef="0" IVar="3" Cut="4.0678834915161133e-01" cType="1" res="2.3420636355876923e-01" rms="3.7237298488616943e-01" purity="8.0940508842468262e-01" nType="0">
          <Node pos="l" depth="2" NCoef="0" IVar="-1" Cut="0.0000000000000000e+00" cType="1" res="5.8614086359739304e-02" rms="3.2834160327911377e-01" purity="8.6240220069885254e-01" nType="-99"/>
          <Node pos="r" depth="2" NCoef="0" IVar="-1" Cut="0.0000000000000000e+00" cType="1" res="-3.7806902080774307e-02" rms="4.6532887220382690e-01" purity="3.3890834450721741e-01" nType="-99"/>
        </Node>
      </Node>
    </BinaryTree>
    <BinaryTree type="DecisionTree" boostWeight="1.0000000000000000e+00" itree="4">
      <Node pos="s" depth="0" NCoef="0" IVar="1" Cut="3.5009410381317139e+00" cType="1" res="1.9086917862296104e-02" rms="4.4855111837387085e-01" purity="5.2137720584869385e-01" nType="0">
        <Node pos="l" depth="1" NCoef="0" IVar="3" Cut="8.6665317416191101e-02" cType="1" res="-1.6882777214050293e-01" rms="4.3435826897621155e-01" purity="2.7448844909667969e-01" nType="0">
          <Node pos="l" depth="2" NCoef="0" IVar="-1" Cut="0.0000000000000000e+00" cType="1" res="8.7566031143069267e-03" rms="4.7492647171020508e-01" purity="5.0476157665252686e-01" nType="-99"/>
          <Node pos="r" depth="2" NCoef="0" IVar="-1" Cut="0.0000000000000000e+00" cType="1" res="-4.1298907250165939e-02" rms="4.1794750094413757e-01" purity="2.3828172683715820e-01" nType="-99"/>
        </Node>
        <Node pos="r" depth="1" NCoef="0" IVar="1" Cut="4.5697436332702637e+00" cType="1" res="2.5012773275375366e-01" rms="3.4613457322120667e-01" purity="8.2492649555206299e-01" nType="0">
          <Node pos="l" depth="2" NCoef="0" IVar="-1" Cut="0.0000000000000000e+00" cType="1" res="2.7205457910895348e-02" rms="4.5687824487686157e-01" purity="6.8573898077011108e-01" nType="-99"/>
          <Node pos="r" depth="2" NCoef="0" IVar="-1" Cut="0.0000000000000000e+00" cType="1" res="8.9188262820243835e-02" rms="-nan" purity="1.0299760103225708e+00" nType="-99"/>
        </Node>
      </Node>
    </BinaryTree>
    <BinaryTree type="DecisionTree" boostWeight="1.0000000000000000e+00" itree="5">
      <Node pos="s" depth="0" NCoef="0" IVar="1" Cut="3.1849303245544434e+00" cType="1" res="1.1465287534520030e-03" rms="4.4710698723793030e-01" purity="5.1026886701583862e-01" nType="0">
        <Node pos="l" depth="1" NCoef="0" IVar="2" Cut="7.3623121716082096e-03" cType="1" res="-1.7043863236904144e-01" rms="4.2062243819236755e-01" purity="2.4287945032119751e-01" nType="0">
          <Node pos="l" depth="2" NCoef="0" IVar="-1" Cut="0.0000000000000000e+00" cType="1" res="1.8874915258493274e-04" rms="4.8089870810508728e-01" purity="4.2158371210098267e-01" nType="-99"/>
          <Node pos="r" depth="2" NCoef="0" IVar="-1" Cut="0.0000000000000000e+00" cType="1" res="-4.3242704123258591e-02" rms="3.9607107639312744e-01" purity="2.0316614210605621e-01" nType="-99"/>
        </Node>
        <Node pos="r" depth="1" NCoef="0" IVar="2" Cut="1.1072300374507904e-02" cType="1" res="1.4083032310009003e-01" rms="4.1849026083946228e-01" purity="7.2794485092163086e-01" nType="0">
          <Node pos="l" depth="2" NCoef="0" IVar="-1" Cut="0.0000000000000000e+00" cType="1" res="7.4849583208560944e-02" rms="1.8806068599224091e-01" purity="9.7054004669189453e-01" nType="-99"/>
          <Node pos="r" depth="2" NCoef="0" IVar="-1" Cut="0.0000000000000000e+00" cType="1" res="6.6108722239732742e-03" rms="4.6767553687095642e-01" purity="5.9429883956909180e-01" nType="-99"/>
        </Node>
      </Node>
    </BinaryTree>
    <BinaryTree type="DecisionTree" boostWeight="1.0000000000000000e+00" itree="6">
      <Node pos="s" depth="0" NCoef="0" IVar="3" Cut="3.2099401950836182e-01" cType="1" res="5.3886496461927891e-03" rms="4.4545382261276245e-01" purity="5.1441806554794312e-01" nType="0">
        <Node pos="l" depth="1" NCoef="0" IVar="0" Cut="7.4466113281250000e+02" cType="1" res="1.0911567509174347e-01" rms="4.2535009980201721e-01" purity="6.5605872869491577e-01" nType="0">
          <Node pos="l" depth="2" NCoef="0" IVar="-1" Cut="0.0000000000000000e+00" cType="1" res="-2.1645942702889442e-02" rms="4.5325830578804016e-01" purity="3.2028236985206604e-01" nType="-99"/>
          <Node pos="r" depth="2" NCoef="0" IVar="-1" Cut="0.0000000000000000e+00" cType="1" res="4.2095713317394257e-02" rms="3.8071495294570923e-01" purity="7.9185199737548828e-01" nType="-99"/>
        </Node>
        <Node pos="r" depth="1" NCoef="0" IVar="2" Cut="1.2943522073328495e-02" cType="1" res="-1.9163618981838226e-01" rms="4.1524228453636169e-01" purity="2.4537797272205353e-01" nType="0">
          <Node pos="l" depth="2" NCoef="0" IVar="-1" Cut="0.0000000000000000e+00" cType="1" res="-4.7415997833013535e-03" rms="4.5010712742805481e-01" purity="4.2460089921951294e-01" nType="-99"/>
          <Node pos="r" depth="2" NCoef="0" IVar="-1" Cut="0.0000000000000000e+00" cType="1" res="-5.3617827594280243e-02" rms="3.8283476233482361e-01" purity="1.7864626646041870e-01" nType="-99"/>
        </Node>
      </Node>
    </BinaryTree>
    <BinaryTree type="DecisionTree" boostWeight="1.0000000000000000e+00" itree="7">
      <Node pos="s" depth="0" NCoef="0" IVar="3" Cut="1.8515990674495697e-01" cType="1" res="-1.9729295745491982e-02" rms="4.4695746898651123e-01" purity="4.9392795562744141e-01" nType="0">
        <Node pos="l" depth="1" NCoef="0" IVar="1" Cut="3.4935474395751953e+00" cType="1" res="1.0178342461585999e-01" rms="4.1536176204681396e-01" purity="6.7215210199356079e-01" nType="0">
          <Node pos="l" depth="2" NCoef="0" IVar="-1" Cut="0.0000000000000000e+00" cType="1" res="-1.5124991536140442e-02" rms="4.6918231248855591e-01" purity="3.7657251954078674e-01" nType="-99"/>
          <Node pos="r" depth="2" NCoef="0" IVar="-1" Cut="0.0000000000000000e+00" cType="1" res="4.8966169357299805e-02" rms="3.2814681529998779e-01" purity="8.6649584770202637e-01" nType="-99"/>
        </Node>
        <Node pos="r" depth="1" NCoef="0" IVar="2" Cut="1.6608163714408875e-02" cType="1" res="-1.1285200715065002e-01" rms="4.4795483350753784e-01" purity="3.5734388232231140e-01" nType="0">
          <Node pos="l" depth="2" NCoef="0" IVar="-1" Cut="0.0000000000000000e+00" cType="1" res="-2.4255921598523855e-03" rms="4.5776230096817017e-01" purity="4.8590263724327087e-01" nType="-99"/>
          <Node pos="r" depth="2" NCoef="0" IVar="-1" Cut="0.0000000000000000e+00" cType="1" res="-3.9350051432847977e-02" rms="4.2642283439636230e-01" purity="2.6606851816177368e-01" nType="-99"/>
        </Node>
      </Node>
    </BinaryTree>
    <BinaryTree type="DecisionTree" boostWeight="1.0000000000000000e+00" itree="8">
      <Node pos="s" depth="0" NCoef="0" IVar="2" Cut="1.4792592264711857e-02" cType="1" res="-3.9465080946683884e-02" rms="4.4316098093986511e-01" purity="4.6941801905632019e-01" nType="0">
        <Node pos="l" depth="1" NCoef="0" IVar="3" Cut="3.0839017033576965e-01" cType="1" res="7.8993387520313263e-02" rms="4.1438430547714233e-01" purity="6.2951278686523438e-01" nType="0">
          <Node pos="l" depth="2" NCoef="0" IVar="-1" Cut="0.0000000000000000e+00" cType="1" res="3.7580408155918121e-02" rms="3.6122798919677734e-01" purity="7.6513534784317017e-01" nType="-99"/>
          <Node pos="r" depth="2" NCoef="0" IVar="-1" Cut="0.0000000000000000e+00" cType="1" res="-2.3597015067934990e-02" rms="4.5553076267242432e-01" purity="3.3682364225387573e-01" nType="-99"/>
        </Node>
        <Node pos="r" depth="1" NCoef="0" IVar="3" Cut="2.4657289683818817e-01" cType="1" res="-1.2512814998626709e-01" rms="4.4356659054756165e-01" purity="3.5364571213722229e-01" nType="0">
          <Node pos="l" depth="2" NCoef="0" IVar="-1" Cut="0.0000000000000000e+00" cType="1" res="-9.0856915339827538e-03" rms="4.6469467878341675e-01" purity="4.8215639591217041e-01" nType="-99"/>
          <Node pos="r" depth="2" NCoef="0" IVar="-1" Cut="0.0000000000000000e+00" cType="1" res="-4.6865653246641159e-02" rms="3.9815932512283325e-01" purity="2.0777519047260284e-01" nType="-99"/>
        </Node>
      </Node>
    </BinaryTree>
    <BinaryTree type="DecisionTree" boostWeight="1.0000000000000000e+00" itree="9">
      <Node pos="s" depth="0" NCoef="0" IVar="1" Cut="2.7964944839477539e+00" cType="1" res="1.2152464129030704e-02" rms="4.3088558316230774e-01" purity="5.2021408081054688e-01" nType="0">
        <Node pos="l" depth="1" NCoef="0" IVar="1" Cut="1.5388195514678955e+00" cType="1" res="-1.5874774754047394e-01" rms="3.9988759160041809e-01" purity="2.0474468171596527e-01" nType="0">
          <Node pos="l" depth="2" NCoef="0" IVar="-1" Cut="0.0000000000000000e+00" cType="1" res="-5.5768400430679321e-02" rms="3.0094864964485168e-01" purity="9.7714386880397797e-02" nType="-99"/>
          <Node pos="r" depth="2" NCoef="0" IVar="-1" Cut="0.0000000000000000e+00" cType="1" res="-2.7902005240321159e-02" rms="4.2348083853721619e-01" purity="2.4048335850238800e-01" nType="-99"/>
        </Node>
        <Node pos="r" depth="1" NCoef="0" IVar="2" Cut="8.1196859478950500e-02" cType="1" res="1.0274495929479599e-01" rms="4.1907536983489990e-01" purity="6.8744122982025146e-01" nType="0">
          <Node pos="l" depth="2" NCoef="0" IVar="-1" Cut="0.0000000000000000e+00" cType="1" res="3.0757557600736618e-02" rms="4.0217193961143494e-01" purity="7.3074638843536377e-01" nType="-99"/>
          <Node pos="r" depth="2" NCoef="0" IVar="-1" Cut="0.0000000000000000e+00" cType="1" res="-4.9354713410139084e-02" rms="4.2401146888732910e-01" purity="2.8341260552406311e-01" nType="-99"/>
        </Node>
      </Node>
    </BinaryTree>
    <BinaryTree type="DecisionTree" boostWeight="1.0000000000000000e+00" itree="10">
      <Node pos="s" depth="0" NCoef="0" IVar="0" Cut="1.3152103271484375e+03" cType="1" res="3.4065518528223038e-02" rms="4.1999480128288269e-01" purity="5.3846108913421631e-01" nType="0">
        <Node pos="l" depth="1" NCoef="0" IVar="3" Cut="5.9138602018356323e-01" cType="1" res="-3.6265131086111069e-02" rms="4.5104691386222839e-01" purity="4.0306290984153748e-01" nType="0">
          <Node pos="l" depth="2" NCoef="0" IVar="-1" Cut="0.0000000000000000e+00" cType="1" res="1.2732542818412185e-03" rms="4.6293941140174866e-01" purity="4.6545138955116272e-01" nType="-99"/>
          <Node pos="r" depth="2" NCoef="0" IVar="-1" Cut="0.0000000000000000e+00" cType="1" res="-5.1159128546714783e-02" rms="3.3309882879257202e-01" purity="1.2350057065486908e-01" nType="-99"/>
        </Node>
        <Node pos="r" depth="1" NCoef="0" IVar="2" Cut="5.5059106089174747e-03" cType="1" res="2.0520706474781036e-01" rms="2.6315829157829285e-01" purity="8.6793702840805054e-01" nType="0">
          <Node pos="l" depth="2" NCoef="0" IVar="-1" Cut="0.0000000000000000e+00" cType="1" res="1.2917213141918182e-01" rms="-nan" purity="1.2017678022384644e+00" nType="-99"/>
          <Node pos="r" depth="2" NCoef="0" IVar="-1" Cut="0.0000000000000000e+00" cType="1" res="3.4602679312229156e-02" rms="3.6471253633499146e-01" purity="7.9831576347351074e-01" nType="-99"/>
        </Node>
      </Node>
    </BinaryTree>
    <BinaryTree type="DecisionTree" boostWeight="1.0000000000000000e+00" itree="11">
      <Node pos="s" depth="0" NCoef="0" IVar="0" Cut="1.7227324218750000e+03" cType="1" res="-1.5129878185689449e-02" rms="4.2356824874877930e-01" purity="4.9414005875587463e-01" nType="0">
        <Node pos="l" depth="1" NCoef="0" IVar="2" Cut="9.2453705146908760e-03" cType="1" res="-6.6060021519660950e-02" rms="4.4237416982650757e-01" purity="4.0013858675956726e-01" nType="0">
          <Node pos="l" depth="2" NCoef="0" IVar="-1" Cut="0.0000000000000000e+00" cType="1" res="2.0860422402620316e-02" rms="4.0425357222557068e-01" purity="6.2730813026428223e-01" nType="-99"/>
          <Node pos="r" depth="2" NCoef="0" IVar="-1" Cut="0.0000000000000000e+00" cType="1" res="-2.4208839982748032e-02" rms="4.4210129976272583e-01" purity="3.3678123354911804e-01" nType="-99"/>
        </Node>
        <Node pos="r" depth="1" NCoef="0" IVar="1" Cut="5.5191178321838379e+00" cType="1" res="2.3544716835021973e-01" rms="1.5406997501850128e-01" purity="9.5662850141525269e-01" nType="0">
          <Node pos="l" depth="2" NCoef="0" IVar="-1" Cut="0.0000000000000000e+00" cType="1" res="8.8472962379455566e-02" rms="-nan" purity="1.0556068420410156e+00" nType="-99"/>
          <Node pos="r" depth="2" NCoef="0" IVar="-1" Cut="0.0000000000000000e+00" cType="1" res="2.9226850718259811e-02" rms="3.1376948952674866e-01" purity="8.4789001941680908e-01" nType="-99"/>
        </Node>
      </Node>
    </BinaryTree>
    <BinaryTree type="DecisionTree" boostWeight="1.0000000000000000e+00" itree="12">
      <Node pos="s" depth="0" NCoef="0" IVar="2" Cut="5.5414787493646145e-03" cType="1" res="-1.4549820683896542e-02" rms="4.2103725671768188e-01" purity="4.9114176630973816e-01" nType="0">
        <Node pos="l" depth="1" NCoef="0" IVar="2" Cut="3.5570026375353336e-03" cType="1" res="2.3352500796318054e-01" rms="1.7788894474506378e-01" purity="8.8903868198394775e-01" nType="0">
          <Node pos="l" depth="2" NCoef="0" IVar="-1" Cut="0.0000000000000000e+00" cType="1" res="2.8872190043330193e-02" rms="3.7040874361991882e-01" purity="7.6217406988143921e-01" nType="-99"/>
          <Node pos="r" depth="2" NCoef="0" IVar="-1" Cut="0.0000000000000000e+00" cType="1" res="1.1834492534399033e-01" rms="-nan" purity="1.1237623691558838e+00" nType="-99"/>
        </Node>
        <Node pos="r" depth="1" NCoef="0" IVar="0" Cut="1.1450667724609375e+03" cType="1" res="-4.8672199249267578e-02" rms="4.3321365118026733e-01" purity="4.3641155958175659e-01" nType="0">
          <Node pos="l" depth="2" NCoef="0" IVar="-1" Cut="0.0000000000000000e+00" cType="1" res="-2.3436408489942551e-02" rms="4.3249371647834778e-01" purity="3.0205532908439636e-01" nType="-99"/>
          <Node pos="r" depth="2" NCoef="0" IVar="-1" Cut="0.0000000000000000e+00" cType="1" res="1.5374823473393917e-02" rms="4.1106748580932617e-01" purity="7.0263737440109253e-01" nType="-99"/>
        </Node>
      </Node>
    </BinaryTree>
    <BinaryTree type="DecisionTree" boostWeight="1.0000000000000000e+00" itree="13">
      <Node pos="s" depth="0" NCoef="0" IVar="3" Cut="3.2087960839271545e-01" cType="1" res="-2.9694760218262672e-02" rms="4.2822581529617310e-01" purity="4.9050211906433105e-01" nType="0">
        <Node pos="l" depth="1" NCoef="0" IVar="2" Cut="7.3412139900028706e-03" cType="1" res="2.9299825429916382e-02" rms="4.2887392640113831e-01" purity="6.2541711330413818e-01" nType="0">
          <Node pos="l" depth="2" NCoef="0" IVar="-1" Cut="0.0000000000000000e+00" cType="1" res="5.4049443453550339e-02" rms="2.0562258362770081e-01" purity="9.1890275478363037e-01" nType="-99"/>
          <Node pos="r" depth="2" NCoef="0" IVar="-1" Cut="0.0000000000000000e+00" cType="1" res="-2.6191894430667162e-03" rms="4.6083992719650269e-01" purity="5.4952293634414673e-01" nType="-99"/>
        </Node>
        <Node pos="r" depth="1" NCoef="0" IVar="3" Cut="8.3194392919540405e-01" cType="1" res="-1.4104579389095306e-01" rms="4.0417900681495667e-01" purity="2.3585292696952820e-01" nType="0">
          <Node pos="l" depth="2" NCoef="0" IVar="-1" Cut="0.0000000000000000e+00" cType="1" res="-2.9601175338029861e-02" rms="4.1634425520896912e-01" purity="2.5743335485458374e-01" nType="-99"/>
          <Node pos="r" depth="2" NCoef="0" IVar="-1" Cut="0.0000000000000000e+00" cType="1" res="-5.2565585821866989e-02" rms="2.9901418089866638e-01" purity="9.2015117406845093e-02" nType="-99"/>
        </Node>
      </Node>
    </BinaryTree>
    <BinaryTree type="DecisionTree" boostWeight="1.0000000000000000e+00" itree="14">
      <Node pos="s" depth="0" NCoef="0" IVar="1" Cut="2.9858460426330566e+00" cType="1" res="-3.1383786350488663e-02" rms="4.3151885271072388e-01" purity="4.9043318629264832e-01" nType="0">
        <Node pos="l" depth="1" NCoef="0" IVar="3" Cut="1.7299464344978333e-01" cType="1" res="-1.2393420934677124e-01" rms="4.0152493119239807e-01" purity="2.1727345883846283e-01" nType="0">
          <Node pos="l" depth="2" NCoef="0" IVar="-1" Cut="0.0000000000000000e+00" cType="1" res="-6.9288969971239567e-03" rms="4.6447104215621948e-01" purity="3.7301820516586304e-01" nType="-99"/>
          <Node pos="r" depth="2" NCoef="0" IVar="-1" Cut="0.0000000000000000e+00" cType="1" res="-3.6310426890850067e-02" rms="3.7528041005134583e-01" purity="1.6877436637878418e-01" nType="-99"/>
        </Node>
        <Node pos="r" depth="1" NCoef="0" IVar="2" Cut="3.3216897398233414e-02" cType="1" res="2.2224104031920433e-02" rms="4.3914237618446350e-01" purity="6.4865523576736450e-01" nType="0">
          <Node pos="l" depth="2" NCoef="0" IVar="-1" Cut="0.0000000000000000e+00" cType="1" res="1.5620543621480465e-02" rms="4.2440503835678101e-01" purity="7.3318642377853394e-01" nType="-99"/>
          <Node pos="r" depth="2" NCoef="0" IVar="-1" Cut="0.0000000000000000e+00" cType="1" res="-1.6918258741497993e-02" rms="4.5787101984024048e-01" purity="4.4237455725669861e-01" nType="-99"/>
        </Node>
      </Node>
    </BinaryTree>
    <BinaryTree type="DecisionTree" boostWeight="1.0000000000000000e+00" itree="15">
      <Node pos="s" depth="0" NCoef="0" IVar="0" Cut="1.2336616210937500e+03" cType="1" res="7.2951694019138813e-03" rms="4.0863609313964844e-01" purity="5.1208096742630005e-01" nType="0">
        <Node pos="l" depth="1" NCoef="0" IVar="0" Cut="6.9019409179687500e+02" cType="1" res="-6.5210551023483276e-02" rms="4.4612872600555420e-01" purity="3.5434144735336304e-01" nType="0">
          <Node pos="l" depth="2" NCoef="0" IVar="-1" Cut="0.0000000000000000e+00" cType="1" res="-2.9726650565862656e-02" rms="4.0873235464096069e-01" purity="2.1885162591934204e-01" nType="-99"/>
          <Node pos="r" depth="2" NCoef="0" IVar="-1" Cut="0.0000000000000000e+00" cType="1" res="-2.2881713230162859e-03" rms="4.6915119886398315e-01" purity="4.7107478976249695e-01" nType="-99"/>
        </Node>
        <Node pos="r" depth="1" NCoef="0" IVar="2" Cut="2.2023636847734451e-02" cType="1" res="1.6672937572002411e-01" rms="2.4399726092815399e-01" purity="8.5893738269805908e-01" nType="0">
          <Node pos="l" depth="2" NCoef="0" IVar="-1" Cut="0.0000000000000000e+00" cType="1" res="7.7055290341377258e-02" rms="-nan" purity="1.0101143121719360e+00" nType="-99"/>
          <Node pos="r" depth="2" NCoef="0" IVar="-1" Cut="0.0000000000000000e+00" cType="1" res="-5.2259359508752823e-03" rms="4.5245736837387085e-01" purity="6.0868144035339355e-01" nType="-99"/>
        </Node>
      </Node>
    </BinaryTree>
    <BinaryTree type="DecisionTree" boostWeight="1.0000000000000000e+00" itree="16">
      <Node pos="s" depth="0" NCoef="0" IVar="0" Cut="1.3152172851562500e+03" cType="1" res="1.3662434648722410e-03" rms="4.0273198485374451e-01" purity="5.1226568222045898e-01" nType="0">
        <Node pos="l" depth="1" NCoef="0" IVar="3" Cut="3.7114955484867096e-02" cType="1" res="-6.8145871162414551e-02" rms="4.3817973136901855e-01" purity="3.5547840595245361e-01" nType="0">
          <Node pos="l" depth="2" NCoef="0" IVar="-1" Cut="0.0000000000000000e+00" cType="1" res="4.1199393570423126e-02" rms="3.7196171283721924e-01" purity="6.9688946008682251e-01" nType="-99"/>
          <Node pos="r" depth="2" NCoef="0" IVar="-1" Cut="0.0000000000000000e+00" cType="1" res="-1.8841465935111046e-02" rms="4.3696346879005432e-01" purity="3.3563563227653503e-01" nType="-99"/>
        </Node>
        <Node pos="r" depth="1" NCoef="0" IVar="0" Cut="1.5302851562500000e+03" cType="1" res="1.8104736506938934e-01" rms="2.0091366767883301e-01" purity="9.1754335165023804e-01" nType="0">
          <Node pos="l" depth="2" NCoef="0" IVar="-1" Cut="0.0000000000000000e+00" cType="1" res="9.1842636466026306e-02" rms="-nan" purity="1.0188913345336914e+00" nType="-99"/>
          <Node pos="r" depth="2" NCoef="0" IVar="-1" Cut="0.0000000000000000e+00" cType="1" res="4.1398122906684875e-02" rms="2.4381029605865479e-01" purity="8.9810049533843994e-01" nType="-99"/>
        </Node>
      </Node>
    </BinaryTree>
    <BinaryTree type="DecisionTree" boostWeight="1.0000000000000000e+00" itree="17">
      <Node pos="s" depth="0" NCoef="0" IVar="3" Cut="2.3461923003196716e-01" cType="1" res="-1.3998099602758884e-02" rms="4.1674774885177612e-01" purity="5.0717121362686157e-01" nType="0">
        <Node pos="l" depth="1" NCoef="0" IVar="1" Cut="2.7964944839477539e+00" cType="1" res="5.3312420845031738e-02" rms="3.9707490801811218e-01" purity="6.7643570899963379e-01" nType="0">
          <Node pos="l" depth="2" NCoef="0" IVar="-1" Cut="0.0000000000000000e+00" cType="1" res="-3.3958502113819122e-02" rms="4.0122708678245544e-01" purity="2.1617916226387024e-01" nType="-99"/>
          <Node pos="r" depth="2" NCoef="0" IVar="-1" Cut="0.0000000000000000e+00" cType="1" res="2.4798804894089699e-02" rms="3.8207042217254639e-01" purity="7.7484399080276489e-01" nType="-99"/>
        </Node>
        <Node pos="r" depth="1" NCoef="0" IVar="3" Cut="5.3691029548645020e-01" cType="1" res="-8.9327447116374969e-02" rms="4.2526605725288391e-01" purity="3.1774184107780457e-01" nType="0">
          <Node pos="l" depth="2" NCoef="0" IVar="-1" Cut="0.0000000000000000e+00" cType="1" res="-1.2286209501326084e-02" rms="4.5059531927108765e-01" purity="3.9976158738136292e-01" nType="-99"/>
          <Node pos="r" depth="2" NCoef="0" IVar="-1" Cut="0.0000000000000000e+00" cType="1" res="-4.2696405202150345e-02" rms="3.5080072283744812e-01" purity="1.3884015381336212e-01" nType="-99"/>
        </Node>
      </Node>
    </BinaryTree>
    <BinaryTree type="DecisionTree" boostWeight="1.0000000000000000e+00" itree="18">
      <Node pos="s" depth="0" NCoef="0" IVar="1" Cut="1.8610382080078125e+00" cType="1" res="-1.1251810006797314e-02" rms="4.1256055235862732e-01" purity="4.9713838100433350e-01" nType="0">
        <Node pos="l" depth="1" NCoef="0" IVar="3" Cut="4.0639445185661316e-01" cType="1" res="-1.8756005167961121e-01" rms="2.9701575636863708e-01" purity="9.4638980925083160e-02" nType="0">
          <Node pos="l" depth="2" NCoef="0" IVar="-1" Cut="0.0000000000000000e+00" cType="1" res="-6.0636755079030991e-02" rms="2.5887686014175415e-01" purity="7.8260086476802826e-02" nType="-99"/>
          <Node pos="r" depth="2" NCoef="0" IVar="-1" Cut="0.0000000000000000e+00" cType="1" res="-3.2618228346109390e-02" rms="3.1412783265113831e-01" purity="1.1157865822315216e-01" nType="-99"/>
        </Node>
        <Node pos="r" depth="1" NCoef="0" IVar="3" Cut="3.7041282653808594e-01" cType="1" res="1.1302080005407333e-02" rms="4.1977283358573914e-01" purity="5.4862737655639648e-01" nType="0">
          <Node pos="l" depth="2" NCoef="0" IVar="-1" Cut="0.0000000000000000e+00" cType="1" res="1.2702867388725281e-02" rms="4.1519436240196228e-01" purity="6.5566974878311157e-01" nType="-99"/>
          <Node pos="r" depth="2" NCoef="0" IVar="-1" Cut="0.0000000000000000e+00" cType="1" res="-2.4372322484850883e-02" rms="4.1218629479408264e-01" purity="2.5346565246582031e-01" nType="-99"/>
        </Node>
      </Node>
    </BinaryTree>
    <BinaryTree type="DecisionTree" boostWeight="1.0000000000000000e+00" itree="19">
      <Node pos="s" depth="0" NCoef="0" IVar="2" Cut="3.3283330500125885e-02" cType="1" res="-2.1967532113194466e-02" rms="4.1605660319328308e-01" purity="4.9059280753135681e-01" nType="0">
        <Node pos="l" depth="1" NCoef="0" IVar="3" Cut="4.1933792829513550e-01" cType="1" res="3.2580830156803131e-02" rms="4.1186234354972839e-01" purity="6.0013103485107422e-01" nType="0">
          <Node pos="l" depth="2" NCoef="0" IVar="-1" Cut="0.0000000000000000e+00" cType="1" res="1.7354223877191544e-02" rms="4.1128870844841003e-01" purity="7.0182126760482788e-01" nType="-99"/>
          <Node pos="r" depth="2" NCoef="0" IVar="-1" Cut="0.0000000000000000e+00" cType="1" res="-2.4016013368964195e-02" rms="3.8807690143585205e-01" purity="2.2507818043231964e-01" nType="-99"/>
        </Node>
        <Node pos="r" depth="1" NCoef="0" IVar="3" Cut="1.6098903119564056e-01" cType="1" res="-1.1974727362394333e-01" rms="4.0550351142883301e-01" purity="2.9424193501472473e-01" nType="0">
          <Node pos="l" depth="2" NCoef="0" IVar="-1" Cut="0.0000000000000000e+00" cType="1" res="-7.4346759356558323e-03" rms="4.4796505570411682e-01" purity="5.0839436054229736e-01" nType="-99"/>
          <Node pos="r" depth="2" NCoef="0" IVar="-1" Cut="0.0000000000000000e+00" cType="1" res="-3.7330847233533859e-02" rms="3.7858173251152039e-01" purity="1.9833892583847046e-01" nType="-99"/>
        </Node>
      </Node>
    </BinaryTree>
    <BinaryTree type="DecisionTree" boostWeight="1.0000000000000000e+00" itree="20">
      <Node pos="s" depth="0" NCoef="0" IVar="0" Cut="7.2039526367187500e+02" cType="1" res="-2.4435583502054214e-02" rms="4.3151035904884338e-01" purity="5.0290870666503906e-01" nType="0">
        <Node pos="l" depth="1" NCoef="0" IVar="0" Cut="5.8708184814453125e+02" cType="1" res="-9.3251258134841919e-02" rms="4.0475583076477051e-01" purity="2.2742649912834167e-01" nType="0">
          <Node pos="l" depth="2" NCoef="0" IVar="-1" Cut="0.0000000000000000e+00" cType="1" res="-3.9731591939926147e-02" rms="3.4921139478683472e-01" purity="1.4708091318607330e-01" nType="-99"/>
          <Node pos="r" depth="2" NCoef="0" IVar="-1" Cut="0.0000000000000000e+00" cType="1" res="-8.3199776709079742e-03" rms="4.4198328256607056e-01" purity="3.0182737112045288e-01" nType="-99"/>
        </Node>
        <Node pos="r" depth="1" NCoef="0" IVar="1" Cut="4.4579310417175293e+00" cType="1" res="5.6463158689439297e-03" rms="4.3932518362998962e-01" purity="6.2333232164382935e-01" nType="0">
          <Node pos="l" depth="2" NCoef="0" IVar="-1" Cut="0.0000000000000000e+00" cType="1" res="1.1853842064738274e-02" rms="4.4394657015800476e-01" purity="5.6677693128585815e-01" nType="-99"/>
          <Node pos="r" depth="2" NCoef="0" IVar="-1" Cut="0.0000000000000000e+00" cType="1" res="-2.1669145673513412e-02" rms="4.2120900750160217e-01" purity="7.1530860662460327e-01" nType="-99"/>
        </Node>
      </Node>
    </BinaryTree>
    <BinaryTree type="DecisionTree" boostWeight="1.0000000000000000e+00" itree="21">
      <Node pos="s" depth="0" NCoef="0" IVar="0" Cut="2.6455722656250000e+03" cType="1" res="-2.0766761153936386e-02" rms="4.1540619730949402e-01" purity="4.9258950352668762e-01" nType="0">
        <Node pos="l" depth="1" NCoef="0" IVar="2" Cut="3.6981489975005388e-03" cType="1" res="-3.5825088620185852e-02" rms="4.2785945534706116e-01" purity="4.6205863356590271e-01" nType="0">
          <Node pos="l" depth="2" NCoef="0" IVar="-1" Cut="0.0000000000000000e+00" cType="1" res="3.2693576067686081e-02" rms="3.1858932971954346e-01" purity="7.7566391229629517e-01" nType="-99"/>
          <Node pos="r" depth="2" NCoef="0" IVar="-1" Cut="0.0000000000000000e+00" cType="1" res="-1.1982898227870464e-02" rms="4.3346139788627625e-01" purity="4.3552303314208984e-01" nType="-99"/>
        </Node>
        <Node pos="r" depth="1" NCoef="0" IVar="-1" Cut="0.0000000000000000e+00" cType="1" res="1.0098023712635040e-01" rms="-nan" purity="1.1061850786209106e+00" nType="-99"/>
      </Node>
    </BinaryTree>
    <BinaryTree type="DecisionTree" boostWeight="1.0000000000000000e+00" itree="22">
      <Node pos="s" depth="0" NCoef="0" IVar="3" Cut="5.3058964014053345e-01" cType="1" res="1.1653050780296326e-02" rms="4.1218185424804688e-01" purity="5.1631355285644531e-01" nType="0">
        <Node pos="l" depth="1" NCoef="0" IVar="1" Cut="1.5663694143295288e+00" cType="1" res="4.5009866356849670e-02" rms="4.2130392789840698e-01" purity="6.0333639383316040e-01" nType="0">
          <Node pos="l" depth="2" NCoef="0" IVar="-1" Cut="0.0000000000000000e+00" cType="1" res="-5.4453887045383453e-02" rms="2.5622332096099854e-01" purity="6.7292347550392151e-02" nType="-99"/>
          <Node pos="r" depth="2" NCoef="0" IVar="-1" Cut="0.0000000000000000e+00" cType="1" res="1.4546448364853859e-02" rms="4.2384529113769531e-01" purity="6.3016772270202637e-01" nType="-99"/>
        </Node>
        <Node pos="r" depth="1" NCoef="0" IVar="3" Cut="7.3913633823394775e-01" cType="1" res="-1.4192861318588257e-01" rms="3.2584843039512634e-01" purity="1.1564275622367859e-01" nType="0">
          <Node pos="l" depth="2" NCoef="0" IVar="-1" Cut="0.0000000000000000e+00" cType="1" res="-5.3470607846975327e-02" rms="2.8396621346473694e-01" purity="8.0554552376270294e-02" nType="-99"/>
          <Node pos="r" depth="2" NCoef="0" IVar="-1" Cut="0.0000000000000000e+00" cType="1" res="-1.0416479781270027e-02" rms="3.6571583151817322e-01" purity="1.7893777787685394e-01" nType="-99"/>
        </Node>
      </Node>
    </BinaryTree>
    <BinaryTree type="DecisionTree" boostWeight="1.0000000000000000e+00" itree="23">
      <Node pos="s" depth="0" NCoef="0" IVar="1" Cut="3.0355350971221924e+00" cType="1" res="-2.1199174225330353e-02" rms="4.0351429581642151e-01" purity="4.8251888155937195e-01" nType="0">
        <Node pos="l" depth="1" NCoef="0" IVar="3" Cut="2.3603834211826324e-01" cType="1" res="-9.9787160754203796e-02" rms="3.8272160291671753e-01" purity="1.9869732856750488e-01" nType="0">
          <Node pos="l" depth="2" NCoef="0" IVar="-1" Cut="0.0000000000000000e+00" cType="1" res="-3.6378897726535797e-02" rms="3.9653283357620239e-01" purity="2.2400081157684326e-01" nType="-99"/>
          <Node pos="r" depth="2" NCoef="0" IVar="-1" Cut="0.0000000000000000e+00" cType="1" res="-1.7527801916003227e-02" rms="3.6895278096199036e-01" purity="1.8339647352695465e-01" nType="-99"/>
        </Node>
        <Node pos="r" depth="1" NCoef="0" IVar="3" Cut="2.3356384038925171e-01" cType="1" res="3.5248018801212311e-02" rms="4.0858733654022217e-01" purity="6.8637865781784058e-01" nType="0">
          <Node pos="l" depth="2" NCoef="0" IVar="-1" Cut="0.0000000000000000e+00" cType="1" res="2.4727309122681618e-02" rms="3.7573057413101196e-01" purity="8.1507372856140137e-01" nType="-99"/>
          <Node pos="r" depth="2" NCoef="0" IVar="-1" Cut="0.0000000000000000e+00" cType="1" res="-1.6243113204836845e-02" rms="4.4735372066497803e-01" purity="4.3554648756980896e-01" nType="-99"/>
        </Node>
      </Node>
    </BinaryTree>
    <BinaryTree type="DecisionTree" boostWeight="1.0000000000000000e+00" itree="24">
      <Node pos="s" depth="0" NCoef="0" IVar="2" Cut="3.6981489975005388e-03" cType="1" res="1.4044650830328465e-02" rms="3.9296758174896240e-01" purity="5.2509146928787231e-01" nType="0">
        <Node pos="l" depth="1" NCoef="0" IVar="-1" Cut="0.0000000000000000e+00" cType="1" res="1.4089314639568329e-01" rms="-nan" purity="1.1384969949722290e+00" nType="-99"/>
        <Node pos="r" depth="1" NCoef="0" IVar="3" Cut="3.3316296339035034e-01" cType="1" res="-8.5220402106642723e-03" rms="4.0800711512565613e-01" purity="4.8859825730323792e-01" nType="0">
          <Node pos="l" depth="2" NCoef="0" IVar="-1" Cut="0.0000000000000000e+00" cType="1" res="8.1108817830681801e-03" rms="4.1117125749588013e-01" purity="6.2392240762710571e-01" nType="-99"/>
          <Node pos="r" depth="2" NCoef="0" IVar="-1" Cut="0.0000000000000000e+00" cType="1" res="-2.4499960243701935e-02" rms="3.8798364996910095e-01" purity="2.0907041430473328e-01" nType="-99"/>
        </Node>
      </Node>
    </BinaryTree>
    <BinaryTree type="DecisionTree" boostWeight="1.0000000000000000e+00" itree="25">
      <Node pos="s" depth="0" NCoef="0" IVar="2" Cut="5.3623143583536148e-02" cType="1" res="-2.3111386224627495e-02" rms="4.0930795669555664e-01" purity="4.8084077239036560e-01" nType="0">
        <Node pos="l" depth="1" NCoef="0" IVar="1" Cut="5.9988441467285156e+00" cType="1" res="9.3357339501380920e-03" rms="4.0974414348602295e-01" purity="5.4249203205108643e-01" nType="0">
          <Node pos="l" depth="2" NCoef="0" IVar="-1" Cut="0.0000000000000000e+00" cType="1" res="6.1812037602066994e-03" rms="4.0366408228874207e-01" purity="5.3851342201232910e-01" nType="-99"/>
          <Node pos="r" depth="2" NCoef="0" IVar="-1" Cut="0.0000000000000000e+00" cType="1" res="-7.7836878597736359e-02" rms="4.4014522433280945e-01" purity="6.0649192333221436e-01" nType="-99"/>
        </Node>
        <Node pos="r" depth="1" NCoef="0" IVar="2" Cut="6.0762081295251846e-02" cType="1" res="-1.4069245755672455e-01" rms="3.8548400998115540e-01" purity="2.5743031501770020e-01" nType="0">
          <Node pos="l" depth="2" NCoef="0" IVar="-1" Cut="0.0000000000000000e+00" cType="1" res="-5.1047332584857941e-02" rms="3.5417371988296509e-01" purity="2.2314752638339996e-01" nType="-99"/>
          <Node pos="r" depth="2" NCoef="0" IVar="-1" Cut="0.0000000000000000e+00" cType="1" res="-2.6203136891126633e-02" rms="3.9252668619155884e-01" purity="2.7142176032066345e-01" nType="-99"/>
        </Node>
      </Node>
    </BinaryTree>
    <BinaryTree type="DecisionTree" boostWeight="1.0000000000000000e+00" itree="26">
      <Node pos="s" depth="0" NCoef="0" IVar="0" Cut="1.8857897949218750e+03" cType="1" res="-1.1865521781146526e-02" rms="4.0263608098030090e-01" purity="4.8748728632926941e-01" nType="0">
        <Node pos="l" depth="1" NCoef="0" IVar="2" Cut="4.7517821192741394e-02" cType="1" res="-3.5497553646564484e-02" rms="4.2605143785476685e-01" purity="4.0992939472198486e-01" nType="0">
          <Node pos="l" depth="2" NCoef="0" IVar="-1" Cut="0.0000000000000000e+00" cType="1" res="-1.4917566440999508e-03" rms="4.3185704946517944e-01" purity="4.6938395500183105e-01" nType="-99"/>
          <Node pos="r" depth="2" NCoef="0" IVar="-1" Cut="0.0000000000000000e+00" cType="1" res="-3.1979985535144806e-02" rms="3.9288085699081421e-01" purity="2.2211098670959473e-01" nType="-99"/>
        </Node>
        <Node pos="r" depth="1" NCoef="0" IVar="3" Cut="1.4809753000736237e-01" cType="1" res="1.2863110005855560e-01" rms="1.5393470227718353e-01" purity="9.4858306646347046e-01" nType="0">
          <Node pos="l" depth="2" NCoef="0" IVar="-1" Cut="0.0000000000000000e+00" cType="1" res="8.2489997148513794e-02" rms="-nan" purity="1.0534570217132568e+00" nType="-99"/>
          <Node pos="r" depth="2" NCoef="0" IVar="-1" Cut="0.0000000000000000e+00" cType="1" res="7.4029230745509267e-05" rms="3.7291938066482544e-01" purity="7.9355883598327637e-01" nType="-99"/>
        </Node>
      </Node>
    </BinaryTree>
    <BinaryTree type="DecisionTree" boostWeight="1.0000000000000000e+00" itree="27">
      <Node pos="s" depth="0" NCoef="0" IVar="2" Cut="1.8471593037247658e-02" cType="1" res="-2.7562415227293968e-02" rms="4.1655078530311584e-01" purity="4.7394919395446777e-01" nType="0">
        <Node pos="l" depth="1" NCoef="0" IVar="3" Cut="2.4715373292565346e-02" cType="1" res="2.0686361938714981e-02" rms="4.0600240230560303e-01" purity="6.1570054292678833e-01" nType="0">
          <Node pos="l" depth="2" NCoef="0" IVar="-1" Cut="0.0000000000000000e+00" cType="1" res="8.9822225272655487e-02" rms="1.4171093702316284e-01" purity="1.0661820173263550e+00" nType="-99"/>
          <Node pos="r" depth="2" NCoef="0" IVar="-1" Cut="0.0000000000000000e+00" cType="1" res="1.8693124875426292e-03" rms="4.1452956199645996e-01" purity="5.8474200963973999e-01" nType="-99"/>
        </Node>
        <Node pos="r" depth="1" NCoef="0" IVar="2" Cut="3.9526592940092087e-02" cType="1" res="-7.6058238744735718e-02" rms="4.2135953903198242e-01" purity="3.3147200942039490e-01" nType="0">
          <Node pos="l" depth="2" NCoef="0" IVar="-1" Cut="0.0000000000000000e+00" cType="1" res="-2.7302792295813560e-02" rms="4.2492878437042236e-01" purity="3.2722041010856628e-01" nType="-99"/>
          <Node pos="r" depth="2" NCoef="0" IVar="-1" Cut="0.0000000000000000e+00" cType="1" res="-8.4934812039136887e-03" rms="4.1298642754554749e-01" purity="3.3652395009994507e-01" nType="-99"/>
        </Node>
      </Node>
    </BinaryTree>
    <BinaryTree type="DecisionTree" boostWeight="1.0000000000000000e+00" itree="28">
      <Node pos="s" depth="0" NCoef="0" IVar="0" Cut="7.4460955810546875e+02" cType="1" res="1.3349270448088646e-02" rms="4.0317937731742859e-01" purity="5.2407425642013550e-01" nType="0">
        <Node pos="l" depth="1" NCoef="0" IVar="3" Cut="1.1097818613052368e-01" cType="1" res="-5.7815488427877426e-02" rms="4.0623018145561218e-01" purity="2.4891012907028198e-01" nType="0">
          <Node pos="l" depth="2" NCoef="0" IVar="-1" Cut="0.0000000000000000e+00" cType="1" res="2.5598227977752686e-02" rms="3.9519304037094116e-01" purity="5.0715899467468262e-01" nType="-99"/>
          <Node pos="r" depth="2" NCoef="0" IVar="-1" Cut="0.0000000000000000e+00" cType="1" res="-2.3634608834981918e-02" rms="4.0026664733886719e-01" purity="2.0216062664985657e-01" nType="-99"/>
        </Node>
        <Node pos="r" depth="1" NCoef="0" IVar="1" Cut="2.5926566123962402e+00" cType="1" res="5.3659610450267792e-02" rms="3.9580458402633667e-01" purity="6.7993736267089844e-01" nType="0">
          <Node pos="l" depth="2" NCoef="0" IVar="-1" Cut="0.0000000000000000e+00" cType="1" res="-1.9674956798553467e-02" rms="4.1363617777824402e-01" purity="2.2502718865871429e-01" nType="-99"/>
          <Node pos="r" depth="2" NCoef="0" IVar="-1" Cut="0.0000000000000000e+00" cType="1" res="2.0986979827284813e-02" rms="3.8805946707725525e-01" purity="7.5918275117874146e-01" nType="-99"/>
        </Node>
      </Node>
    </BinaryTree>
    <BinaryTree type="DecisionTree" boostWeight="1.0000000000000000e+00" itree="29">
      <Node pos="s" depth="0" NCoef="0" IVar="2" Cut="9.7441561520099640e-02" cType="1" res="-3.0882857739925385e-02" rms="4.1574463248252869e-01" purity="4.7773787379264832e-01" nType="0">
        <Node pos="l" depth="1" NCoef="0" IVar="1" Cut="5.9725904464721680e+00" cType="1" res="-1.7189536243677139e-02" rms="4.1924130916595459e-01" purity="5.0409883260726929e-01" nType="0">
          <Node pos="l" depth="2" NCoef="0" IVar="-1" Cut="0.0000000000000000e+00" cType="1" res="-1.7589450580999255e-03" rms="4.1486373543739319e-01" purity="4.9634587764739990e-01" nType="-99"/>
          <Node pos="r" depth="2" NCoef="0" IVar="-1" Cut="0.0000000000000000e+00" cType="1" res="-7.1569740772247314e-02" rms="4.5123690366744995e-01" purity="6.3449662923812866e-01" nType="-99"/>
        </Node>
        <Node pos="r" depth="1" NCoef="0" IVar="-1" Cut="0.0000000000000000e+00" cType="1" res="-5.0413750112056732e-02" rms="3.2610914111137390e-01" purity="1.5380376577377319e-01" nType="-99"/>
      </Node>
    </BinaryTree>
    <BinaryTree type="DecisionTree" boostWeight="1.0000000000000000e+00" itree="30">
      <Node pos="s" depth="0" NCoef="0" IVar="2" Cut="7.3962970636785030e-03" cType="1" res="2.3151990026235580e-02" rms="3.7695151567459106e-01" purity="5.2234309911727905e-01" nType="0">
        <Node pos="l" depth="1" NCoef="0" IVar="1" Cut="4.8892517089843750e+00" cType="1" res="7.7665910124778748e-02" rms="-nan" purity="9.3863797187805176e-01" nType="-99"/>
        <Node pos="r" depth="1" NCoef="0" IVar="3" Cut="3.8176926970481873e-01" cType="1" res="-2.0785026252269745e-02" rms="4.0955725312232971e-01" purity="4.3805813789367676e-01" nType="0">
          <Node pos="l" depth="2" NCoef="0" IVar="-1" Cut="0.0000000000000000e+00" cType="1" res="3.6803253460675478e-03" rms="4.2889362573623657e-01" purity="5.6254059076309204e-01" nType="-99"/>
          <Node pos="r" depth="2" NCoef="0" IVar="-1" Cut="0.0000000000000000e+00" cType="1" res="-3.0716929584741592e-02" rms="3.4682011604309082e-01" purity="1.4948029816150665e-01" nType="-99"/>
        </Node>
      </Node>
    </BinaryTree>
    <BinaryTree type="DecisionTree" boostWeight="1.0000000000000000e+00" itree="31">
      <Node pos="s" depth="0" NCoef="0" IVar="3" Cut="2.8397592902183533e-01" cType="1" res="-1.3359352946281433e-02" rms="3.9991188049316406e-01" purity="4.8003464937210083e-01" nType="0">
        <Node pos="l" depth="1" NCoef="0" IVar="2" Cut="5.5361529812216759e-03" cType="1" res="2.6538819074630737e-02" rms="3.9977094531059265e-01" purity="6.4152252674102783e-01" nType="0">
          <Node pos="l" depth="2" NCoef="0" IVar="-1" Cut="0.0000000000000000e+00" cType="1" res="1.0025008767843246e-01" rms="-nan" purity="1.0527373552322388e+00" nType="-99"/>
          <Node pos="r" depth="2" NCoef="0" IVar="-1" Cut="0.0000000000000000e+00" cType="1" res="2.5243338313885033e-04" rms="4.3190395832061768e-01" purity="5.8541512489318848e-01" nType="-99"/>
        </Node>
        <Node pos="r" depth="1" NCoef="0" IVar="1" Cut="3.8893387317657471e+00" cType="1" res="-7.0360668003559113e-02" rms="3.9315029978752136e-01" purity="2.4932180345058441e-01" nType="0">
          <Node pos="l" depth="2" NCoef="0" IVar="-1" Cut="0.0000000000000000e+00" cType="1" res="-9.4237755984067917e-03" rms="3.7827125191688538e-01" purity="2.2048456966876984e-01" nType="-99"/>
          <Node pos="r" depth="2" NCoef="0" IVar="-1" Cut="0.0000000000000000e+00" cType="1" res="-4.5769289135932922e-02" rms="4.1451731324195862e-01" purity="3.4095418453216553e-01" nType="-99"/>
        </Node>
      </Node>
    </BinaryTree>
    <BinaryTree type="DecisionTree" boostWeight="1.0000000000000000e+00" itree="32">
      <Node pos="s" depth="0" NCoef="0" IVar="0" Cut="2.7170314941406250e+03" cType="1" res="-1.3785377144813538e-02" rms="4.1472899913787842e-01" purity="5.0331735610961914e-01" nType="0">
        <Node pos="l" depth="1" NCoef="0" IVar="3" Cut="8.6497709155082703e-02" cType="1" res="-2.4465484544634819e-02" rms="4.2726036906242371e-01" purity="4.7669336199760437e-01" nType="0">
          <Node pos="l" depth="2" NCoef="0" IVar="-1" Cut="0.0000000000000000e+00" cType="1" res="-3.0307861045002937e-02" rms="4.5589229464530945e-01" purity="5.8199411630630493e-01" nType="-99"/>
          <Node pos="r" depth="2" NCoef="0" IVar="-1" Cut="0.0000000000000000e+00" cType="1" res="6.6652928944677114e-04" rms="4.1402167081832886e-01" purity="4.4269555807113647e-01" nType="-99"/>
        </Node>
        <Node pos="r" depth="1" NCoef="0" IVar="-1" Cut="0.0000000000000000e+00" cType="1" res="9.1953434050083160e-02" rms="-nan" purity="1.0719358921051025e+00" nType="-99"/>
      </Node>
    </BinaryTree>
    <BinaryTree type="DecisionTree" boostWeight="1.0000000000000000e+00" itree="33">
      <Node pos="s" depth="0" NCoef="0" IVar="3" Cut="1.7289443314075470e-01" cType="1" res="-2.6870755478739738e-02" rms="4.0910634398460388e-01" purity="4.6666327118873596e-01" nType="0">
        <Node pos="l" depth="1" NCoef="0" IVar="0" Cut="1.7604217529296875e+03" cType="1" res="2.3114692419767380e-02" rms="3.9423167705535889e-01" purity="6.5351164340972900e-01" nType="0">
          <Node pos="l" depth="2" NCoef="0" IVar="-1" Cut="0.0000000000000000e+00" cType="1" res="-5.8188918046653271e-03" rms="4.5628276467323303e-01" purity="5.3911107778549194e-01" nType="-99"/>
          <Node pos="r" depth="2" NCoef="0" IVar="-1" Cut="0.0000000000000000e+00" cType="1" res="7.7671788632869720e-02" rms="-nan" purity="1.0353941917419434e+00" nType="-99"/>
        </Node>
        <Node pos="r" depth="1" NCoef="0" IVar="0" Cut="2.3166516113281250e+03" cType="1" res="-6.0406710952520370e-02" rms="4.1543236374855042e-01" purity="3.4130403399467468e-01" nType="0">
          <Node pos="l" depth="2" NCoef="0" IVar="-1" Cut="0.0000000000000000e+00" cType="1" res="-1.2549833394587040e-02" rms="4.0744039416313171e-01" purity="3.2855620980262756e-01" nType="-99"/>
          <Node pos="r" depth="2" NCoef="0" IVar="-1" Cut="0.0000000000000000e+00" cType="1" res="-8.7686322629451752e-02" rms="4.7964978218078613e-01" purity="5.3684443235397339e-01" nType="-99"/>
        </Node>
      </Node>
    </BinaryTree>
    <BinaryTree type="DecisionTree" boostWeight="1.0000000000000000e+00" itree="34">
      <Node pos="s" depth="0" NCoef="0" IVar="3" Cut="1.4819163084030151e-01" cType="1" res="-6.3651297241449356e-03" rms="4.0165907144546509e-01" purity="4.8856636881828308e-01" nType="0">
        <Node pos="l" depth="1" NCoef="0" IVar="1" Cut="5.7538056373596191e+00" cType="1" res="6.3942313194274902e-02" rms="3.8532173633575439e-01" purity="7.3400455713272095e-01" nType="0">
          <Node pos="l" depth="2" NCoef="0" IVar="-1" Cut="0.0000000000000000e+00" cType="1" res="3.1045190989971161e-02" rms="3.5296463966369629e-01" purity="7.5443947315216064e-01" nType="-99"/>
          <Node pos="r" depth="2" NCoef="0" IVar="-1" Cut="0.0000000000000000e+00" cType="1" res="-8.9528188109397888e-02" rms="4.3885636329650879e-01" purity="6.0971015691757202e-01" nType="-99"/>
        </Node>
        <Node pos="r" depth="1" NCoef="0" IVar="1" Cut="4.9805378913879395e+00" cType="1" res="-4.3052934110164642e-02" rms="4.0510952472686768e-01" purity="3.6049184203147888e-01" nType="0">
          <Node pos="l" depth="2" NCoef="0" IVar="-1" Cut="0.0000000000000000e+00" cType="1" res="-1.6057066619396210e-02" rms="4.1363248229026794e-01" purity="3.1101942062377930e-01" nType="-99"/>
          <Node pos="r" depth="2" NCoef="0" IVar="-1" Cut="0.0000000000000000e+00" cType="1" res="5.5554017424583435e-02" rms="1.8099606037139893e-01" purity="9.5553618669509888e-01" nType="-99"/>
        </Node>
      </Node>
    </BinaryTree>
    <BinaryTree type="DecisionTree" boostWeight="1.0000000000000000e+00" itree="35">
      <Node pos="s" depth="0" NCoef="0" IVar="1" Cut="1.6566315889358521e+00" cType="1" res="-1.5151133760809898e-02" rms="4.0100815892219543e-01" purity="4.8362004756927490e-01" nType="0">
        <Node pos="l" depth="1" NCoef="0" IVar="3" Cut="3.4780907630920410e-01" cType="1" res="-1.4534519612789154e-01" rms="2.7147877216339111e-01" purity="7.0162288844585419e-02" nType="0">
          <Node pos="l" depth="2" NCoef="0" IVar="-1" Cut="0.0000000000000000e+00" cType="1" res="-6.2429256737232208e-02" rms="2.5991857051849365e-01" purity="5.7186231017112732e-02" nType="-99"/>
          <Node pos="r" depth="2" NCoef="0" IVar="-1" Cut="0.0000000000000000e+00" cType="1" res="-3.4099582582712173e-02" rms="2.6277062296867371e-01" purity="7.7171556651592255e-02" nType="-99"/>
        </Node>
        <Node pos="r" depth="1" NCoef="0" IVar="2" Cut="7.3886387981474400e-03" cType="1" res="-1.1549079790711403e-03" rms="4.1006541252136230e-01" purity="5.2806788682937622e-01" nType="0">
          <Node pos="l" depth="2" NCoef="0" IVar="-1" Cut="0.0000000000000000e+00" cType="1" res="3.3809799700975418e-02" rms="2.5209102034568787e-01" purity="8.4534704685211182e-01" nType="-99"/>
          <Node pos="r" depth="2" NCoef="0" IVar="-1" Cut="0.0000000000000000e+00" cType="1" res="-5.9222457930445671e-03" rms="4.3520978093147278e-01" purity="4.5573252439498901e-01" nType="-99"/>
        </Node>
      </Node>
    </BinaryTree>
    <BinaryTree type="DecisionTree" boostWeight="1.0000000000000000e+00" itree="36">
      <Node pos="s" depth="0" NCoef="0" IVar="2" Cut="3.3283330500125885e-02" cType="1" res="1.4163552259560674e-04" rms="3.9292576909065247e-01" purity="4.9097463488578796e-01" nType="0">
        <Node pos="l" depth="1" NCoef="0" IVar="2" Cut="6.5721645951271057e-03" cType="1" res="3.2102666795253754e-02" rms="3.8635072112083435e-01" purity="5.8627289533615112e-01" nType="0">
          <Node pos="l" depth="2" NCoef="0" IVar="-1" Cut="0.0000000000000000e+00" cType="1" res="4.5032210648059845e-02" rms="1.9964808225631714e-01" purity="8.6522382497787476e-01" nType="-99"/>
          <Node pos="r" depth="2" NCoef="0" IVar="-1" Cut="0.0000000000000000e+00" cType="1" res="1.2711596209555864e-03" rms="4.2002943158149719e-01" purity="5.0827413797378540e-01" nType="-99"/>
        </Node>
        <Node pos="r" depth="1" NCoef="0" IVar="3" Cut="9.9081814289093018e-02" cType="1" res="-6.6548913717269897e-02" rms="3.9812424778938293e-01" purity="2.9212328791618347e-01" nType="0">
          <Node pos="l" depth="2" NCoef="0" IVar="-1" Cut="0.0000000000000000e+00" cType="1" res="-3.6095425486564636e-02" rms="4.0108028054237366e-01" purity="3.3323246240615845e-01" nType="-99"/>
          <Node pos="r" depth="2" NCoef="0" IVar="-1" Cut="0.0000000000000000e+00" cType="1" res="-9.1550406068563461e-03" rms="3.9177426695823669e-01" purity="2.7630424499511719e-01" nType="-99"/>
        </Node>
      </Node>
    </BinaryTree>
    <BinaryTree type="DecisionTree" boostWeight="1.0000000000000000e+00" itree="37">
      <Node pos="s" depth="0" NCoef="0" IVar="1" Cut="5.9370503425598145e+00" cType="1" res="-1.6080306842923164e-02" rms="4.0571510791778564e-01" purity="4.9221447110176086e-01" nType="0">
        <Node pos="l" depth="1" NCoef="0" IVar="1" Cut="2.2107598781585693e+00" cType="1" res="-2.5568509474396706e-02" rms="4.1513612866401672e-01" purity="4.7135883569717407e-01" nType="0">
          <Node pos="l" depth="2" NCoef="0" IVar="-1" Cut="0.0000000000000000e+00" cType="1" res="-2.7991600334644318e-02" rms="3.5007351636886597e-01" purity="1.4880570769309998e-01" nType="-99"/>
          <Node pos="r" depth="2" NCoef="0" IVar="-1" Cut="0.0000000000000000e+00" cType="1" res="-3.5378341563045979e-03" rms="4.2511484026908875e-01" purity="5.3205090761184692e-01" nType="-99"/>
        </Node>
        <Node pos="r" depth="1" NCoef="0" IVar="-1" Cut="0.0000000000000000e+00" cType="1" res="7.6572529971599579e-02" rms="-nan" purity="1.0268497467041016e+00" nType="-99"/>
      </Node>
    </BinaryTree>
    <BinaryTree type="DecisionTree" boostWeight="1.0000000000000000e+00" itree="38">
      <Node pos="s" depth="0" NCoef="0" IVar="2" Cut="9.0510800480842590e-02" cType="1" res="-1.8608473474159837e-03" rms="3.9762476086616516e-01" purity="5.0160932540893555e-01" nType="0">
        <Node pos="l" depth="1" NCoef="0" IVar="1" Cut="3.0881013870239258e+00" cType="1" res="9.0571856126189232e-03" rms="3.9352864027023315e-01" purity="5.2250987291336060e-01" nType="0">
          <Node pos="l" depth="2" NCoef="0" IVar="-1" Cut="0.0000000000000000e+00" cType="1" res="-1.4510888606309891e-02" rms="4.0296581387519836e-01" purity="2.2949716448783875e-01" nType="-99"/>
          <Node pos="r" depth="2" NCoef="0" IVar="-1" Cut="0.0000000000000000e+00" cType="1" res="1.3861561194062233e-02" rms="3.8199231028556824e-01" purity="7.1789520978927612e-01" nType="-99"/>
        </Node>
        <Node pos="r" depth="1" NCoef="0" IVar="-1" Cut="0.0000000000000000e+00" cType="1" res="-3.9696466177701950e-02" rms="4.2250365018844604e-01" purity="2.1736739575862885e-01" nType="-99"/>
      </Node>
    </BinaryTree>
    <BinaryTree type="DecisionTree" boostWeight="1.0000000000000000e+00" itree="39">
      <Node pos="s" depth="0" NCoef="0" IVar="3" Cut="4.3211871385574341e-01" cType="1" res="2.4389468133449554e-02" rms="3.8604599237442017e-01" purity="5.2081024646759033e-01" nType="0">
        <Node pos="l" depth="1" NCoef="0" IVar="0" Cut="2.4094677734375000e+03" cType="1" res="5.3994420915842056e-02" rms="3.8887697458267212e-01" purity="6.2606555223464966e-01" nType="0">
          <Node pos="l" depth="2" NCoef="0" IVar="-1" Cut="0.0000000000000000e+00" cType="1" res="9.8203327506780624e-03" rms="4.1926506161689758e-01" purity="5.8092015981674194e-01" nType="-99"/>
          <Node pos="r" depth="2" NCoef="0" IVar="-1" Cut="0.0000000000000000e+00" cType="1" res="1.1604905873537064e-01" rms="-nan" purity="1.1028463840484619e+00" nType="-99"/>
        </Node>
        <Node pos="r" depth="1" NCoef="0" IVar="2" Cut="1.1140274815261364e-02" cType="1" res="-7.8322723507881165e-02" rms="3.5753273963928223e-01" purity="1.5563493967056274e-01" nType="0">
          <Node pos="l" depth="2" NCoef="0" IVar="-1" Cut="0.0000000000000000e+00" cType="1" res="-4.4087558984756470e-02" rms="3.4968072175979614e-01" purity="1.5768350660800934e-01" nType="-99"/>
          <Node pos="r" depth="2" NCoef="0" IVar="-1" Cut="0.0000000000000000e+00" cType="1" res="-1.0974561795592308e-02" rms="3.5122805833816528e-01" purity="1.5466718375682831e-01" nType="-99"/>
        </Node>
      </Node>
    </BinaryTree>
    <BinaryTree type="DecisionTree" boostWeight="1.0000000000000000e+00" itree="40">
      <Node pos="s" depth="0" NCoef="0" IVar="0" Cut="2.7931840820312500e+03" cType="1" res="-7.7605685219168663e-03" rms="4.1084745526313782e-01" purity="5.0849592685699463e-01" nType="0">
        <Node pos="l" depth="1" NCoef="0" IVar="1" Cut="5.2781062126159668e+00" cType="1" res="-1.5897426754236221e-02" rms="4.2363256216049194e-01" purity="4.8419377207756042e-01" nType="0">
          <Node pos="l" depth="2" NCoef="0" IVar="-1" Cut="0.0000000000000000e+00" cType="1" res="1.1960124538745731e-04" rms="4.1760027408599854e-01" purity="4.7311082482337952e-01" nType="-99"/>
          <Node pos="r" depth="2" NCoef="0" IVar="-1" Cut="0.0000000000000000e+00" cType="1" res="-6.9322660565376282e-02" rms="4.4688305258750916e-01" purity="6.0959011316299438e-01" nType="-99"/>
        </Node>
        <Node pos="r" depth="1" NCoef="0" IVar="-1" Cut="0.0000000000000000e+00" cType="1" res="1.1235386878252029e-01" rms="-nan" purity="1.0852771997451782e+00" nType="-99"/>
      </Node>
    </BinaryTree>
    <BinaryTree type="DecisionTree" boostWeight="1.0000000000000000e+00" itree="41">
      <Node pos="s" depth="0" NCoef="0" IVar="1" Cut="5.8681144714355469e+00" cType="1" res="-2.6974672451615334e-02" rms="4.0219792723655701e-01" purity="4.7111031413078308e-01" nType="0">
        <Node pos="l" depth="1" NCoef="0" IVar="0" Cut="6.4151690673828125e+02" cType="1" res="-1.7463544383645058e-02" rms="4.0188261866569519e-01" purity="4.5964920520782471e-01" nType="0">
          <Node pos="l" depth="2" NCoef="0" IVar="-1" Cut="0.0000000000000000e+00" cType="1" res="-2.5266807526350021e-02" rms="3.7037563323974609e-01" purity="1.7493206262588501e-01" nType="-99"/>
          <Node pos="r" depth="2" NCoef="0" IVar="-1" Cut="0.0000000000000000e+00" cType="1" res="2.4337409995496273e-03" rms="4.1046461462974548e-01" purity="5.6994998455047607e-01" nType="-99"/>
        </Node>
        <Node pos="r" depth="1" NCoef="0" IVar="-1" Cut="0.0000000000000000e+00" cType="1" res="-6.1602331697940826e-02" rms="3.8090792298316956e-01" purity="6.3737595081329346e-01" nType="-99"/>
      </Node>
    </BinaryTree>
    <BinaryTree type="DecisionTree" boostWeight="1.0000000000000000e+00" itree="42">
      <Node pos="s" depth="0" NCoef="0" IVar="3" Cut="1.6060246527194977e-01" cType="1" res="8.9232418686151505e-03" rms="3.9141488075256348e-01" purity="5.1104587316513062e-01" nType="0">
        <Node pos="l" depth="1" NCoef="0" IVar="2" Cut="3.6907696630805731e-03" cType="1" res="7.5054250657558441e-02" rms="3.3261603116989136e-01" purity="7.3965936899185181e-01" nType="0">
          <Node pos="l" depth="2" NCoef="0" IVar="-1" Cut="0.0000000000000000e+00" cType="1" res="2.2187344729900360e-01" rms="-nan" purity="1.2352226972579956e+00" nType="-99"/>
          <Node pos="r" depth="2" NCoef="0" IVar="-1" Cut="0.0000000000000000e+00" cType="1" res="1.3751015998423100e-02" rms="3.8269042968750000e-01" purity="6.9259524345397949e-01" nType="-99"/>
        </Node>
        <Node pos="r" depth="1" NCoef="0" IVar="3" Cut="2.4365572631359100e-01" cType="1" res="-2.9675554484128952e-02" rms="4.1714668273925781e-01" purity="3.7761065363883972e-01" nType="0">
          <Node pos="l" depth="2" NCoef="0" IVar="-1" Cut="0.0000000000000000e+00" cType="1" res="-2.8198933228850365e-02" rms="4.4101494550704956e-01" purity="4.6236243844032288e-01" nType="-99"/>
          <Node pos="r" depth="2" NCoef="0" IVar="-1" Cut="0.0000000000000000e+00" cType="1" res="2.8827099595218897e-03" rms="3.9885339140892029e-01" purity="3.3543473482131958e-01" nType="-99"/>
        </Node>
      </Node>
    </BinaryTree>
    <BinaryTree type="DecisionTree" boostWeight="1.0000000000000000e+00" itree="43">
      <Node pos="s" depth="0" NCoef="0" IVar="1" Cut="3.1287333965301514e+00" cType="1" res="1.4195895055308938e-03" rms="3.9580723643302917e-01" purity="5.1540482044219971e-01" nType="0">
        <Node pos="l" depth="1" NCoef="0" IVar="2" Cut="3.9054241497069597e-03" cType="1" res="-4.6099394559860229e-02" rms="4.0145400166511536e-01" purity="2.3543156683444977e-01" nType="0">
          <Node pos="l" depth="2" NCoef="0" IVar="-1" Cut="0.0000000000000000e+00" cType="1" res="-5.1682256162166595e-02" rms="4.4167464971542358e-01" purity="3.5026809573173523e-01" nType="-99"/>
          <Node pos="r" depth="2" NCoef="0" IVar="-1" Cut="0.0000000000000000e+00" cType="1" res="-8.8995490223169327e-03" rms="3.9373669028282166e-01" purity="2.2487413883209229e-01" nType="-99"/>
        </Node>
        <Node pos="r" depth="1" NCoef="0" IVar="3" Cut="3.6414006352424622e-01" cType="1" res="3.5868763923645020e-02" rms="3.8804110884666443e-01" purity="7.1837306022644043e-01" nType="0">
          <Node pos="l" depth="2" NCoef="0" IVar="-1" Cut="0.0000000000000000e+00" cType="1" res="1.7931841313838959e-02" rms="3.7272426486015320e-01" purity="7.9178637266159058e-01" nType="-99"/>
          <Node pos="r" depth="2" NCoef="0" IVar="-1" Cut="0.0000000000000000e+00" cType="1" res="-1.9119437783956528e-02" rms="4.3829199671745300e-01" purity="3.5476452112197876e-01" nType="-99"/>
        </Node>
      </Node>
    </BinaryTree>
    <BinaryTree type="DecisionTree" boostWeight="1.0000000000000000e+00" itree="44">
      <Node pos="s" depth="0" NCoef="0" IVar="0" Cut="2.5024753417968750e+03" cType="1" res="-2.8343491256237030e-02" rms="4.0851077437400818e-01" purity="4.7457632422447205e-01" nType="0">
        <Node pos="l" depth="1" NCoef="0" IVar="0" Cut="7.7199792480468750e+02" cType="1" res="-3.7980228662490845e-02" rms="4.2401885986328125e-01" purity="4.3733721971511841e-01" nType="0">
          <Node pos="l" depth="2" NCoef="0" IVar="-1" Cut="0.0000000000000000e+00" cType="1" res="3.8514535408467054e-03" rms="3.9344888925552368e-01" purity="2.7826929092407227e-01" nType="-99"/>
          <Node pos="r" depth="2" NCoef="0" IVar="-1" Cut="0.0000000000000000e+00" cType="1" res="-1.7763970419764519e-02" rms="4.3747553229331970e-01" purity="5.2528053522109985e-01" nType="-99"/>
        </Node>
        <Node pos="r" depth="1" NCoef="0" IVar="1" Cut="5.8127841949462891e+00" cType="1" res="7.2645336389541626e-02" rms="-nan" purity="1.0150190591812134e+00" nType="-99"/>
      </Node>
    </BinaryTree>
    <BinaryTree type="DecisionTree" boostWeight="1.0000000000000000e+00" itree="45">
      <Node pos="s" depth="0" NCoef="0" IVar="0" Cut="1.2336820068359375e+03" cType="1" res="-1.4346731826663017e-02" rms="4.0049457550048828e-01" purity="4.8205938935279846e-01" nType="0">
        <Node pos="l" depth="1" NCoef="0" IVar="1" Cut="4.3274922370910645e+00" cType="1" res="-4.5151505619287491e-02" rms="4.2327287793159485e-01" purity="3.2174575328826904e-01" nType="0">
          <Node pos="l" depth="2" NCoef="0" IVar="-1" Cut="0.0000000000000000e+00" cType="1" res="-7.7449898235499859e-03" rms="4.1471624374389648e-01" purity="3.1503820419311523e-01" nType="-99"/>
          <Node pos="r" depth="2" NCoef="0" IVar="-1" Cut="0.0000000000000000e+00" cType="1" res="-5.4463341832160950e-02" rms="4.7025361657142639e-01" purity="3.9651441574096680e-01" nType="-99"/>
        </Node>
        <Node pos="r" depth="1" NCoef="0" IVar="2" Cut="7.2848112322390079e-03" cType="1" res="5.2897814661264420e-02" rms="3.3591988682746887e-01" purity="8.3201223611831665e-01" nType="0">
          <Node pos="l" depth="2" NCoef="0" IVar="-1" Cut="0.0000000000000000e+00" cType="1" res="-1.5863336622714996e-02" rms="3.0193564295768738e-01" purity="8.8727414608001709e-01" nType="-99"/>
          <Node pos="r" depth="2" NCoef="0" IVar="-1" Cut="0.0000000000000000e+00" cType="1" res="2.5260802358388901e-02" rms="3.4438091516494751e-01" purity="8.0878734588623047e-01" nType="-99"/>
        </Node>
      </Node>
    </BinaryTree>
    <BinaryTree type="DecisionTree" boostWeight="1.0000000000000000e+00" itree="46">
      <Node pos="s" depth="0" NCoef="0" IVar="1" Cut="2.3724071979522705e+00" cType="1" res="1.8462188541889191e-02" rms="3.8922995328903198e-01" purity="5.1101171970367432e-01" nType="0">
        <Node pos="l" depth="1" NCoef="0" IVar="3" Cut="3.7031009793281555e-01" cType="1" res="-6.6983923316001892e-02" rms="3.6333695054054260e-01" purity="1.6440263390541077e-01" nType="0">
          <Node pos="l" depth="2" NCoef="0" IVar="-1" Cut="0.0000000000000000e+00" cType="1" res="-3.1809017062187195e-02" rms="4.0409684181213379e-01" purity="1.9766372442245483e-01" nType="-99"/>
          <Node pos="r" depth="2" NCoef="0" IVar="-1" Cut="0.0000000000000000e+00" cType="1" res="-7.9403594136238098e-03" rms="3.1837332248687744e-01" purity="1.3706424832344055e-01" nType="-99"/>
        </Node>
        <Node pos="r" depth="1" NCoef="0" IVar="1" Cut="5.0815296173095703e+00" cType="1" res="4.0707349777221680e-02" rms="3.9265429973602295e-01" purity="6.0124844312667847e-01" nType="0">
          <Node pos="l" depth="2" NCoef="0" IVar="-1" Cut="0.0000000000000000e+00" cType="1" res="1.8258048221468925e-02" rms="3.9270699024200439e-01" purity="5.6848615407943726e-01" nType="-99"/>
          <Node pos="r" depth="2" NCoef="0" IVar="-1" Cut="0.0000000000000000e+00" cType="1" res="-3.4397952258586884e-02" rms="3.6836475133895874e-01" purity="7.5227588415145874e-01" nType="-99"/>
        </Node>
      </Node>
    </BinaryTree>
    <BinaryTree type="DecisionTree" boostWeight="1.0000000000000000e+00" itree="47">
      <Node pos="s" depth="0" NCoef="0" IVar="0" Cut="5.7164257812500000e+02" cType="1" res="3.6072548478841782e-02" rms="3.7659731507301331e-01" purity="5.2966880798339844e-01" nType="0">
        <Node pos="l" depth="1" NCoef="0" IVar="1" Cut="1.8307698965072632e+00" cType="1" res="2.1216174960136414e-01" rms="2.4574878811836243e-01" purity="3.4876334667205811e-01" nType="0">
          <Node pos="l" depth="2" NCoef="0" IVar="-1" Cut="0.0000000000000000e+00" cType="1" res="-1.0754564777016640e-02" rms="3.6439302563667297e-01" purity="1.3739421963691711e-01" nType="-99"/>
          <Node pos="r" depth="2" NCoef="0" IVar="-1" Cut="0.0000000000000000e+00" cType="1" res="1.0706537961959839e-01" rms="-nan" purity="5.4156684875488281e-01" nType="-99"/>
        </Node>
        <Node pos="r" depth="1" NCoef="0" IVar="3" Cut="3.7037265300750732e-01" cType="1" res="2.3634040728211403e-02" rms="3.8109415769577026e-01" purity="5.4244756698608398e-01" nType="0">
          <Node pos="l" depth="2" NCoef="0" IVar="-1" Cut="0.0000000000000000e+00" cType="1" res="1.3382117263972759e-02" rms="3.7556752562522888e-01" purity="6.7579853534698486e-01" nType="-99"/>
          <Node pos="r" depth="2" NCoef="0" IVar="-1" Cut="0.0000000000000000e+00" cType="1" res="-1.1153575964272022e-02" rms="3.8828143477439880e-01" purity="2.0874381065368652e-01" nType="-99"/>
        </Node>
      </Node>
    </BinaryTree>
    <BinaryTree type="DecisionTree" boostWeight="1.0000000000000000e+00" itree="48">
      <Node pos="s" depth="0" NCoef="0" IVar="0" Cut="9.4070703125000000e+02" cType="1" res="-1.9355172291398048e-02" rms="3.8918158411979675e-01" purity="4.8387068510055542e-01" nType="0">
        <Node pos="l" depth="1" NCoef="0" IVar="1" Cut="3.7237973213195801e+00" cType="1" res="-7.4038669466972351e-02" rms="3.9515948295593262e-01" purity="2.6019075512886047e-01" nType="0">
          <Node pos="l" depth="2" NCoef="0" IVar="-1" Cut="0.0000000000000000e+00" cType="1" res="-1.4426996931433678e-02" rms="3.8402464985847473e-01" purity="2.4406495690345764e-01" nType="-99"/>
          <Node pos="r" depth="2" NCoef="0" IVar="-1" Cut="0.0000000000000000e+00" cType="1" res="-4.7587186098098755e-02" rms="4.3504506349563599e-01" purity="3.5679942369461060e-01" nType="-99"/>
        </Node>
        <Node pos="r" depth="1" NCoef="0" IVar="3" Cut="2.9590189456939697e-01" cType="1" res="4.0162596851587296e-02" rms="3.7358009815216064e-01" purity="7.2732496261596680e-01" nType="0">
          <Node pos="l" depth="2" NCoef="0" IVar="-1" Cut="0.0000000000000000e+00" cType="1" res="-3.5920147784054279e-03" rms="3.9205250144004822e-01" purity="7.5820636749267578e-01" nType="-99"/>
          <Node pos="r" depth="2" NCoef="0" IVar="-1" Cut="0.0000000000000000e+00" cType="1" res="6.0692045837640762e-02" rms="1.0413393378257751e-01" purity="5.8764618635177612e-01" nType="-99"/>
        </Node>
      </Node>
    </BinaryTree>
    <BinaryTree type="DecisionTree" boostWeight="1.0000000000000000e+00" itree="49">
      <Node pos="s" depth="0" NCoef="0" IVar="0" Cut="2.5782226562500000e+03" cType="1" res="-3.1082672998309135e-02" rms="4.1072663664817810e-01" purity="4.8453268408775330e-01" nType="0">
        <Node pos="l" depth="1" NCoef="0" IVar="0" Cut="5.2578173828125000e+02" cType="1" res="-3.9799589663743973e-02" rms="4.2563584446907043e-01" purity="4.5057025551795959e-01" nType="0">
          <Node pos="l" depth="2" NCoef="0" IVar="-1" Cut="0.0000000000000000e+00" cType="1" res="-6.0016855597496033e-02" rms="3.1420445442199707e-01" purity="8.5332453250885010e-02" nType="-99"/>
          <Node pos="r" depth="2" NCoef="0" IVar="-1" Cut="0.0000000000000000e+00" cType="1" res="-8.6495568975806236e-03" rms="4.2853164672851562e-01" purity="4.6907019615173340e-01" nType="-99"/>
        </Node>
        <Node pos="r" depth="1" NCoef="0" IVar="3" Cut="1.2097543478012085e-01" cType="1" res="6.7453868687152863e-02" rms="-nan" purity="1.0103614330291748e+00" nType="-99"/>
      </Node>
    </BinaryTree>
    <BinaryTree type="DecisionTree" boostWeight="1.0000000000000000e+00" itree="50">
      <Node pos="s" depth="0" NCoef="0" IVar="2" Cut="3.6765194963663816e-03" cType="1" res="9.5528922975063324e-03" rms="3.9940938353538513e-01" purity="5.1523375511169434e-01" nType="0">
        <Node pos="l" depth="1" NCoef="0" IVar="1" Cut="3.7352464199066162e+00" cType="1" res="-1.3162866234779358e-01" rms="3.8826972246170044e-01" purity="7.0247721672058105e-01" nType="0">
          <Node pos="l" depth="2" NCoef="0" IVar="-1" Cut="0.0000000000000000e+00" cType="1" res="-5.8187227696180344e-02" rms="4.5759072899818420e-01" purity="4.8620909452438354e-01" nType="-99"/>
          <Node pos="r" depth="2" NCoef="0" IVar="-1" Cut="0.0000000000000000e+00" cType="1" res="-9.1082766652107239e-02" rms="2.9582101106643677e-01" purity="8.9939576387405396e-01" nType="-99"/>
        </Node>
        <Node pos="r" depth="1" NCoef="0" IVar="3" Cut="5.8018761873245239e-01" cType="1" res="2.0944083109498024e-02" rms="3.9811784029006958e-01" purity="5.0012606382369995e-01" nType="0">
          <Node pos="l" depth="2" NCoef="0" IVar="-1" Cut="0.0000000000000000e+00" cType="1" res="9.3157319352030754e-03" rms="4.0358510613441467e-01" purity="5.5907064676284790e-01" nType="-99"/>
          <Node pos="r" depth="2" NCoef="0" IVar="-1" Cut="0.0000000000000000e+00" cType="1" res="-2.0117079839110374e-02" rms="3.5251387953758240e-01" purity="1.3494649529457092e-01" nType="-99"/>
        </Node>
      </Node>
    </BinaryTree>
    <BinaryTree type="DecisionTree" boostWeight="1.0000000000000000e+00" itree="51">
      <Node pos="s" depth="0" NCoef="0" IVar="1" Cut="5.8733901977539062e+00" cType="1" res="-1.5724541619420052e-02" rms="4.1249698400497437e-01" purity="5.0142383575439453e-01" nType="0">
        <Node pos="l" depth="1" NCoef="0" IVar="0" Cut="5.5225366210937500e+02" cType="1" res="-4.4522108510136604e-03" rms="4.0964445471763611e-01" purity="4.9515089392662048e-01" nType="0">
          <Node pos="l" depth="2" NCoef="0" IVar="-1" Cut="0.0000000000000000e+00" cType="1" res="-3.7553094327449799e-02" rms="3.3064955472946167e-01" purity="1.2337368726730347e-01" nType="-99"/>
          <Node pos="r" depth="2" NCoef="0" IVar="-1" Cut="0.0000000000000000e+00" cType="1" res="3.3753581810742617e-03" rms="4.1588738560676575e-01" purity="5.4286247491836548e-01" nType="-99"/>
        </Node>
        <Node pos="r" depth="1" NCoef="0" IVar="-1" Cut="0.0000000000000000e+00" cType="1" res="-8.0933585762977600e-02" rms="4.1259899735450745e-01" purity="6.1068987846374512e-01" nType="-99"/>
      </Node>
    </BinaryTree>
    <BinaryTree type="DecisionTree" boostWeight="1.0000000000000000e+00" itree="52">
      <Node pos="s" depth="0" NCoef="0" IVar="3" Cut="2.3453322052955627e-01" cType="1" res="-4.5141330920159817e-03" rms="4.0044271945953369e-01" purity="5.0232428312301636e-01" nType="0">
        <Node pos="l" depth="1" NCoef="0" IVar="3" Cut="3.4745153039693832e-02" cType="1" res="-3.5073976963758469e-02" rms="4.1004422307014465e-01" purity="6.1087751388549805e-01" nType="0">
          <Node pos="l" depth="2" NCoef="0" IVar="-1" Cut="0.0000000000000000e+00" cType="1" res="2.2165374830365181e-02" rms="3.3438774943351746e-01" purity="7.7292203903198242e-01" nType="-99"/>
          <Node pos="r" depth="2" NCoef="0" IVar="-1" Cut="0.0000000000000000e+00" cType="1" res="-1.5362422913312912e-02" rms="4.1941890120506287e-01" purity="5.8141368627548218e-01" nType="-99"/>
        </Node>
        <Node pos="r" depth="1" NCoef="0" IVar="1" Cut="4.4796094894409180e+00" cType="1" res="3.6487732082605362e-02" rms="3.8337880373001099e-01" purity="3.5667946934700012e-01" nType="0">
          <Node pos="l" depth="2" NCoef="0" IVar="-1" Cut="0.0000000000000000e+00" cType="1" res="1.3412240659818053e-03" rms="4.2596700787544250e-01" purity="3.0604159832000732e-01" nType="-99"/>
          <Node pos="r" depth="2" NCoef="0" IVar="-1" Cut="0.0000000000000000e+00" cType="1" res="1.0483072698116302e-01" rms="-nan" purity="1.0156453847885132e+00" nType="-99"/>
        </Node>
      </Node>
    </BinaryTree>
    <BinaryTree type="DecisionTree" boostWeight="1.0000000000000000e+00" itree="53">
      <Node pos="s" depth="0" NCoef="0" IVar="1" Cut="2.2501192092895508e+00" cType="1" res="5.5728852748870850e-03" rms="4.0392160415649414e-01" purity="5.1229554414749146e-01" nType="0">
        <Node pos="l" depth="1" NCoef="0" IVar="3" Cut="1.9777351617813110e-01" cType="1" res="-4.6735599637031555e-02" rms="3.5720285773277283e-01" purity="1.4023314416408539e-01" nType="0">
          <Node pos="l" depth="2" NCoef="0" IVar="-1" Cut="0.0000000000000000e+00" cType="1" res="-4.4017199426889420e-02" rms="3.4581696987152100e-01" purity="1.2105397135019302e-01" nType="-99"/>
          <Node pos="r" depth="2" NCoef="0" IVar="-1" Cut="0.0000000000000000e+00" cType="1" res="-4.7175809741020203e-03" rms="3.5334333777427673e-01" purity="1.4616262912750244e-01" nType="-99"/>
        </Node>
        <Node pos="r" depth="1" NCoef="0" IVar="2" Cut="8.6816482245922089e-02" cType="1" res="1.6859943047165871e-02" rms="4.1244110465049744e-01" purity="5.9257870912551880e-01" nType="0">
          <Node pos="l" depth="2" NCoef="0" IVar="-1" Cut="0.0000000000000000e+00" cType="1" res="6.8405964411795139e-03" rms="4.1116672754287720e-01" purity="6.1649346351623535e-01" nType="-99"/>
          <Node pos="r" depth="2" NCoef="0" IVar="-1" Cut="0.0000000000000000e+00" cType="1" res="-1.6511868685483932e-02" rms="4.1833642125129700e-01" purity="3.1672263145446777e-01" nType="-99"/>
        </Node>
      </Node>
    </BinaryTree>
    <BinaryTree type="DecisionTree" boostWeight="1.0000000000000000e+00" itree="54">
      <Node pos="s" depth="0" NCoef="0" IVar="1" Cut="3.0974490642547607e+00" cType="1" res="-1.0168966837227345e-02" rms="3.9786848425865173e-01" purity="4.9514228105545044e-01" nType="0">
        <Node pos="l" depth="1" NCoef="0" IVar="3" Cut="1.4824444055557251e-01" cType="1" res="-5.3374085575342178e-02" rms="3.7859487533569336e-01" purity="2.0515729486942291e-01" nType="0">
          <Node pos="l" depth="2" NCoef="0" IVar="-1" Cut="0.0000000000000000e+00" cType="1" res="-3.5016000270843506e-02" rms="4.0447759628295898e-01" purity="2.6086887717247009e-01" nType="-99"/>
          <Node pos="r" depth="2" NCoef="0" IVar="-1" Cut="0.0000000000000000e+00" cType="1" res="-7.1114609017968178e-03" rms="3.6381357908248901e-01" purity="1.8631660938262939e-01" nType="-99"/>
        </Node>
        <Node pos="r" depth="1" NCoef="0" IVar="3" Cut="3.8639184832572937e-01" cType="1" res="2.0319705829024315e-02" rms="4.0818262100219727e-01" purity="6.9977676868438721e-01" nType="0">
          <Node pos="l" depth="2" NCoef="0" IVar="-1" Cut="0.0000000000000000e+00" cType="1" res="-2.6943080229102634e-05" rms="3.9912223815917969e-01" purity="7.1510249376296997e-01" nType="-99"/>
          <Node pos="r" depth="2" NCoef="0" IVar="-1" Cut="0.0000000000000000e+00" cType="1" res="5.4734364151954651e-02" rms="4.4156032800674438e-01" purity="5.6237280368804932e-01" nType="-99"/>
        </Node>
      </Node>
    </BinaryTree>
    <BinaryTree type="DecisionTree" boostWeight="1.0000000000000000e+00" itree="55">
      <Node pos="s" depth="0" NCoef="0" IVar="1" Cut="5.9370164871215820e+00" cType="1" res="2.8986899997107685e-04" rms="4.0226429700851440e-01" purity="5.1453918218612671e-01" nType="0">
        <Node pos="l" depth="1" NCoef="0" IVar="1" Cut="4.6215410232543945e+00" cType="1" res="-5.7198582217097282e-03" rms="4.1118341684341431e-01" purity="4.9474030733108521e-01" nType="0">
          <Node pos="l" depth="2" NCoef="0" IVar="-1" Cut="0.0000000000000000e+00" cType="1" res="3.6712014116346836e-03" rms="4.1617333889007568e-01" purity="4.4547659158706665e-01" nType="-99"/>
          <Node pos="r" depth="2" NCoef="0" IVar="-1" Cut="0.0000000000000000e+00" cType="1" res="-2.8895348310470581e-02" rms="3.8085722923278809e-01" purity="6.9338178634643555e-01" nType="-99"/>
        </Node>
        <Node pos="r" depth="1" NCoef="0" IVar="-1" Cut="0.0000000000000000e+00" cType="1" res="7.2694256901741028e-02" rms="-nan" purity="1.0175966024398804e+00" nType="-99"/>
      </Node>
    </BinaryTree>
    <BinaryTree type="DecisionTree" boostWeight="1.0000000000000000e+00" itree="56">
      <Node pos="s" depth="0" NCoef="0" IVar="2" Cut="9.4302766025066376e-02" cType="1" res="6.1953393742442131e-03" rms="4.1260424256324768e-01" purity="5.1037758588790894e-01" nType="0">
        <Node pos="l" depth="1" NCoef="0" IVar="3" Cut="6.1868235468864441e-02" cType="1" res="1.8664848059415817e-02" rms="4.1098010540008545e-01" purity="5.3650128841400146e-01" nType="0">
          <Node pos="l" depth="2" NCoef="0" IVar="-1" Cut="0.0000000000000000e+00" cType="1" res="-2.4295084178447723e-02" rms="4.1697880625724792e-01" purity="6.1490058898925781e-01" nType="-99"/>
          <Node pos="r" depth="2" NCoef="0" IVar="-1" Cut="0.0000000000000000e+00" cType="1" res="1.1944042518734932e-02" rms="4.0615752339363098e-01" purity="5.1741909980773926e-01" nType="-99"/>
        </Node>
        <Node pos="r" depth="1" NCoef="0" IVar="-1" Cut="0.0000000000000000e+00" cType="1" res="-3.5637497901916504e-02" rms="4.0432363748550415e-01" purity="2.1219663321971893e-01" nType="-99"/>
      </Node>
    </BinaryTree>
    <BinaryTree type="DecisionTree" boostWeight="1.0000000000000000e+00" itree="57">
      <Node pos="s" depth="0" NCoef="0" IVar="2" Cut="5.5361506529152393e-03" cType="1" res="1.9026372581720352e-02" rms="3.7858843803405762e-01" purity="5.2438741922378540e-01" nType="0">
        <Node pos="l" depth="1" NCoef="0" IVar="0" Cut="1.6754455566406250e+03" cType="1" res="9.7283378243446350e-02" rms="-nan" purity="9.9975937604904175e-01" nType="-99"/>
        <Node pos="r" depth="1" NCoef="0" IVar="3" Cut="8.6588174104690552e-02" cType="1" res="-7.8389104455709457e-03" rms="4.1588258743286133e-01" purity="4.7098213434219360e-01" nType="0">
          <Node pos="l" depth="2" NCoef="0" IVar="-1" Cut="0.0000000000000000e+00" cType="1" res="-2.1474070847034454e-02" rms="4.4947984814643860e-01" purity="5.7867199182510376e-01" nType="-99"/>
          <Node pos="r" depth="2" NCoef="0" IVar="-1" Cut="0.0000000000000000e+00" cType="1" res="4.3914956040680408e-03" rms="4.0123748779296875e-01" purity="4.3456634879112244e-01" nType="-99"/>
        </Node>
      </Node>
    </BinaryTree>
    <BinaryTree type="DecisionTree" boostWeight="1.0000000000000000e+00" itree="58">
      <Node pos="s" depth="0" NCoef="0" IVar="3" Cut="3.7073288112878799e-02" cType="1" res="5.6034214794635773e-03" rms="3.8626202940940857e-01" purity="4.9720400571823120e-01" nType="0">
        <Node pos="l" depth="1" NCoef="0" IVar="3" Cut="1.7445178702473640e-02" cType="1" res="1.3715061545372009e-01" rms="2.3899681866168976e-01" purity="8.1009161472320557e-01" nType="0">
          <Node pos="l" depth="2" NCoef="0" IVar="-1" Cut="0.0000000000000000e+00" cType="1" res="1.6267588362097740e-02" rms="3.2717546820640564e-01" purity="7.3553419113159180e-01" nType="-99"/>
          <Node pos="r" depth="2" NCoef="0" IVar="-1" Cut="0.0000000000000000e+00" cType="1" res="6.5799184143543243e-02" rms="-nan" purity="8.8823586702346802e-01" nType="-99"/>
        </Node>
        <Node pos="r" depth="1" NCoef="0" IVar="2" Cut="7.3815330862998962e-02" cType="1" res="-6.8730348721146584e-03" rms="3.9513868093490601e-01" purity="4.6752849221229553e-01" nType="0">
          <Node pos="l" depth="2" NCoef="0" IVar="-1" Cut="0.0000000000000000e+00" cType="1" res="1.8026920733973384e-03" rms="3.9486873149871826e-01" purity="5.0441491603851318e-01" nType="-99"/>
          <Node pos="r" depth="2" NCoef="0" IVar="-1" Cut="0.0000000000000000e+00" cType="1" res="-2.8491726145148277e-02" rms="3.8471052050590515e-01" purity="2.0532502233982086e-01" nType="-99"/>
        </Node>
      </Node>
    </BinaryTree>
    <BinaryTree type="DecisionTree" boostWeight="1.0000000000000000e+00" itree="59">
      <Node pos="s" depth="0" NCoef="0" IVar="0" Cut="1.3152661132812500e+03" cType="1" res="1.5277695842087269e-02" rms="3.9472889900207520e-01" purity="5.3171515464782715e-01" nType="0">
        <Node pos="l" depth="1" NCoef="0" IVar="0" Cut="9.5277130126953125e+02" cType="1" res="-5.2849259227514267e-03" rms="4.3176561594009399e-01" purity="3.9605733752250671e-01" nType="0">
          <Node pos="l" depth="2" NCoef="0" IVar="-1" Cut="0.0000000000000000e+00" cType="1" res="8.2509554922580719e-03" rms="4.1682377457618713e-01" purity="3.6341032385826111e-01" nType="-99"/>
          <Node pos="r" depth="2" NCoef="0" IVar="-1" Cut="0.0000000000000000e+00" cType="1" res="-1.9183125346899033e-02" rms="4.5249599218368530e-01" purity="4.6349060535430908e-01" nType="-99"/>
        </Node>
        <Node pos="r" depth="1" NCoef="0" IVar="3" Cut="6.1028096824884415e-02" cType="1" res="6.5537147223949432e-02" rms="2.7826687693595886e-01" purity="8.6329191923141479e-01" nType="0">
          <Node pos="l" depth="2" NCoef="0" IVar="-1" Cut="0.0000000000000000e+00" cType="1" res="-1.9214345142245293e-02" rms="3.5118564963340759e-01" purity="7.9110294580459595e-01" nType="-99"/>
          <Node pos="r" depth="2" NCoef="0" IVar="-1" Cut="0.0000000000000000e+00" cType="1" res="4.0751915425062180e-02" rms="2.2520664334297180e-01" purity="8.9376509189605713e-01" nType="-99"/>
        </Node>
      </Node>
    </BinaryTree>
    <BinaryTree type="DecisionTree" boostWeight="1.0000000000000000e+00" itree="60">
      <Node pos="s" depth="0" NCoef="0" IVar="2" Cut="6.1019439250230789e-02" cType="1" res="1.2905905023217201e-02" rms="3.9655789732933044e-01" purity="5.2703499794006348e-01" nType="0">
        <Node pos="l" depth="1" NCoef="0" IVar="1" Cut="4.5628981590270996e+00" cType="1" res="-4.2913355864584446e-03" rms="3.8683345913887024e-01" purity="5.4145270586013794e-01" nType="0">
          <Node pos="l" depth="2" NCoef="0" IVar="-1" Cut="0.0000000000000000e+00" cType="1" res="-8.3030909299850464e-03" rms="4.2357540130615234e-01" purity="4.3181216716766357e-01" nType="-99"/>
          <Node pos="r" depth="2" NCoef="0" IVar="-1" Cut="0.0000000000000000e+00" cType="1" res="4.3275818228721619e-02" rms="1.5799063444137573e-01" purity="9.5551979541778564e-01" nType="-99"/>
        </Node>
        <Node pos="r" depth="1" NCoef="0" IVar="2" Cut="8.7347440421581268e-02" cType="1" res="1.1328125000000000e-01" rms="4.3579933047294617e-01" purity="4.4288331270217896e-01" nType="0">
          <Node pos="l" depth="2" NCoef="0" IVar="-1" Cut="0.0000000000000000e+00" cType="1" res="6.5892063081264496e-02" rms="4.2638197541236877e-01" purity="5.7747900485992432e-01" nType="-99"/>
          <Node pos="r" depth="2" NCoef="0" IVar="-1" Cut="0.0000000000000000e+00" cType="1" res="1.4827547129243612e-03" rms="4.1756305098533630e-01" purity="3.0966708064079285e-01" nType="-99"/>
        </Node>
      </Node>
    </BinaryTree>
    <BinaryTree type="DecisionTree" boostWeight="1.0000000000000000e+00" itree="61">
      <Node pos="s" depth="0" NCoef="0" IVar="3" Cut="1.3578467071056366e-01" cType="1" res="3.3563543111085892e-03" rms="3.9274576306343079e-01" purity="5.0470221042633057e-01" nType="0">
        <Node pos="l" depth="1" NCoef="0" IVar="3" Cut="1.1564661562442780e-01" cType="1" res="8.0762363970279694e-02" rms="3.2245042920112610e-01" purity="7.4724817276000977e-01" nType="0">
          <Node pos="l" depth="2" NCoef="0" IVar="-1" Cut="0.0000000000000000e+00" cType="1" res="1.6206314787268639e-02" rms="3.4661945700645447e-01" purity="7.2831112146377563e-01" nType="-99"/>
          <Node pos="r" depth="2" NCoef="0" IVar="-1" Cut="0.0000000000000000e+00" cType="1" res="8.8858641684055328e-02" rms="-nan" purity="9.0093839168548584e-01" nType="-99"/>
        </Node>
        <Node pos="r" depth="1" NCoef="0" IVar="2" Cut="5.4828277789056301e-03" cType="1" res="-3.6093030124902725e-02" rms="4.1864258050918579e-01" purity="3.8109049201011658e-01" nType="0">
          <Node pos="l" depth="2" NCoef="0" IVar="-1" Cut="0.0000000000000000e+00" cType="1" res="-5.7308830320835114e-02" rms="3.9326864480972290e-01" purity="4.7319227457046509e-01" nType="-99"/>
          <Node pos="r" depth="2" NCoef="0" IVar="-1" Cut="0.0000000000000000e+00" cType="1" res="-3.6758547648787498e-03" rms="4.1729548573493958e-01" purity="3.6756354570388794e-01" nType="-99"/>
        </Node>
      </Node>
    </BinaryTree>
    <BinaryTree type="DecisionTree" boostWeight="1.0000000000000000e+00" itree="62">
      <Node pos="s" depth="0" NCoef="0" IVar="2" Cut="5.5472226813435555e-03" cType="1" res="-2.2630862891674042e-02" rms="3.8518533110618591e-01" purity="4.7852540016174316e-01" nType="0">
        <Node pos="l" depth="1" NCoef="0" IVar="1" Cut="4.1175951957702637e+00" cType="1" res="1.2067177891731262e-01" rms="5.0510689616203308e-02" purity="8.6628007888793945e-01" nType="0">
          <Node pos="l" depth="2" NCoef="0" IVar="-1" Cut="0.0000000000000000e+00" cType="1" res="-5.7543828152120113e-03" rms="4.3411222100257874e-01" purity="6.4191108942031860e-01" nType="-99"/>
          <Node pos="r" depth="2" NCoef="0" IVar="-1" Cut="0.0000000000000000e+00" cType="1" res="7.6956224441528320e-01" rms="-nan" purity="1.4554309844970703e+00" nType="-99"/>
        </Node>
        <Node pos="r" depth="1" NCoef="0" IVar="3" Cut="7.4166722595691681e-02" cType="1" res="-4.1111230850219727e-02" rms="4.0519434213638306e-01" purity="4.2852041125297546e-01" nType="0">
          <Node pos="l" depth="2" NCoef="0" IVar="-1" Cut="0.0000000000000000e+00" cType="1" res="-3.2302316278219223e-02" rms="4.4996836781501770e-01" purity="5.5501323938369751e-01" nType="-99"/>
          <Node pos="r" depth="2" NCoef="0" IVar="-1" Cut="0.0000000000000000e+00" cType="1" res="-6.4809964969754219e-03" rms="3.9040124416351318e-01" purity="3.9517542719841003e-01" nType="-99"/>
        </Node>
      </Node>
    </BinaryTree>
    <BinaryTree type="DecisionTree" boostWeight="1.0000000000000000e+00" itree="63">
      <Node pos="s" depth="0" NCoef="0" IVar="1" Cut="5.8733549118041992e+00" cType="1" res="-2.5944640859961510e-02" rms="4.1734665632247925e-01" purity="4.8573276400566101e-01" nType="0">
        <Node pos="l" depth="1" NCoef="0" IVar="2" Cut="9.2453705146908760e-03" cType="1" res="-1.7753217369318008e-02" rms="4.1684338450431824e-01" purity="4.7439268231391907e-01" nType="0">
          <Node pos="l" depth="2" NCoef="0" IVar="-1" Cut="0.0000000000000000e+00" cType="1" res="-2.8609160333871841e-02" rms="4.0340980887413025e-01" purity="6.0715049505233765e-01" nType="-99"/>
          <Node pos="r" depth="2" NCoef="0" IVar="-1" Cut="0.0000000000000000e+00" cType="1" res="1.6972759040072560e-03" rms="4.1924303770065308e-01" purity="4.2475849390029907e-01" nType="-99"/>
        </Node>
        <Node pos="r" depth="1" NCoef="0" IVar="-1" Cut="0.0000000000000000e+00" cType="1" res="-7.6032117009162903e-02" rms="3.9940640330314636e-01" purity="6.8574905395507812e-01" nType="-99"/>
      </Node>
    </BinaryTree>
    <BinaryTree type="DecisionTree" boostWeight="1.0000000000000000e+00" itree="64">
      <Node pos="s" depth="0" NCoef="0" IVar="1" Cut="3.6100575923919678e+00" cType="1" res="3.2902643084526062e-02" rms="3.7918430566787720e-01" purity="5.3621917963027954e-01" nType="0">
        <Node pos="l" depth="1" NCoef="0" IVar="2" Cut="5.5472287349402905e-03" cType="1" res="-1.2595243752002716e-02" rms="4.3468925356864929e-01" purity="3.1805160641670227e-01" nType="0">
          <Node pos="l" depth="2" NCoef="0" IVar="-1" Cut="0.0000000000000000e+00" cType="1" res="-4.8671111464500427e-02" rms="4.5386832952499390e-01" purity="4.1339212656021118e-01" nType="-99"/>
          <Node pos="r" depth="2" NCoef="0" IVar="-1" Cut="0.0000000000000000e+00" cType="1" res="4.4580679386854172e-03" rms="4.2481136322021484e-01" purity="3.0275872349739075e-01" nType="-99"/>
        </Node>
        <Node pos="r" depth="1" NCoef="0" IVar="3" Cut="3.0617600679397583e-01" cType="1" res="9.0049885213375092e-02" rms="2.8491121530532837e-01" purity="8.1024688482284546e-01" nType="0">
          <Node pos="l" depth="2" NCoef="0" IVar="-1" Cut="0.0000000000000000e+00" cType="1" res="4.2886447161436081e-02" rms="2.2555106878280640e-01" purity="9.0970158576965332e-01" nType="-99"/>
          <Node pos="r" depth="2" NCoef="0" IVar="-1" Cut="0.0000000000000000e+00" cType="1" res="-1.1958299204707146e-02" rms="4.1740202903747559e-01" purity="4.2830902338027954e-01" nType="-99"/>
        </Node>
      </Node>
    </BinaryTree>
    <BinaryTree type="DecisionTree" boostWeight="1.0000000000000000e+00" itree="65">
      <Node pos="s" depth="0" NCoef="0" IVar="2" Cut="9.2269172891974449e-03" cType="1" res="1.4860930852591991e-02" rms="3.7753421068191528e-01" purity="5.1263171434402466e-01" nType="0">
        <Node pos="l" depth="1" NCoef="0" IVar="1" Cut="4.5537877082824707e+00" cType="1" res="1.2128835916519165e-01" rms="2.0035204291343689e-01" purity="7.7663850784301758e-01" nType="0">
          <Node pos="l" depth="2" NCoef="0" IVar="-1" Cut="0.0000000000000000e+00" cType="1" res="1.3652998022735119e-02" rms="4.0335977077484131e-01" purity="6.1234152317047119e-01" nType="-99"/>
          <Node pos="r" depth="2" NCoef="0" IVar="-1" Cut="0.0000000000000000e+00" cType="1" res="2.7860131859779358e-01" rms="-nan" purity="1.2765939235687256e+00" nType="-99"/>
        </Node>
        <Node pos="r" depth="1" NCoef="0" IVar="1" Cut="4.3151645660400391e+00" cType="1" res="-1.8931493163108826e-02" rms="4.1267970204353333e-01" purity="4.2880523204803467e-01" nType="0">
          <Node pos="l" depth="2" NCoef="0" IVar="-1" Cut="0.0000000000000000e+00" cType="1" res="1.7758295871317387e-03" rms="4.1566643118858337e-01" purity="3.4928992390632629e-01" nType="-99"/>
          <Node pos="r" depth="2" NCoef="0" IVar="-1" Cut="0.0000000000000000e+00" cType="1" res="-2.6271564885973930e-02" rms="3.9680814743041992e-01" purity="6.4069342613220215e-01" nType="-99"/>
        </Node>
      </Node>
    </BinaryTree>
    <BinaryTree type="DecisionTree" boostWeight="1.0000000000000000e+00" itree="66">
      <Node pos="s" depth="0" NCoef="0" IVar="0" Cut="7.2039526367187500e+02" cType="1" res="-4.6064503490924835e-02" rms="4.1095349192619324e-01" purity="4.6679988503456116e-01" nType="0">
        <Node pos="l" depth="1" NCoef="0" IVar="1" Cut="3.3433463573455811e+00" cType="1" res="-9.1843217611312866e-02" rms="3.7619087100028992e-01" purity="1.8378424644470215e-01" nType="0">
          <Node pos="l" depth="2" NCoef="0" IVar="-1" Cut="0.0000000000000000e+00" cType="1" res="-1.5434294939041138e-02" rms="3.6858299374580383e-01" purity="1.8418036401271820e-01" nType="-99"/>
          <Node pos="r" depth="2" NCoef="0" IVar="-1" Cut="0.0000000000000000e+00" cType="1" res="-5.2437551319599152e-02" rms="3.6558225750923157e-01" purity="1.8238517642021179e-01" nType="-99"/>
        </Node>
        <Node pos="r" depth="1" NCoef="0" IVar="0" Cut="1.0032654418945312e+03" cType="1" res="-2.2870572283864021e-02" rms="4.2561331391334534e-01" purity="6.1019062995910645e-01" nType="0">
          <Node pos="l" depth="2" NCoef="0" IVar="-1" Cut="0.0000000000000000e+00" cType="1" res="1.3506466522812843e-02" rms="4.6356981992721558e-01" purity="5.0134730339050293e-01" nType="-99"/>
          <Node pos="r" depth="2" NCoef="0" IVar="-1" Cut="0.0000000000000000e+00" cType="1" res="-1.8662357702851295e-02" rms="4.0352398157119751e-01" purity="6.5772008895874023e-01" nType="-99"/>
        </Node>
      </Node>
    </BinaryTree>
    <BinaryTree type="DecisionTree" boostWeight="1.0000000000000000e+00" itree="67">
      <Node pos="s" depth="0" NCoef="0" IVar="0" Cut="9.8924822998046875e+02" cType="1" res="1.0418632300570607e-03" rms="3.9197155833244324e-01" purity="4.9827852845191956e-01" nType="0">
        <Node pos="l" depth="1" NCoef="0" IVar="1" Cut="3.4382157325744629e+00" cType="1" res="3.8869887590408325e-02" rms="4.0536841750144958e-01" purity="3.4537437558174133e-01" nType="0">
          <Node pos="l" depth="2" NCoef="0" IVar="-1" Cut="0.0000000000000000e+00" cType="1" res="-1.9712983630597591e-03" rms="3.9498531818389893e-01" purity="2.4737131595611572e-01" nType="-99"/>
          <Node pos="r" depth="2" NCoef="0" IVar="-1" Cut="0.0000000000000000e+00" cType="1" res="6.3569255173206329e-02" rms="3.7638884782791138e-01" purity="8.5328143835067749e-01" nType="-99"/>
        </Node>
        <Node pos="r" depth="1" NCoef="0" IVar="3" Cut="3.5764932632446289e-01" cType="1" res="-3.6225475370883942e-02" rms="3.7459257245063782e-01" purity="6.4891630411148071e-01" nType="0">
