<?xml version="1.0"?>
<MethodSetup Method="BDT::BDT-0.4.6_fold9">
  <GeneralInfo>
    <Info name="TMVA Release" value="4.2.1 [262657]"/>
    <Info name="ROOT Release" value="6.32/00 [401408]"/>
    <Info name="Creator" value="abennett"/>
    <Info name="Date" value="Thu Aug 22 16:00:08 2024"/>
    <Info name="Host" value="Linux 6772f6b99311 6.5.0-1022-azure #23~22.04.1-Ubuntu SMP Thu May 9 17:59:24 UTC 2024 x86_64 x86_64 x86_64 GNU/Linux"/>
    <Info name="Dir" value="/gluster/home/abennett/BDT_training"/>
    <Info name="Training events" value="17709"/>
    <Info name="TrainingTime" value="8.03846836e-01"/>
    <Info name="AnalysisType" value="Classification"/>
  </GeneralInfo>
  <Options>
    <Option name="V" modified="Yes">False</Option>
    <Option name="VerbosityLevel" modified="No">Default</Option>
    <Option name="VarTransform" modified="No">None</Option>
    <Option name="H" modified="Yes">False</Option>
    <Option name="CreateMVAPdfs" modified="No">False</Option>
    <Option name="IgnoreNegWeightsInTraining" modified="No">False</Option>
    <Option name="NTrees" modified="Yes">125</Option>
    <Option name="MaxDepth" modified="Yes">2</Option>
    <Option name="MinNodeSize" modified="Yes">3%</Option>
    <Option name="nCuts" modified="Yes">80</Option>
    <Option name="BoostType" modified="Yes">Grad</Option>
    <Option name="AdaBoostR2Loss" modified="No">quadratic</Option>
    <Option name="UseBaggedBoost" modified="Yes">True</Option>
    <Option name="Shrinkage" modified="Yes">1.000000e-01</Option>
    <Option name="AdaBoostBeta" modified="No">5.000000e-01</Option>
    <Option name="UseRandomisedTrees" modified="No">False</Option>
    <Option name="UseNvars" modified="Yes">2</Option>
    <Option name="UsePoissonNvars" modified="No">True</Option>
    <Option name="BaggedSampleFraction" modified="Yes">5.000000e-01</Option>
    <Option name="UseYesNoLeaf" modified="No">True</Option>
    <Option name="NegWeightTreatment" modified="No">pray</Option>
    <Option name="Css" modified="No">1.000000e+00</Option>
    <Option name="Cts_sb" modified="No">1.000000e+00</Option>
    <Option name="Ctb_ss" modified="No">1.000000e+00</Option>
    <Option name="Cbb" modified="No">1.000000e+00</Option>
    <Option name="NodePurityLimit" modified="No">5.000000e-01</Option>
    <Option name="SeparationType" modified="Yes">sdivsqrtsplusb</Option>
    <Option name="RegressionLossFunctionBDTG" modified="No">huber</Option>
    <Option name="HuberQuantile" modified="No">7.000000e-01</Option>
    <Option name="DoBoostMonitor" modified="No">False</Option>
    <Option name="UseFisherCuts" modified="No">False</Option>
    <Option name="MinLinCorrForFisher" modified="No">8.000000e-01</Option>
    <Option name="UseExclusiveVars" modified="No">False</Option>
    <Option name="DoPreselection" modified="No">False</Option>
    <Option name="SigToBkgFraction" modified="No">1.000000e+00</Option>
    <Option name="PruneMethod" modified="No">nopruning</Option>
    <Option name="PruneStrength" modified="No">0.000000e+00</Option>
    <Option name="PruningValFraction" modified="No">5.000000e-01</Option>
    <Option name="SkipNormalization" modified="No">False</Option>
    <Option name="nEventsMin" modified="No">0</Option>
    <Option name="UseBaggedGrad" modified="No">False</Option>
    <Option name="GradBaggingFraction" modified="No">5.000000e-01</Option>
    <Option name="UseNTrainEvents" modified="No">0</Option>
    <Option name="NNodesMax" modified="No">0</Option>
  </Options>
  <Variables NVar="4">
    <Variable VarIndex="0" Expression="mjj" Label="mjj" Title="m_{jj}" Unit="GeV" Internal="mjj" Type="D" Min="5.00083496e+02" Max="7.10228711e+03"/>
    <Variable VarIndex="1" Expression="JetGap" Label="JetGap" Title="#Delta y_{jj}" Unit="" Internal="JetGap" Type="D" Min="2.04434600e-02" Max="8.30311966e+00"/>
    <Variable VarIndex="2" Expression="PtBalance" Label="PtBalance" Title="pT_{balance}" Unit="" Internal="PtBalance" Type="D" Min="1.21698218e-09" Max="1.49861991e-01"/>
    <Variable VarIndex="3" Expression="centrality" Label="centrality" Title="#xi(Z)" Unit="" Internal="centrality" Type="D" Min="5.42057251e-06" Max="9.99970436e-01"/>
  </Variables>
  <Spectators NSpec="1">
    <Spectator SpecIndex="0" Expression="eventNumber" Label="eventNumber" Title="I" Unit="" Internal="eventNumber" Type="F" Min="7.03000000e+02" Max="6.84984192e+08"/>
  </Spectators>
  <Classes NClass="2">
    <Class Name="Signal" Index="0"/>
    <Class Name="Background" Index="1"/>
  </Classes>
  <Transformations NTransformations="0"/>
  <MVAPdfs/>
  <Weights NTrees="125" AnalysisType="1">
    <BinaryTree type="DecisionTree" boostWeight="1.0000000000000000e+00" itree="0">
      <Node pos="s" depth="0" NCoef="0" IVar="1" Cut="3.3029036521911621e+00" cType="1" res="1.6381394118070602e-02" rms="4.9973157048225403e-01" purity="5.1638144254684448e-01" nType="0">
        <Node pos="l" depth="1" NCoef="0" IVar="1" Cut="2.1733460426330566e+00" cType="1" res="-2.2429601848125458e-01" rms="4.4686833024024963e-01" purity="2.7570399641990662e-01" nType="0">
          <Node pos="l" depth="2" NCoef="0" IVar="-1" Cut="0.0000000000000000e+00" cType="1" res="-7.6191909611225128e-02" rms="3.2383608818054199e-01" purity="1.1904045194387436e-01" nType="-99"/>
          <Node pos="r" depth="2" NCoef="0" IVar="-1" Cut="0.0000000000000000e+00" cType="1" res="-2.8307590633630753e-02" rms="4.7954875230789185e-01" purity="3.5846206545829773e-01" nType="-99"/>
        </Node>
        <Node pos="r" depth="1" NCoef="0" IVar="3" Cut="4.6103468537330627e-01" cType="1" res="2.5284188985824585e-01" rms="4.3135944008827209e-01" purity="7.5284188985824585e-01" nType="0">
          <Node pos="l" depth="2" NCoef="0" IVar="-1" Cut="0.0000000000000000e+00" cType="1" res="6.3332870602607727e-02" rms="3.8694146275520325e-01" purity="8.1666433811187744e-01" nType="-99"/>
          <Node pos="r" depth="2" NCoef="0" IVar="-1" Cut="0.0000000000000000e+00" cType="1" res="-6.1794366687536240e-02" rms="3.9311119914054871e-01" purity="1.9102817773818970e-01" nType="-99"/>
        </Node>
      </Node>
    </BinaryTree>
    <BinaryTree type="DecisionTree" boostWeight="1.0000000000000000e+00" itree="1">
      <Node pos="s" depth="0" NCoef="0" IVar="1" Cut="3.5999596118927002e+00" cType="1" res="8.8066337630152702e-03" rms="4.8659941554069519e-01" purity="5.1128542423248291e-01" nType="0">
        <Node pos="l" depth="1" NCoef="0" IVar="0" Cut="8.9085339355468750e+02" cType="1" res="-1.7074333131313324e-01" rms="4.5967489480972290e-01" purity="3.1408202648162842e-01" nType="0">
          <Node pos="l" depth="2" NCoef="0" IVar="-1" Cut="0.0000000000000000e+00" cType="1" res="-4.7451294958591461e-02" rms="4.2739933729171753e-01" purity="2.4614694714546204e-01" nType="-99"/>
          <Node pos="r" depth="2" NCoef="0" IVar="-1" Cut="0.0000000000000000e+00" cType="1" res="3.9382441900670528e-03" rms="4.9523490667343140e-01" purity="5.1041656732559204e-01" nType="-99"/>
        </Node>
        <Node pos="r" depth="1" NCoef="0" IVar="3" Cut="3.2021197676658630e-01" cType="1" res="2.6057210564613342e-01" rms="4.0486288070678711e-01" purity="7.8780460357666016e-01" nType="0">
          <Node pos="l" depth="2" NCoef="0" IVar="-1" Cut="0.0000000000000000e+00" cType="1" res="7.0112966001033783e-02" rms="3.2403942942619324e-01" purity="8.8078659772872925e-01" nType="-99"/>
          <Node pos="r" depth="2" NCoef="0" IVar="-1" Cut="0.0000000000000000e+00" cType="1" res="-1.6443802043795586e-02" rms="4.9399474263191223e-01" purity="4.2835983633995056e-01" nType="-99"/>
        </Node>
      </Node>
    </BinaryTree>
    <BinaryTree type="DecisionTree" boostWeight="1.0000000000000000e+00" itree="2">
      <Node pos="s" depth="0" NCoef="0" IVar="0" Cut="1.2942698974609375e+03" cType="1" res="1.2971487827599049e-02" rms="4.7320699691772461e-01" purity="5.1848775148391724e-01" nType="0">
        <Node pos="l" depth="1" NCoef="0" IVar="0" Cut="7.1580499267578125e+02" cType="1" res="-1.1868847161531448e-01" rms="4.6613603830337524e-01" purity="3.6754414439201355e-01" nType="0">
          <Node pos="l" depth="2" NCoef="0" IVar="-1" Cut="0.0000000000000000e+00" cType="1" res="-5.0838146358728409e-02" rms="4.0522310137748718e-01" purity="2.1380829811096191e-01" nType="-99"/>
          <Node pos="r" depth="2" NCoef="0" IVar="-1" Cut="0.0000000000000000e+00" cType="1" res="3.5183783620595932e-04" rms="4.8444232344627380e-01" purity="5.0645202398300171e-01" nType="-99"/>
        </Node>
        <Node pos="r" depth="1" NCoef="0" IVar="1" Cut="3.8892004489898682e+00" cType="1" res="3.2412463426589966e-01" rms="3.1912279129028320e-01" purity="8.7521415948867798e-01" nType="0">
          <Node pos="l" depth="2" NCoef="0" IVar="-1" Cut="0.0000000000000000e+00" cType="1" res="1.7886482179164886e-02" rms="4.8442074656486511e-01" purity="6.0113781690597534e-01" nType="-99"/>
          <Node pos="r" depth="2" NCoef="0" IVar="-1" Cut="0.0000000000000000e+00" cType="1" res="7.9514414072036743e-02" rms="2.0952823758125305e-01" purity="9.5309746265411377e-01" nType="-99"/>
        </Node>
      </Node>
    </BinaryTree>
    <BinaryTree type="DecisionTree" boostWeight="1.0000000000000000e+00" itree="3">
      <Node pos="s" depth="0" NCoef="0" IVar="0" Cut="1.3151704101562500e+03" cType="1" res="1.1879092780873179e-03" rms="4.6931421756744385e-01" purity="5.1226049661636353e-01" nType="0">
        <Node pos="l" depth="1" NCoef="0" IVar="3" Cut="4.5663803815841675e-01" cType="1" res="-9.7341783344745636e-02" rms="4.7124132513999939e-01" purity="3.8344362378120422e-01" nType="0">
          <Node pos="l" depth="2" NCoef="0" IVar="-1" Cut="0.0000000000000000e+00" cType="1" res="-5.8921426534652710e-03" rms="4.8697328567504883e-01" purity="4.6463575959205627e-01" nType="-99"/>
          <Node pos="r" depth="2" NCoef="0" IVar="-1" Cut="0.0000000000000000e+00" cType="1" res="-5.7907011359930038e-02" rms="3.6367580294609070e-01" purity="1.5960228443145752e-01" nType="-99"/>
        </Node>
        <Node pos="r" depth="1" NCoef="0" IVar="3" Cut="4.3143686652183533e-01" cType="1" res="2.2407226264476776e-01" rms="3.8015455007553101e-01" purity="8.0365753173828125e-01" nType="0">
          <Node pos="l" depth="2" NCoef="0" IVar="-1" Cut="0.0000000000000000e+00" cType="1" res="5.6736171245574951e-02" rms="3.3715787529945374e-01" purity="8.6346852779388428e-01" nType="-99"/>
          <Node pos="r" depth="2" NCoef="0" IVar="-1" Cut="0.0000000000000000e+00" cType="1" res="-3.2948095351457596e-02" rms="4.6708330512046814e-01" purity="3.3104771375656128e-01" nType="-99"/>
        </Node>
      </Node>
    </BinaryTree>
    <BinaryTree type="DecisionTree" boostWeight="1.0000000000000000e+00" itree="4">
      <Node pos="s" depth="0" NCoef="0" IVar="1" Cut="3.5999596118927002e+00" cType="1" res="-3.8185033190529794e-05" rms="4.5299980044364929e-01" purity="5.0509589910507202e-01" nType="0">
        <Node pos="l" depth="1" NCoef="0" IVar="1" Cut="2.3667073249816895e+00" cType="1" res="-1.5535767376422882e-01" rms="4.4183117151260376e-01" purity="2.9045626521110535e-01" nType="0">
          <Node pos="l" depth="2" NCoef="0" IVar="-1" Cut="0.0000000000000000e+00" cType="1" res="-5.8325391262769699e-02" rms="3.4104067087173462e-01" purity="1.3745373487472534e-01" nType="-99"/>
          <Node pos="r" depth="2" NCoef="0" IVar="-1" Cut="0.0000000000000000e+00" cType="1" res="-1.8617734313011169e-02" rms="4.7140708565711975e-01" purity="3.6638095974922180e-01" nType="-99"/>
        </Node>
        <Node pos="r" depth="1" NCoef="0" IVar="2" Cut="4.9553181976079941e-02" cType="1" res="2.2096031904220581e-01" rms="3.6913847923278809e-01" purity="8.1049889326095581e-01" nType="0">
          <Node pos="l" depth="2" NCoef="0" IVar="-1" Cut="0.0000000000000000e+00" cType="1" res="6.0838431119918823e-02" rms="3.0269354581832886e-01" purity="8.8506758213043213e-01" nType="-99"/>
          <Node pos="r" depth="2" NCoef="0" IVar="-1" Cut="0.0000000000000000e+00" cType="1" res="-1.3274122029542923e-02" rms="4.6818053722381592e-01" purity="5.0300675630569458e-01" nType="-99"/>
        </Node>
      </Node>
    </BinaryTree>
    <BinaryTree type="DecisionTree" boostWeight="1.0000000000000000e+00" itree="5">
      <Node pos="s" depth="0" NCoef="0" IVar="1" Cut="3.4802091121673584e+00" cType="1" res="-6.6162175498902798e-03" rms="4.4989165663719177e-01" purity="5.0192183256149292e-01" nType="0">
        <Node pos="l" depth="1" NCoef="0" IVar="2" Cut="1.4559558592736721e-02" cType="1" res="-1.5908071398735046e-01" rms="4.3289861083030701e-01" purity="2.6674041152000427e-01" nType="0">
          <Node pos="l" depth="2" NCoef="0" IVar="-1" Cut="0.0000000000000000e+00" cType="1" res="-3.6820874083787203e-03" rms="4.8013091087341309e-01" purity="4.1377425193786621e-01" nType="-99"/>
          <Node pos="r" depth="2" NCoef="0" IVar="-1" Cut="0.0000000000000000e+00" cType="1" res="-4.8696704208850861e-02" rms="3.8335645198822021e-01" purity="1.8633498251438141e-01" nType="-99"/>
        </Node>
        <Node pos="r" depth="1" NCoef="0" IVar="2" Cut="7.3815342038869858e-03" cType="1" res="1.7689166963100433e-01" rms="3.9850294589996338e-01" purity="7.8498876094818115e-01" nType="0">
          <Node pos="l" depth="2" NCoef="0" IVar="-1" Cut="0.0000000000000000e+00" cType="1" res="7.9672396183013916e-02" rms="8.7112076580524445e-02" purity="9.8741185665130615e-01" nType="-99"/>
          <Node pos="r" depth="2" NCoef="0" IVar="-1" Cut="0.0000000000000000e+00" cType="1" res="2.4264005944132805e-02" rms="4.3757915496826172e-01" purity="7.1989631652832031e-01" nType="-99"/>
        </Node>
      </Node>
    </BinaryTree>
    <BinaryTree type="DecisionTree" boostWeight="1.0000000000000000e+00" itree="6">
      <Node pos="s" depth="0" NCoef="0" IVar="0" Cut="9.0762695312500000e+02" cType="1" res="-1.4809072017669678e-03" rms="4.4215828180313110e-01" purity="5.0577211380004883e-01" nType="0">
        <Node pos="l" depth="1" NCoef="0" IVar="2" Cut="5.5504497140645981e-03" cType="1" res="-1.4236027002334595e-01" rms="4.3365103006362915e-01" purity="2.7906647324562073e-01" nType="0">
          <Node pos="l" depth="2" NCoef="0" IVar="-1" Cut="0.0000000000000000e+00" cType="1" res="2.6907607913017273e-02" rms="4.6920058131217957e-01" purity="5.5862784385681152e-01" nType="-99"/>
          <Node pos="r" depth="2" NCoef="0" IVar="-1" Cut="0.0000000000000000e+00" cType="1" res="-3.5910293459892273e-02" rms="4.1926273703575134e-01" purity="2.4891677498817444e-01" nType="-99"/>
        </Node>
        <Node pos="r" depth="1" NCoef="0" IVar="3" Cut="3.3333656191825867e-01" cType="1" res="1.3937041163444519e-01" rms="4.0406814217567444e-01" purity="7.3243260383605957e-01" nType="0">
          <Node pos="l" depth="2" NCoef="0" IVar="-1" Cut="0.0000000000000000e+00" cType="1" res="4.5565783977508545e-02" rms="3.5522675514221191e-01" purity="8.2839417457580566e-01" nType="-99"/>
          <Node pos="r" depth="2" NCoef="0" IVar="-1" Cut="0.0000000000000000e+00" cType="1" res="-2.9101241379976273e-02" rms="4.5909747481346130e-01" purity="3.5180968046188354e-01" nType="-99"/>
        </Node>
      </Node>
    </BinaryTree>
    <BinaryTree type="DecisionTree" boostWeight="1.0000000000000000e+00" itree="7">
      <Node pos="s" depth="0" NCoef="0" IVar="0" Cut="1.6750795898437500e+03" cType="1" res="-1.7460715025663376e-02" rms="4.4257807731628418e-01" purity="4.9249821901321411e-01" nType="0">
        <Node pos="l" depth="1" NCoef="0" IVar="2" Cut="7.4005941860377789e-03" cType="1" res="-7.4088528752326965e-02" rms="4.5362871885299683e-01" purity="4.0334904193878174e-01" nType="0">
          <Node pos="l" depth="2" NCoef="0" IVar="-1" Cut="0.0000000000000000e+00" cType="1" res="2.9171211645007133e-02" rms="4.4099405407905579e-01" purity="6.4149439334869385e-01" nType="-99"/>
          <Node pos="r" depth="2" NCoef="0" IVar="-1" Cut="0.0000000000000000e+00" cType="1" res="-2.4269137531518936e-02" rms="4.4447591900825500e-01" purity="3.5737803578376770e-01" nType="-99"/>
        </Node>
        <Node pos="r" depth="1" NCoef="0" IVar="2" Cut="1.6517728567123413e-02" cType="1" res="2.5228860974311829e-01" rms="2.4628986418247223e-01" purity="9.1716456413269043e-01" nType="0">
          <Node pos="l" depth="2" NCoef="0" IVar="-1" Cut="0.0000000000000000e+00" cType="1" res="7.6443456113338470e-02" rms="-nan" purity="1.0014853477478027e+00" nType="-99"/>
          <Node pos="r" depth="2" NCoef="0" IVar="-1" Cut="0.0000000000000000e+00" cType="1" res="2.7052173390984535e-02" rms="3.9843207597732544e-01" purity="7.7408581972122192e-01" nType="-99"/>
        </Node>
      </Node>
    </BinaryTree>
    <BinaryTree type="DecisionTree" boostWeight="1.0000000000000000e+00" itree="8">
      <Node pos="s" depth="0" NCoef="0" IVar="0" Cut="7.2044683837890625e+02" cType="1" res="-2.3670829832553864e-02" rms="4.3839329481124878e-01" purity="4.8096990585327148e-01" nType="0">
        <Node pos="l" depth="1" NCoef="0" IVar="3" Cut="2.2277022898197174e-01" cType="1" res="-1.6378565132617950e-01" rms="4.0458828210830688e-01" purity="2.2373099625110626e-01" nType="0">
          <Node pos="l" depth="2" NCoef="0" IVar="-1" Cut="0.0000000000000000e+00" cType="1" res="-1.7184881493449211e-02" rms="4.3816003203392029e-01" purity="3.1424808502197266e-01" nType="-99"/>
          <Node pos="r" depth="2" NCoef="0" IVar="-1" Cut="0.0000000000000000e+00" cType="1" res="-4.5860897749662399e-02" rms="3.7453994154930115e-01" purity="1.6974426805973053e-01" nType="-99"/>
        </Node>
        <Node pos="r" depth="1" NCoef="0" IVar="2" Cut="2.7736108750104904e-02" cType="1" res="5.3655330091714859e-02" rms="4.3715173006057739e-01" purity="6.2293422222137451e-01" nType="0">
          <Node pos="l" depth="2" NCoef="0" IVar="-1" Cut="0.0000000000000000e+00" cType="1" res="2.9476761817932129e-02" rms="4.0048101544380188e-01" purity="7.2244822978973389e-01" nType="-99"/>
          <Node pos="r" depth="2" NCoef="0" IVar="-1" Cut="0.0000000000000000e+00" cType="1" res="-2.2400051355361938e-02" rms="4.6240290999412537e-01" purity="4.2525148391723633e-01" nType="-99"/>
        </Node>
      </Node>
    </BinaryTree>
    <BinaryTree type="DecisionTree" boostWeight="1.0000000000000000e+00" itree="9">
      <Node pos="s" depth="0" NCoef="0" IVar="1" Cut="3.1172986030578613e+00" cType="1" res="3.3699583727866411e-03" rms="4.3126773834228516e-01" purity="5.1011174917221069e-01" nType="0">
        <Node pos="l" depth="1" NCoef="0" IVar="1" Cut="2.6611654758453369e+00" cType="1" res="-1.4620050787925720e-01" rms="4.1349118947982788e-01" purity="2.3613704741001129e-01" nType="0">
          <Node pos="l" depth="2" NCoef="0" IVar="-1" Cut="0.0000000000000000e+00" cType="1" res="-4.2037639766931534e-02" rms="3.7865862250328064e-01" purity="1.7722581326961517e-01" nType="-99"/>
          <Node pos="r" depth="2" NCoef="0" IVar="-1" Cut="0.0000000000000000e+00" cType="1" res="-8.8680628687143326e-03" rms="4.6480789780616760e-01" purity="3.6589205265045166e-01" nType="-99"/>
        </Node>
        <Node pos="r" depth="1" NCoef="0" IVar="3" Cut="2.8969079256057739e-01" cType="1" res="1.1440626531839371e-01" rms="4.1012573242187500e-01" purity="7.1350181102752686e-01" nType="0">
          <Node pos="l" depth="2" NCoef="0" IVar="-1" Cut="0.0000000000000000e+00" cType="1" res="4.1326608508825302e-02" rms="3.6805191636085510e-01" purity="8.1938749551773071e-01" nType="-99"/>
          <Node pos="r" depth="2" NCoef="0" IVar="-1" Cut="0.0000000000000000e+00" cType="1" res="-1.6078015789389610e-02" rms="4.5850673317909241e-01" purity="4.1764375567436218e-01" nType="-99"/>
        </Node>
      </Node>
    </BinaryTree>
    <BinaryTree type="DecisionTree" boostWeight="1.0000000000000000e+00" itree="10">
      <Node pos="s" depth="0" NCoef="0" IVar="0" Cut="1.3152172851562500e+03" cType="1" res="3.4967267420142889e-03" rms="4.2412787675857544e-01" purity="5.0543212890625000e-01" nType="0">
        <Node pos="l" depth="1" NCoef="0" IVar="2" Cut="5.5504459887742996e-03" cType="1" res="-6.3543617725372314e-02" rms="4.4507697224617004e-01" purity="3.6659890413284302e-01" nType="0">
          <Node pos="l" depth="2" NCoef="0" IVar="-1" Cut="0.0000000000000000e+00" cType="1" res="4.3970838189125061e-02" rms="4.0665322542190552e-01" purity="6.9571030139923096e-01" nType="-99"/>
          <Node pos="r" depth="2" NCoef="0" IVar="-1" Cut="0.0000000000000000e+00" cType="1" res="-2.0954951643943787e-02" rms="4.3815490603446960e-01" purity="3.2647889852523804e-01" nType="-99"/>
        </Node>
        <Node pos="r" depth="1" NCoef="0" IVar="3" Cut="3.9375302195549011e-01" cType="1" res="1.7192845046520233e-01" rms="3.0736818909645081e-01" purity="8.5423588752746582e-01" nType="0">
          <Node pos="l" depth="2" NCoef="0" IVar="-1" Cut="0.0000000000000000e+00" cType="1" res="5.0796281546354294e-02" rms="2.6193401217460632e-01" purity="9.1008985042572021e-01" nType="-99"/>
          <Node pos="r" depth="2" NCoef="0" IVar="-1" Cut="0.0000000000000000e+00" cType="1" res="-2.2661907598376274e-02" rms="4.6380779147148132e-01" purity="4.0024772286415100e-01" nType="-99"/>
        </Node>
      </Node>
    </BinaryTree>
    <BinaryTree type="DecisionTree" boostWeight="1.0000000000000000e+00" itree="11">
      <Node pos="s" depth="0" NCoef="0" IVar="0" Cut="1.6412239990234375e+03" cType="1" res="-3.0492063160636462e-05" rms="4.1944989562034607e-01" purity="5.0582557916641235e-01" nType="0">
        <Node pos="l" depth="1" NCoef="0" IVar="2" Cut="9.2507414519786835e-03" cType="1" res="-5.7512853294610977e-02" rms="4.4429221749305725e-01" purity="3.9987808465957642e-01" nType="0">
          <Node pos="l" depth="2" NCoef="0" IVar="-1" Cut="0.0000000000000000e+00" cType="1" res="2.6543803513050079e-02" rms="4.0911453962326050e-01" purity="6.4293062686920166e-01" nType="-99"/>
          <Node pos="r" depth="2" NCoef="0" IVar="-1" Cut="0.0000000000000000e+00" cType="1" res="-2.2116415202617645e-02" rms="4.4154602289199829e-01" purity="3.4094727039337158e-01" nType="-99"/>
        </Node>
        <Node pos="r" depth="1" NCoef="0" IVar="1" Cut="6.0501360893249512e+00" cType="1" res="6.8362675607204437e-02" rms="-nan" purity="9.8893475532531738e-01" nType="-99"/>
      </Node>
    </BinaryTree>
    <BinaryTree type="DecisionTree" boostWeight="1.0000000000000000e+00" itree="12">
      <Node pos="s" depth="0" NCoef="0" IVar="3" Cut="3.2088860869407654e-01" cType="1" res="-1.9572366029024124e-02" rms="4.2381733655929565e-01" purity="4.8883348703384399e-01" nType="0">
        <Node pos="l" depth="1" NCoef="0" IVar="2" Cut="1.1082956567406654e-02" cType="1" res="4.7632917761802673e-02" rms="4.2009788751602173e-01" purity="6.2125325202941895e-01" nType="0">
          <Node pos="l" depth="2" NCoef="0" IVar="-1" Cut="0.0000000000000000e+00" cType="1" res="3.7264525890350342e-02" rms="3.5030496120452881e-01" purity="7.9251337051391602e-01" nType="-99"/>
          <Node pos="r" depth="2" NCoef="0" IVar="-1" Cut="0.0000000000000000e+00" cType="1" res="-2.4865169543772936e-03" rms="4.4321188330650330e-01" purity="5.2694886922836304e-01" nType="-99"/>
        </Node>
        <Node pos="r" depth="1" NCoef="0" IVar="2" Cut="9.1241393238306046e-03" cType="1" res="-1.4756533503532410e-01" rms="4.0076819062232971e-01" purity="2.3663903772830963e-01" nType="0">
          <Node pos="l" depth="2" NCoef="0" IVar="-1" Cut="0.0000000000000000e+00" cType="1" res="-5.9401494218036532e-04" rms="4.6163216233253479e-01" purity="4.8055374622344971e-01" nType="-99"/>
          <Node pos="r" depth="2" NCoef="0" IVar="-1" Cut="0.0000000000000000e+00" cType="1" res="-3.9772775024175644e-02" rms="3.8091829419136047e-01" purity="1.8788745999336243e-01" nType="-99"/>
        </Node>
      </Node>
    </BinaryTree>
    <BinaryTree type="DecisionTree" boostWeight="1.0000000000000000e+00" itree="13">
      <Node pos="s" depth="0" NCoef="0" IVar="1" Cut="3.3731682300567627e+00" cType="1" res="-1.1462207883596420e-02" rms="4.2150977253913879e-01" purity="4.9984854459762573e-01" nType="0">
        <Node pos="l" depth="1" NCoef="0" IVar="1" Cut="2.5444495677947998e+00" cType="1" res="-8.6879663169384003e-02" rms="4.2534193396568298e-01" purity="2.7688106894493103e-01" nType="0">
          <Node pos="l" depth="2" NCoef="0" IVar="-1" Cut="0.0000000000000000e+00" cType="1" res="-3.2851595431566238e-02" rms="3.8064250349998474e-01" purity="1.8738034367561340e-01" nType="-99"/>
          <Node pos="r" depth="2" NCoef="0" IVar="-1" Cut="0.0000000000000000e+00" cType="1" res="-8.2871774211525917e-03" rms="4.5574986934661865e-01" purity="3.5598284006118774e-01" nType="-99"/>
        </Node>
        <Node pos="r" depth="1" NCoef="0" IVar="0" Cut="2.5401232910156250e+03" cType="1" res="6.9003723561763763e-02" rms="4.0207546949386597e-01" purity="7.3774158954620361e-01" nType="0">
          <Node pos="l" depth="2" NCoef="0" IVar="-1" Cut="0.0000000000000000e+00" cType="1" res="1.0357389226555824e-02" rms="4.2947378754615784e-01" purity="6.9468218088150024e-01" nType="-99"/>
          <Node pos="r" depth="2" NCoef="0" IVar="-1" Cut="0.0000000000000000e+00" cType="1" res="7.3273904621601105e-02" rms="-nan" purity="1.0313273668289185e+00" nType="-99"/>
        </Node>
      </Node>
    </BinaryTree>
    <BinaryTree type="DecisionTree" boostWeight="1.0000000000000000e+00" itree="14">
      <Node pos="s" depth="0" NCoef="0" IVar="1" Cut="2.9787299633026123e+00" cType="1" res="-2.2528100758790970e-02" rms="4.2465832829475403e-01" purity="4.9513077735900879e-01" nType="0">
        <Node pos="l" depth="1" NCoef="0" IVar="3" Cut="1.6032569110393524e-01" cType="1" res="-1.3241328299045563e-01" rms="3.9321020245552063e-01" purity="2.0812945067882538e-01" nType="0">
          <Node pos="l" depth="2" NCoef="0" IVar="-1" Cut="0.0000000000000000e+00" cType="1" res="-1.2393487617373466e-02" rms="4.3494001030921936e-01" purity="3.0975973606109619e-01" nType="-99"/>
          <Node pos="r" depth="2" NCoef="0" IVar="-1" Cut="0.0000000000000000e+00" cType="1" res="-3.7394601851701736e-02" rms="3.7269875407218933e-01" purity="1.7066259682178497e-01" nType="-99"/>
        </Node>
        <Node pos="r" depth="1" NCoef="0" IVar="2" Cut="1.8453832715749741e-02" cType="1" res="4.2999204248189926e-02" rms="4.2915979027748108e-01" purity="6.6627687215805054e-01" nType="0">
          <Node pos="l" depth="2" NCoef="0" IVar="-1" Cut="0.0000000000000000e+00" cType="1" res="3.2296258956193924e-02" rms="3.8330733776092529e-01" purity="8.1381815671920776e-01" nType="-99"/>
          <Node pos="r" depth="2" NCoef="0" IVar="-1" Cut="0.0000000000000000e+00" cType="1" res="-1.0010425932705402e-02" rms="4.5592492818832397e-01" purity="5.1278483867645264e-01" nType="-99"/>
        </Node>
      </Node>
    </BinaryTree>
    <BinaryTree type="DecisionTree" boostWeight="1.0000000000000000e+00" itree="15">
      <Node pos="s" depth="0" NCoef="0" IVar="0" Cut="1.1521529541015625e+03" cType="1" res="-9.4495685771107674e-03" rms="4.1397106647491455e-01" purity="4.9827685952186584e-01" nType="0">
        <Node pos="l" depth="1" NCoef="0" IVar="0" Cut="6.8522723388671875e+02" cType="1" res="-7.9805836081504822e-02" rms="4.3789389729499817e-01" purity="3.2303467392921448e-01" nType="0">
          <Node pos="l" depth="2" NCoef="0" IVar="-1" Cut="0.0000000000000000e+00" cType="1" res="-3.2381191849708557e-02" rms="3.9216494560241699e-01" purity="1.9587929546833038e-01" nType="-99"/>
          <Node pos="r" depth="2" NCoef="0" IVar="-1" Cut="0.0000000000000000e+00" cType="1" res="-4.7022178769111633e-03" rms="4.7184836864471436e-01" purity="4.4932779669761658e-01" nType="-99"/>
        </Node>
        <Node pos="r" depth="1" NCoef="0" IVar="2" Cut="5.5059106089174747e-03" cType="1" res="1.1385677754878998e-01" rms="3.3432912826538086e-01" purity="8.0540621280670166e-01" nType="0">
          <Node pos="l" depth="2" NCoef="0" IVar="-1" Cut="0.0000000000000000e+00" cType="1" res="1.1865409463644028e-01" rms="-nan" purity="1.1666649580001831e+00" nType="-99"/>
          <Node pos="r" depth="2" NCoef="0" IVar="-1" Cut="0.0000000000000000e+00" cType="1" res="1.8555980175733566e-02" rms="3.8384476304054260e-01" purity="7.4902492761611938e-01" nType="-99"/>
        </Node>
      </Node>
    </BinaryTree>
    <BinaryTree type="DecisionTree" boostWeight="1.0000000000000000e+00" itree="16">
      <Node pos="s" depth="0" NCoef="0" IVar="3" Cut="4.3210092186927795e-01" cType="1" res="-1.1756906285881996e-02" rms="4.0658968687057495e-01" purity="4.9853578209877014e-01" nType="0">
        <Node pos="l" depth="1" NCoef="0" IVar="1" Cut="2.9681854248046875e+00" cType="1" res="3.5499416291713715e-02" rms="4.1319385170936584e-01" purity="6.0062795877456665e-01" nType="0">
          <Node pos="l" depth="2" NCoef="0" IVar="-1" Cut="0.0000000000000000e+00" cType="1" res="-1.9097628071904182e-02" rms="4.2904394865036011e-01" purity="2.7065479755401611e-01" nType="-99"/>
          <Node pos="r" depth="2" NCoef="0" IVar="-1" Cut="0.0000000000000000e+00" cType="1" res="2.2190371528267860e-02" rms="3.9459392428398132e-01" purity="7.4625587463378906e-01" nType="-99"/>
        </Node>
        <Node pos="r" depth="1" NCoef="0" IVar="3" Cut="8.0387461185455322e-01" cType="1" res="-1.7582036554813385e-01" rms="3.3443847298622131e-01" purity="1.4409431815147400e-01" nType="0">
          <Node pos="l" depth="2" NCoef="0" IVar="-1" Cut="0.0000000000000000e+00" cType="1" res="-4.5190270990133286e-02" rms="3.2244288921356201e-01" purity="1.3580359518527985e-01" nType="-99"/>
          <Node pos="r" depth="2" NCoef="0" IVar="-1" Cut="0.0000000000000000e+00" cType="1" res="-2.2738646715879440e-02" rms="3.8906443119049072e-01" purity="1.9462834298610687e-01" nType="-99"/>
        </Node>
      </Node>
    </BinaryTree>
    <BinaryTree type="DecisionTree" boostWeight="1.0000000000000000e+00" itree="17">
      <Node pos="s" depth="0" NCoef="0" IVar="3" Cut="2.2212667763233185e-01" cType="1" res="1.3392493128776550e-02" rms="4.0266981720924377e-01" purity="5.2299880981445312e-01" nType="0">
        <Node pos="l" depth="1" NCoef="0" IVar="1" Cut="2.8748433589935303e+00" cType="1" res="9.6670933067798615e-02" rms="3.7045195698738098e-01" purity="7.0389944314956665e-01" nType="0">
          <Node pos="l" depth="2" NCoef="0" IVar="-1" Cut="0.0000000000000000e+00" cType="1" res="-1.1522691696882248e-02" rms="4.3792262673377991e-01" purity="2.9922559857368469e-01" nType="-99"/>
          <Node pos="r" depth="2" NCoef="0" IVar="-1" Cut="0.0000000000000000e+00" cType="1" res="3.6909967660903931e-02" rms="3.3414450287818909e-01" purity="8.2901269197463989e-01" nType="-99"/>
        </Node>
        <Node pos="r" depth="1" NCoef="0" IVar="2" Cut="1.6379503533244133e-02" cType="1" res="-7.0555262267589569e-02" rms="4.1618895530700684e-01" purity="3.4064432978630066e-01" nType="0">
          <Node pos="l" depth="2" NCoef="0" IVar="-1" Cut="0.0000000000000000e+00" cType="1" res="-7.0314557524397969e-04" rms="4.4122117757797241e-01" purity="4.8169404268264771e-01" nType="-99"/>
          <Node pos="r" depth="2" NCoef="0" IVar="-1" Cut="0.0000000000000000e+00" cType="1" res="-2.9962720349431038e-02" rms="3.8720574975013733e-01" purity="2.2973684966564178e-01" nType="-99"/>
        </Node>
      </Node>
    </BinaryTree>
    <BinaryTree type="DecisionTree" boostWeight="1.0000000000000000e+00" itree="18">
      <Node pos="s" depth="0" NCoef="0" IVar="0" Cut="1.6465402832031250e+03" cType="1" res="-2.2645778954029083e-02" rms="4.1194981336593628e-01" purity="4.8223820328712463e-01" nType="0">
        <Node pos="l" depth="1" NCoef="0" IVar="2" Cut="3.3302664756774902e-02" cType="1" res="-5.3271479904651642e-02" rms="4.3326631188392639e-01" purity="3.8607177138328552e-01" nType="0">
          <Node pos="l" depth="2" NCoef="0" IVar="-1" Cut="0.0000000000000000e+00" cType="1" res="-3.1503061763942242e-03" rms="4.4342878460884094e-01" purity="4.6235340833663940e-01" nType="-99"/>
          <Node pos="r" depth="2" NCoef="0" IVar="-1" Cut="0.0000000000000000e+00" cType="1" res="-2.9979417100548744e-02" rms="4.0407481789588928e-01" purity="2.4682436883449554e-01" nType="-99"/>
        </Node>
        <Node pos="r" depth="1" NCoef="0" IVar="1" Cut="4.2651648521423340e+00" cType="1" res="1.1052043735980988e-01" rms="2.6372259855270386e-01" purity="9.0038758516311646e-01" nType="0">
          <Node pos="l" depth="2" NCoef="0" IVar="-1" Cut="0.0000000000000000e+00" cType="1" res="-1.6029929742217064e-02" rms="4.3713384866714478e-01" purity="6.0751163959503174e-01" nType="-99"/>
          <Node pos="r" depth="2" NCoef="0" IVar="-1" Cut="0.0000000000000000e+00" cType="1" res="5.5193550884723663e-02" rms="1.5596944093704224e-01" purity="9.8321098089218140e-01" nType="-99"/>
        </Node>
      </Node>
    </BinaryTree>
    <BinaryTree type="DecisionTree" boostWeight="1.0000000000000000e+00" itree="19">
      <Node pos="s" depth="0" NCoef="0" IVar="2" Cut="1.8490741029381752e-02" cType="1" res="-1.0053656995296478e-02" rms="4.0031707286834717e-01" purity="4.8955130577087402e-01" nType="0">
        <Node pos="l" depth="1" NCoef="0" IVar="1" Cut="2.1508817672729492e+00" cType="1" res="6.9837421178817749e-02" rms="3.8466998934745789e-01" purity="6.7018383741378784e-01" nType="0">
          <Node pos="l" depth="2" NCoef="0" IVar="-1" Cut="0.0000000000000000e+00" cType="1" res="-3.8505896925926208e-02" rms="3.4623175859451294e-01" purity="1.5353401005268097e-01" nType="-99"/>
          <Node pos="r" depth="2" NCoef="0" IVar="-1" Cut="0.0000000000000000e+00" cType="1" res="2.8605682775378227e-02" rms="3.7717148661613464e-01" purity="7.5793188810348511e-01" nType="-99"/>
        </Node>
        <Node pos="r" depth="1" NCoef="0" IVar="0" Cut="1.9672576904296875e+03" cType="1" res="-7.6256141066551208e-02" rms="4.0094915032386780e-01" purity="3.3986839652061462e-01" nType="0">
          <Node pos="l" depth="2" NCoef="0" IVar="-1" Cut="0.0000000000000000e+00" cType="1" res="-2.3328980430960655e-02" rms="4.0818086266517639e-01" purity="2.9573082923889160e-01" nType="-99"/>
          <Node pos="r" depth="2" NCoef="0" IVar="-1" Cut="0.0000000000000000e+00" cType="1" res="7.6802231371402740e-02" rms="-nan" purity="1.0325263738632202e+00" nType="-99"/>
        </Node>
      </Node>
    </BinaryTree>
    <BinaryTree type="DecisionTree" boostWeight="1.0000000000000000e+00" itree="20">
      <Node pos="s" depth="0" NCoef="0" IVar="0" Cut="7.2039526367187500e+02" cType="1" res="3.1758407130837440e-03" rms="4.0792563557624817e-01" purity="5.0813978910446167e-01" nType="0">
        <Node pos="l" depth="1" NCoef="0" IVar="0" Cut="5.8708184814453125e+02" cType="1" res="-8.0265775322914124e-02" rms="3.8413661718368530e-01" purity="2.0759803056716919e-01" nType="0">
          <Node pos="l" depth="2" NCoef="0" IVar="-1" Cut="0.0000000000000000e+00" cType="1" res="-3.9556153118610382e-02" rms="3.2364416122436523e-01" purity="1.2171362340450287e-01" nType="-99"/>
          <Node pos="r" depth="2" NCoef="0" IVar="-1" Cut="0.0000000000000000e+00" cType="1" res="-1.2492298847064376e-03" rms="4.2761182785034180e-01" purity="3.0028992891311646e-01" nType="-99"/>
        </Node>
        <Node pos="r" depth="1" NCoef="0" IVar="3" Cut="3.2031548023223877e-01" cType="1" res="4.5341961085796356e-02" rms="4.1307222843170166e-01" purity="6.6001462936401367e-01" nType="0">
          <Node pos="l" depth="2" NCoef="0" IVar="-1" Cut="0.0000000000000000e+00" cType="1" res="2.2428479045629501e-02" rms="3.8949534296989441e-01" purity="7.7077990770339966e-01" nType="-99"/>
          <Node pos="r" depth="2" NCoef="0" IVar="-1" Cut="0.0000000000000000e+00" cType="1" res="-1.2010062113404274e-02" rms="4.5464956760406494e-01" purity="3.7096720933914185e-01" nType="-99"/>
        </Node>
      </Node>
    </BinaryTree>
    <BinaryTree type="DecisionTree" boostWeight="1.0000000000000000e+00" itree="21">
      <Node pos="s" depth="0" NCoef="0" IVar="0" Cut="2.5130461425781250e+03" cType="1" res="-3.5327706485986710e-02" rms="4.2057892680168152e-01" purity="4.7792145609855652e-01" nType="0">
        <Node pos="l" depth="1" NCoef="0" IVar="1" Cut="5.1228189468383789e+00" cType="1" res="-5.0363872200250626e-02" rms="4.3441849946975708e-01" purity="4.4191738963127136e-01" nType="0">
          <Node pos="l" depth="2" NCoef="0" IVar="-1" Cut="0.0000000000000000e+00" cType="1" res="-8.5727348923683167e-03" rms="4.2703357338905334e-01" purity="4.2614266276359558e-01" nType="-99"/>
          <Node pos="r" depth="2" NCoef="0" IVar="-1" Cut="0.0000000000000000e+00" cType="1" res="-6.7873217165470123e-02" rms="4.7442436218261719e-01" purity="5.9724205732345581e-01" nType="-99"/>
        </Node>
        <Node pos="r" depth="1" NCoef="0" IVar="-1" Cut="0.0000000000000000e+00" cType="1" res="9.1583855450153351e-02" rms="-nan" purity="1.0693310499191284e+00" nType="-99"/>
      </Node>
    </BinaryTree>
    <BinaryTree type="DecisionTree" boostWeight="1.0000000000000000e+00" itree="22">
      <Node pos="s" depth="0" NCoef="0" IVar="3" Cut="3.2090905308723450e-01" cType="1" res="1.0890549980103970e-02" rms="3.9656850695610046e-01" purity="5.0624763965606689e-01" nType="0">
        <Node pos="l" depth="1" NCoef="0" IVar="1" Cut="1.6195875406265259e+00" cType="1" res="7.6365835964679718e-02" rms="3.9188888669013977e-01" purity="6.7133569717407227e-01" nType="0">
          <Node pos="l" depth="2" NCoef="0" IVar="-1" Cut="0.0000000000000000e+00" cType="1" res="-4.3599944561719894e-02" rms="3.3532825112342834e-01" purity="1.1986461281776428e-01" nType="-99"/>
          <Node pos="r" depth="2" NCoef="0" IVar="-1" Cut="0.0000000000000000e+00" cType="1" res="2.3738872259855270e-02" rms="3.9023801684379578e-01" purity="7.0041942596435547e-01" nType="-99"/>
        </Node>
        <Node pos="r" depth="1" NCoef="0" IVar="1" Cut="4.0576972961425781e+00" cType="1" res="-1.0470875352621078e-01" rms="3.7795343995094299e-01" purity="2.1477785706520081e-01" nType="0">
          <Node pos="l" depth="2" NCoef="0" IVar="-1" Cut="0.0000000000000000e+00" cType="1" res="-1.9498061388731003e-02" rms="3.8228932023048401e-01" purity="2.1110172569751740e-01" nType="-99"/>
          <Node pos="r" depth="2" NCoef="0" IVar="-1" Cut="0.0000000000000000e+00" cType="1" res="-5.1576018333435059e-02" rms="3.3297997713088989e-01" purity="2.2987060248851776e-01" nType="-99"/>
        </Node>
      </Node>
    </BinaryTree>
    <BinaryTree type="DecisionTree" boostWeight="1.0000000000000000e+00" itree="23">
      <Node pos="s" depth="0" NCoef="0" IVar="1" Cut="5.0779285430908203e+00" cType="1" res="-2.5160780642181635e-03" rms="3.9214581251144409e-01" purity="4.9387642741203308e-01" nType="0">
        <Node pos="l" depth="1" NCoef="0" IVar="3" Cut="2.4691626429557800e-01" cType="1" res="-2.9828786849975586e-02" rms="4.1887441277503967e-01" purity="4.2470434308052063e-01" nType="0">
          <Node pos="l" depth="2" NCoef="0" IVar="-1" Cut="0.0000000000000000e+00" cType="1" res="6.5220878459513187e-03" rms="4.3353730440139771e-01" purity="5.9683310985565186e-01" nType="-99"/>
          <Node pos="r" depth="2" NCoef="0" IVar="-1" Cut="0.0000000000000000e+00" cType="1" res="-2.2292755544185638e-02" rms="3.9521670341491699e-01" purity="2.4864523112773895e-01" nType="-99"/>
        </Node>
        <Node pos="r" depth="1" NCoef="0" IVar="2" Cut="2.0188335329294205e-02" cType="1" res="8.3887390792369843e-02" rms="-nan" purity="1.0458135604858398e+00" nType="-99"/>
      </Node>
    </BinaryTree>
    <BinaryTree type="DecisionTree" boostWeight="1.0000000000000000e+00" itree="24">
      <Node pos="s" depth="0" NCoef="0" IVar="2" Cut="5.5504455231130123e-03" cType="1" res="3.4388389904052019e-03" rms="3.9162704348564148e-01" purity="5.1970028877258301e-01" nType="0">
        <Node pos="l" depth="1" NCoef="0" IVar="0" Cut="1.5286007080078125e+03" cType="1" res="2.2015534341335297e-01" rms="1.2593206763267517e-01" purity="9.3389886617660522e-01" nType="0">
          <Node pos="l" depth="2" NCoef="0" IVar="-1" Cut="0.0000000000000000e+00" cType="1" res="8.4746815264225006e-02" rms="-nan" purity="9.3445301055908203e-01" nType="-99"/>
          <Node pos="r" depth="2" NCoef="0" IVar="-1" Cut="0.0000000000000000e+00" cType="1" res="2.9683016240596771e-02" rms="2.0607362687587738e-01" purity="9.3328857421875000e-01" nType="-99"/>
        </Node>
        <Node pos="r" depth="1" NCoef="0" IVar="3" Cut="2.0982703566551208e-01" cType="1" res="-2.2124655544757843e-02" rms="4.0422639250755310e-01" purity="4.7084215283393860e-01" nType="0">
          <Node pos="l" depth="2" NCoef="0" IVar="-1" Cut="0.0000000000000000e+00" cType="1" res="1.0476952418684959e-02" rms="4.0447410941123962e-01" purity="6.5322351455688477e-01" nType="-99"/>
          <Node pos="r" depth="2" NCoef="0" IVar="-1" Cut="0.0000000000000000e+00" cType="1" res="-2.2172419354319572e-02" rms="3.9421573281288147e-01" purity="2.8400754928588867e-01" nType="-99"/>
        </Node>
      </Node>
    </BinaryTree>
    <BinaryTree type="DecisionTree" boostWeight="1.0000000000000000e+00" itree="25">
      <Node pos="s" depth="0" NCoef="0" IVar="2" Cut="2.0339814946055412e-02" cType="1" res="-1.3254429213702679e-02" rms="4.0970149636268616e-01" purity="4.9249601364135742e-01" nType="0">
        <Node pos="l" depth="1" NCoef="0" IVar="1" Cut="1.6498371362686157e+00" cType="1" res="3.9486851543188095e-02" rms="3.9659070968627930e-01" purity="6.4252007007598877e-01" nType="0">
          <Node pos="l" depth="2" NCoef="0" IVar="-1" Cut="0.0000000000000000e+00" cType="1" res="-3.0602302402257919e-02" rms="3.5871708393096924e-01" purity="1.4748276770114899e-01" nType="-99"/>
          <Node pos="r" depth="2" NCoef="0" IVar="-1" Cut="0.0000000000000000e+00" cType="1" res="1.4769617468118668e-02" rms="3.9697688817977905e-01" purity="6.8655616044998169e-01" nType="-99"/>
        </Node>
        <Node pos="r" depth="1" NCoef="0" IVar="0" Cut="2.2117829589843750e+03" cType="1" res="-6.4685136079788208e-02" rms="4.1569957137107849e-01" purity="3.4619998931884766e-01" nType="0">
          <Node pos="l" depth="2" NCoef="0" IVar="-1" Cut="0.0000000000000000e+00" cType="1" res="-1.1692745611071587e-02" rms="4.0548869967460632e-01" purity="3.2946795225143433e-01" nType="-99"/>
          <Node pos="r" depth="2" NCoef="0" IVar="-1" Cut="0.0000000000000000e+00" cType="1" res="-9.8891340196132660e-02" rms="4.7165936231613159e-01" purity="5.4089283943176270e-01" nType="-99"/>
        </Node>
      </Node>
    </BinaryTree>
    <BinaryTree type="DecisionTree" boostWeight="1.0000000000000000e+00" itree="26">
      <Node pos="s" depth="0" NCoef="0" IVar="3" Cut="5.8018761873245239e-01" cType="1" res="-1.4836209826171398e-02" rms="4.0239539742469788e-01" purity="4.8656213283538818e-01" nType="0">
        <Node pos="l" depth="1" NCoef="0" IVar="2" Cut="3.1370975077152252e-02" cType="1" res="5.3085903637111187e-03" rms="4.1068339347839355e-01" purity="5.4123067855834961e-01" nType="0">
          <Node pos="l" depth="2" NCoef="0" IVar="-1" Cut="0.0000000000000000e+00" cType="1" res="1.3648730702698231e-02" rms="4.0047618746757507e-01" purity="6.5270972251892090e-01" nType="-99"/>
          <Node pos="r" depth="2" NCoef="0" IVar="-1" Cut="0.0000000000000000e+00" cType="1" res="-1.8844237551093102e-02" rms="4.1691288352012634e-01" purity="3.3594465255737305e-01" nType="-99"/>
        </Node>
        <Node pos="r" depth="1" NCoef="0" IVar="2" Cut="1.4816913753747940e-02" cType="1" res="-1.5851522982120514e-01" rms="3.0053445696830750e-01" purity="9.6648544073104858e-02" nType="0">
          <Node pos="l" depth="2" NCoef="0" IVar="-1" Cut="0.0000000000000000e+00" cType="1" res="-5.5178385227918625e-02" rms="3.0748683214187622e-01" purity="1.0111688077449799e-01" nType="-99"/>
          <Node pos="r" depth="2" NCoef="0" IVar="-1" Cut="0.0000000000000000e+00" cType="1" res="-3.4933704882860184e-02" rms="2.8577217459678650e-01" purity="9.3833185732364655e-02" nType="-99"/>
        </Node>
      </Node>
    </BinaryTree>
    <BinaryTree type="DecisionTree" boostWeight="1.0000000000000000e+00" itree="27">
      <Node pos="s" depth="0" NCoef="0" IVar="0" Cut="1.8042225341796875e+03" cType="1" res="-1.9194658845663071e-02" rms="4.1143682599067688e-01" purity="4.8395311832427979e-01" nType="0">
        <Node pos="l" depth="1" NCoef="0" IVar="1" Cut="4.4548153877258301e+00" cType="1" res="-4.0532816201448441e-02" rms="4.3630617856979370e-01" purity="4.0617167949676514e-01" nType="0">
          <Node pos="l" depth="2" NCoef="0" IVar="-1" Cut="0.0000000000000000e+00" cType="1" res="-3.1732460483908653e-03" rms="4.2371359467506409e-01" purity="3.8599061965942383e-01" nType="-99"/>
          <Node pos="r" depth="2" NCoef="0" IVar="-1" Cut="0.0000000000000000e+00" cType="1" res="-5.2705094218254089e-02" rms="4.7134128212928772e-01" purity="5.1744556427001953e-01" nType="-99"/>
        </Node>
        <Node pos="r" depth="1" NCoef="0" IVar="0" Cut="2.1967145996093750e+03" cType="1" res="1.0940443724393845e-01" rms="1.5145327150821686e-01" purity="9.5271992683410645e-01" nType="0">
          <Node pos="l" depth="2" NCoef="0" IVar="-1" Cut="0.0000000000000000e+00" cType="1" res="1.0432951152324677e-01" rms="-nan" purity="1.0963660478591919e+00" nType="-99"/>
          <Node pos="r" depth="2" NCoef="0" IVar="-1" Cut="0.0000000000000000e+00" cType="1" res="1.5396781265735626e-02" rms="2.5920599699020386e-01" purity="8.8548117876052856e-01" nType="-99"/>
        </Node>
      </Node>
    </BinaryTree>
    <BinaryTree type="DecisionTree" boostWeight="1.0000000000000000e+00" itree="28">
      <Node pos="s" depth="0" NCoef="0" IVar="1" Cut="2.8745775222778320e+00" cType="1" res="1.9526736810803413e-02" rms="3.9581769704818726e-01" purity="5.2656382322311401e-01" nType="0">
        <Node pos="l" depth="1" NCoef="0" IVar="1" Cut="1.5809659957885742e+00" cType="1" res="-5.3642619401216507e-02" rms="4.0499871969223022e-01" purity="2.2829657793045044e-01" nType="0">
          <Node pos="l" depth="2" NCoef="0" IVar="-1" Cut="0.0000000000000000e+00" cType="1" res="-4.2937748134136200e-02" rms="2.5647962093353271e-01" purity="7.7775098383426666e-02" nType="-99"/>
          <Node pos="r" depth="2" NCoef="0" IVar="-1" Cut="0.0000000000000000e+00" cType="1" res="-8.8712805882096291e-03" rms="4.2985880374908447e-01" purity="2.6313409209251404e-01" nType="-99"/>
        </Node>
        <Node pos="r" depth="1" NCoef="0" IVar="2" Cut="7.3886383324861526e-03" cType="1" res="5.8218743652105331e-02" rms="3.8529938459396362e-01" purity="6.8428772687911987e-01" nType="0">
          <Node pos="l" depth="2" NCoef="0" IVar="-1" Cut="0.0000000000000000e+00" cType="1" res="5.1591146737337112e-02" rms="1.9889028370380402e-01" purity="9.4608217477798462e-01" nType="-99"/>
          <Node pos="r" depth="2" NCoef="0" IVar="-1" Cut="0.0000000000000000e+00" cType="1" res="9.2132696881890297e-03" rms="4.1729575395584106e-01" purity="6.1687195301055908e-01" nType="-99"/>
        </Node>
      </Node>
    </BinaryTree>
    <BinaryTree type="DecisionTree" boostWeight="1.0000000000000000e+00" itree="29">
      <Node pos="s" depth="0" NCoef="0" IVar="2" Cut="9.3764521181583405e-02" cType="1" res="-1.3610835187137127e-02" rms="4.1400605440139771e-01" purity="4.9241432547569275e-01" nType="0">
        <Node pos="l" depth="1" NCoef="0" IVar="1" Cut="5.2781887054443359e+00" cType="1" res="2.3065174464136362e-03" rms="4.1718867421150208e-01" purity="5.2091270685195923e-01" nType="0">
          <Node pos="l" depth="2" NCoef="0" IVar="-1" Cut="0.0000000000000000e+00" cType="1" res="5.7268501259386539e-03" rms="4.1560497879981995e-01" purity="4.9262151122093201e-01" nType="-99"/>
          <Node pos="r" depth="2" NCoef="0" IVar="-1" Cut="0.0000000000000000e+00" cType="1" res="-5.7839367538690567e-02" rms="4.0246522426605225e-01" purity="7.1780925989151001e-01" nType="-99"/>
        </Node>
        <Node pos="r" depth="1" NCoef="0" IVar="-1" Cut="0.0000000000000000e+00" cType="1" res="-5.1135722547769547e-02" rms="3.2301646471023560e-01" purity="1.6396866738796234e-01" nType="-99"/>
      </Node>
    </BinaryTree>
    <BinaryTree type="DecisionTree" boostWeight="1.0000000000000000e+00" itree="30">
      <Node pos="s" depth="0" NCoef="0" IVar="2" Cut="7.3962970636785030e-03" cType="1" res="8.8098691776394844e-03" rms="3.8926866650581360e-01" purity="5.2967715263366699e-01" nType="0">
        <Node pos="l" depth="1" NCoef="0" IVar="0" Cut="9.8343719482421875e+02" cType="1" res="1.5286572277545929e-01" rms="2.3198768496513367e-01" purity="8.7753677368164062e-01" nType="0">
          <Node pos="l" depth="2" NCoef="0" IVar="-1" Cut="0.0000000000000000e+00" cType="1" res="9.0932056307792664e-02" rms="-nan" purity="8.8678240776062012e-01" nType="-99"/>
          <Node pos="r" depth="2" NCoef="0" IVar="-1" Cut="0.0000000000000000e+00" cType="1" res="1.7452955245971680e-02" rms="2.6088178157806396e-01" purity="8.7310320138931274e-01" nType="-99"/>
        </Node>
        <Node pos="r" depth="1" NCoef="0" IVar="2" Cut="9.3531422317028046e-02" cType="1" res="-2.3522058501839638e-02" rms="4.0958222746849060e-01" purity="4.5160344243049622e-01" nType="0">
          <Node pos="l" depth="2" NCoef="0" IVar="-1" Cut="0.0000000000000000e+00" cType="1" res="-1.9813084509223700e-03" rms="4.0908959507942200e-01" purity="4.7976574301719666e-01" nType="-99"/>
          <Node pos="r" depth="2" NCoef="0" IVar="-1" Cut="0.0000000000000000e+00" cType="1" res="-4.9280796200037003e-02" rms="3.7955623865127563e-01" purity="1.7453804612159729e-01" nType="-99"/>
        </Node>
      </Node>
    </BinaryTree>
    <BinaryTree type="DecisionTree" boostWeight="1.0000000000000000e+00" itree="31">
      <Node pos="s" depth="0" NCoef="0" IVar="3" Cut="2.7157911658287048e-01" cType="1" res="-7.4460790492594242e-03" rms="3.9166581630706787e-01" purity="4.8724538087844849e-01" nType="0">
        <Node pos="l" depth="1" NCoef="0" IVar="2" Cut="5.5361534468829632e-03" cType="1" res="3.7277135998010635e-02" rms="3.8138237595558167e-01" purity="6.4887869358062744e-01" nType="0">
          <Node pos="l" depth="2" NCoef="0" IVar="-1" Cut="0.0000000000000000e+00" cType="1" res="1.0871670395135880e-01" rms="-nan" purity="1.0826848745346069e+00" nType="-99"/>
          <Node pos="r" depth="2" NCoef="0" IVar="-1" Cut="0.0000000000000000e+00" cType="1" res="2.3522821720689535e-03" rms="4.1227850317955017e-01" purity="5.9231650829315186e-01" nType="-99"/>
        </Node>
        <Node pos="r" depth="1" NCoef="0" IVar="1" Cut="4.4911465644836426e+00" cType="1" res="-6.7777961492538452e-02" rms="3.9722537994384766e-01" purity="2.6920095086097717e-01" nType="0">
          <Node pos="l" depth="2" NCoef="0" IVar="-1" Cut="0.0000000000000000e+00" cType="1" res="-1.2335269711911678e-02" rms="3.9581525325775146e-01" purity="2.5626820325851440e-01" nType="-99"/>
          <Node pos="r" depth="2" NCoef="0" IVar="-1" Cut="0.0000000000000000e+00" cType="1" res="-5.8217987418174744e-02" rms="3.7406811118125916e-01" purity="3.5394746065139771e-01" nType="-99"/>
        </Node>
      </Node>
    </BinaryTree>
    <BinaryTree type="DecisionTree" boostWeight="1.0000000000000000e+00" itree="32">
      <Node pos="s" depth="0" NCoef="0" IVar="0" Cut="1.9331179199218750e+03" cType="1" res="-2.5099549442529678e-02" rms="4.1043376922607422e-01" purity="4.9099737405776978e-01" nType="0">
        <Node pos="l" depth="1" NCoef="0" IVar="1" Cut="4.9993715286254883e+00" cType="1" res="-4.1506256908178329e-02" rms="4.3390750885009766e-01" purity="4.1878667473793030e-01" nType="0">
          <Node pos="l" depth="2" NCoef="0" IVar="-1" Cut="0.0000000000000000e+00" cType="1" res="-7.6620788313448429e-03" rms="4.3019318580627441e-01" purity="4.1117453575134277e-01" nType="-99"/>
          <Node pos="r" depth="2" NCoef="0" IVar="-1" Cut="0.0000000000000000e+00" cType="1" res="-6.1498459428548813e-02" rms="4.5012399554252625e-01" purity="5.2506697177886963e-01" nType="-99"/>
        </Node>
        <Node pos="r" depth="1" NCoef="0" IVar="1" Cut="4.5264201164245605e+00" cType="1" res="7.4026718735694885e-02" rms="1.9301728904247284e-01" purity="9.2728114128112793e-01" nType="0">
          <Node pos="l" depth="2" NCoef="0" IVar="-1" Cut="0.0000000000000000e+00" cType="1" res="-2.5123715400695801e-02" rms="3.8076040148735046e-01" purity="6.9463551044464111e-01" nType="-99"/>
          <Node pos="r" depth="2" NCoef="0" IVar="-1" Cut="0.0000000000000000e+00" cType="1" res="5.8530751615762711e-02" rms="-nan" purity="9.9619269371032715e-01" nType="-99"/>
        </Node>
      </Node>
    </BinaryTree>
    <BinaryTree type="DecisionTree" boostWeight="1.0000000000000000e+00" itree="33">
      <Node pos="s" depth="0" NCoef="0" IVar="1" Cut="2.2029795646667480e+00" cType="1" res="-1.2115218676626682e-02" rms="3.9703357219696045e-01" purity="4.8566186428070068e-01" nType="0">
        <Node pos="l" depth="1" NCoef="0" IVar="2" Cut="7.5875916518270969e-03" cType="1" res="-1.1262773722410202e-01" rms="3.2326513528823853e-01" purity="1.1800464987754822e-01" nType="0">
          <Node pos="l" depth="2" NCoef="0" IVar="-1" Cut="0.0000000000000000e+00" cType="1" res="-5.2934125065803528e-02" rms="3.8220015168190002e-01" purity="1.5858750045299530e-01" nType="-99"/>
          <Node pos="r" depth="2" NCoef="0" IVar="-1" Cut="0.0000000000000000e+00" cType="1" res="-2.7371719479560852e-02" rms="2.9921981692314148e-01" purity="1.0845869034528732e-01" nType="-99"/>
        </Node>
        <Node pos="r" depth="1" NCoef="0" IVar="3" Cut="4.3061816692352295e-01" cType="1" res="6.4583439379930496e-03" rms="4.0650042891502380e-01" purity="5.5360072851181030e-01" nType="0">
          <Node pos="l" depth="2" NCoef="0" IVar="-1" Cut="0.0000000000000000e+00" cType="1" res="6.6591859795153141e-03" rms="4.0811026096343994e-01" purity="6.2636071443557739e-01" nType="-99"/>
          <Node pos="r" depth="2" NCoef="0" IVar="-1" Cut="0.0000000000000000e+00" cType="1" res="-2.0074019208550453e-02" rms="3.8845118880271912e-01" purity="2.1585425734519958e-01" nType="-99"/>
        </Node>
      </Node>
    </BinaryTree>
    <BinaryTree type="DecisionTree" boostWeight="1.0000000000000000e+00" itree="34">
      <Node pos="s" depth="0" NCoef="0" IVar="2" Cut="3.3216327428817749e-02" cType="1" res="-5.4692425765097141e-03" rms="3.8838008046150208e-01" purity="4.8968088626861572e-01" nType="0">
        <Node pos="l" depth="1" NCoef="0" IVar="1" Cut="2.8801205158233643e+00" cType="1" res="3.8681544363498688e-02" rms="3.7722378969192505e-01" purity="6.1388486623764038e-01" nType="0">
          <Node pos="l" depth="2" NCoef="0" IVar="-1" Cut="0.0000000000000000e+00" cType="1" res="-1.6530027613043785e-02" rms="4.0609434247016907e-01" purity="2.4994769692420959e-01" nType="-99"/>
          <Node pos="r" depth="2" NCoef="0" IVar="-1" Cut="0.0000000000000000e+00" cType="1" res="2.8376197442412376e-02" rms="3.4920126199722290e-01" purity="8.0621236562728882e-01" nType="-99"/>
        </Node>
        <Node pos="r" depth="1" NCoef="0" IVar="2" Cut="3.8980364799499512e-02" cType="1" res="-8.0729104578495026e-02" rms="3.9548936486244202e-01" purity="2.7796161174774170e-01" nType="0">
          <Node pos="l" depth="2" NCoef="0" IVar="-1" Cut="0.0000000000000000e+00" cType="1" res="-6.1955295503139496e-02" rms="3.8692337274551392e-01" purity="1.9613853096961975e-01" nType="-99"/>
          <Node pos="r" depth="2" NCoef="0" IVar="-1" Cut="0.0000000000000000e+00" cType="1" res="-1.1046224273741245e-02" rms="3.8832515478134155e-01" purity="3.0067381262779236e-01" nType="-99"/>
        </Node>
      </Node>
    </BinaryTree>
    <BinaryTree type="DecisionTree" boostWeight="1.0000000000000000e+00" itree="35">
      <Node pos="s" depth="0" NCoef="0" IVar="1" Cut="4.7743082046508789e+00" cType="1" res="6.4329202286899090e-03" rms="3.7963715195655823e-01" purity="4.9386322498321533e-01" nType="0">
        <Node pos="l" depth="1" NCoef="0" IVar="2" Cut="5.5414834059774876e-03" cType="1" res="-1.8290475010871887e-02" rms="4.0789937973022461e-01" purity="4.0917062759399414e-01" nType="0">
          <Node pos="l" depth="2" NCoef="0" IVar="-1" Cut="0.0000000000000000e+00" cType="1" res="4.4714219868183136e-02" rms="2.2896499931812286e-01" purity="8.1002604961395264e-01" nType="-99"/>
          <Node pos="r" depth="2" NCoef="0" IVar="-1" Cut="0.0000000000000000e+00" cType="1" res="-9.7058909013867378e-03" rms="4.1855055093765259e-01" purity="3.6574620008468628e-01" nType="-99"/>
        </Node>
        <Node pos="r" depth="1" NCoef="0" IVar="0" Cut="2.8634609375000000e+03" cType="1" res="6.2695898115634918e-02" rms="-nan" purity="9.8259025812149048e-01" nType="-99"/>
      </Node>
    </BinaryTree>
    <BinaryTree type="DecisionTree" boostWeight="1.0000000000000000e+00" itree="36">
      <Node pos="s" depth="0" NCoef="0" IVar="0" Cut="1.2247844238281250e+03" cType="1" res="-2.7268208563327789e-02" rms="3.9082562923431396e-01" purity="4.7271367907524109e-01" nType="0">
        <Node pos="l" depth="1" NCoef="0" IVar="3" Cut="2.8382122516632080e-01" cType="1" res="-5.5210098624229431e-02" rms="4.1851347684860229e-01" purity="3.2730269432067871e-01" nType="0">
          <Node pos="l" depth="2" NCoef="0" IVar="-1" Cut="0.0000000000000000e+00" cType="1" res="-2.0933687686920166e-02" rms="4.4975963234901428e-01" purity="4.0229484438896179e-01" nType="-99"/>
          <Node pos="r" depth="2" NCoef="0" IVar="-1" Cut="0.0000000000000000e+00" cType="1" res="-4.5808716677129269e-03" rms="3.7233895063400269e-01" purity="2.3423479497432709e-01" nType="-99"/>
        </Node>
        <Node pos="r" depth="1" NCoef="0" IVar="2" Cut="1.4682425186038017e-02" cType="1" res="3.5323832184076309e-02" rms="3.1125611066818237e-01" purity="7.9844594001770020e-01" nType="0">
          <Node pos="l" depth="2" NCoef="0" IVar="-1" Cut="0.0000000000000000e+00" cType="1" res="5.9615258127450943e-02" rms="3.1440466642379761e-02" purity="9.6933394670486450e-01" nType="-99"/>
          <Node pos="r" depth="2" NCoef="0" IVar="-1" Cut="0.0000000000000000e+00" cType="1" res="-1.9483957439661026e-02" rms="4.2631128430366516e-01" purity="6.1158806085586548e-01" nType="-99"/>
        </Node>
      </Node>
    </BinaryTree>
    <BinaryTree type="DecisionTree" boostWeight="1.0000000000000000e+00" itree="37">
      <Node pos="s" depth="0" NCoef="0" IVar="1" Cut="5.9370503425598145e+00" cType="1" res="-6.1742467805743217e-03" rms="4.0257012844085693e-01" purity="5.0322175025939941e-01" nType="0">
        <Node pos="l" depth="1" NCoef="0" IVar="2" Cut="2.5860229507088661e-02" cType="1" res="-1.3911538757383823e-02" rms="4.1421213746070862e-01" purity="4.8013028502464294e-01" nType="0">
          <Node pos="l" depth="2" NCoef="0" IVar="-1" Cut="0.0000000000000000e+00" cType="1" res="-1.1482663452625275e-02" rms="4.1355353593826294e-01" purity="5.4557305574417114e-01" nType="-99"/>
          <Node pos="r" depth="2" NCoef="0" IVar="-1" Cut="0.0000000000000000e+00" cType="1" res="6.6126151941716671e-03" rms="4.1219601035118103e-01" purity="3.8360336422920227e-01" nType="-99"/>
        </Node>
        <Node pos="r" depth="1" NCoef="0" IVar="-1" Cut="0.0000000000000000e+00" cType="1" res="1.0018603503704071e-01" rms="-nan" purity="1.0772013664245605e+00" nType="-99"/>
      </Node>
    </BinaryTree>
    <BinaryTree type="DecisionTree" boostWeight="1.0000000000000000e+00" itree="38">
      <Node pos="s" depth="0" NCoef="0" IVar="2" Cut="9.7899436950683594e-02" cType="1" res="4.2991247028112411e-03" rms="3.9470693469047546e-01" purity="5.2082234621047974e-01" nType="0">
        <Node pos="l" depth="1" NCoef="0" IVar="3" Cut="3.0863660573959351e-01" cType="1" res="1.5064863488078117e-02" rms="3.9190244674682617e-01" purity="5.4211318492889404e-01" nType="0">
          <Node pos="l" depth="2" NCoef="0" IVar="-1" Cut="0.0000000000000000e+00" cType="1" res="1.3123798184096813e-02" rms="3.7742668390274048e-01" purity="6.7549985647201538e-01" nType="-99"/>
          <Node pos="r" depth="2" NCoef="0" IVar="-1" Cut="0.0000000000000000e+00" cType="1" res="-1.3652740046381950e-02" rms="4.1422435641288757e-01" purity="2.5713393092155457e-01" nType="-99"/>
        </Node>
        <Node pos="r" depth="1" NCoef="0" IVar="-1" Cut="0.0000000000000000e+00" cType="1" res="-4.5749180018901825e-02" rms="4.0010312199592590e-01" purity="1.8713687360286713e-01" nType="-99"/>
      </Node>
    </BinaryTree>
    <BinaryTree type="DecisionTree" boostWeight="1.0000000000000000e+00" itree="39">
      <Node pos="s" depth="0" NCoef="0" IVar="1" Cut="5.8974165916442871e+00" cType="1" res="2.1462565287947655e-02" rms="3.7194117903709412e-01" purity="5.0988566875457764e-01" nType="0">
        <Node pos="l" depth="1" NCoef="0" IVar="3" Cut="3.7056215107440948e-02" cType="1" res="1.0907818563282490e-02" rms="3.8776701688766479e-01" purity="4.8464986681938171e-01" nType="0">
          <Node pos="l" depth="2" NCoef="0" IVar="-1" Cut="0.0000000000000000e+00" cType="1" res="7.3635891079902649e-02" rms="2.0784637331962585e-01" purity="8.3476507663726807e-01" nType="-99"/>
          <Node pos="r" depth="2" NCoef="0" IVar="-1" Cut="0.0000000000000000e+00" cType="1" res="-2.0566813182085752e-03" rms="3.9276170730590820e-01" purity="4.5706975460052490e-01" nType="-99"/>
        </Node>
        <Node pos="r" depth="1" NCoef="0" IVar="-1" Cut="0.0000000000000000e+00" cType="1" res="3.1858387589454651e-01" rms="-nan" purity="1.2880672216415405e+00" nType="-99"/>
      </Node>
    </BinaryTree>
    <BinaryTree type="DecisionTree" boostWeight="1.0000000000000000e+00" itree="40">
      <Node pos="s" depth="0" NCoef="0" IVar="1" Cut="2.6988945007324219e+00" cType="1" res="-9.7541662398725748e-04" rms="3.9970681071281433e-01" purity="5.1547598838806152e-01" nType="0">
        <Node pos="l" depth="1" NCoef="0" IVar="0" Cut="7.7914428710937500e+02" cType="1" res="-6.2152873724699020e-02" rms="3.8229626417160034e-01" purity="1.9267331063747406e-01" nType="0">
          <Node pos="l" depth="2" NCoef="0" IVar="-1" Cut="0.0000000000000000e+00" cType="1" res="-1.0974645614624023e-02" rms="3.7396952509880066e-01" purity="1.7795434594154358e-01" nType="-99"/>
          <Node pos="r" depth="2" NCoef="0" IVar="-1" Cut="0.0000000000000000e+00" cType="1" res="-2.8219174593687057e-02" rms="3.9226865768432617e-01" purity="2.2001864016056061e-01" nType="-99"/>
        </Node>
        <Node pos="r" depth="1" NCoef="0" IVar="0" Cut="1.2884372558593750e+03" cType="1" res="2.3300228640437126e-02" rms="4.0384858846664429e-01" purity="6.4356637001037598e-01" nType="0">
          <Node pos="l" depth="2" NCoef="0" IVar="-1" Cut="0.0000000000000000e+00" cType="1" res="1.8162582069635391e-02" rms="4.1883927583694458e-01" purity="5.4592245817184448e-01" nType="-99"/>
          <Node pos="r" depth="2" NCoef="0" IVar="-1" Cut="0.0000000000000000e+00" cType="1" res="-1.7446089535951614e-02" rms="3.7306395173072815e-01" purity="7.7019715309143066e-01" nType="-99"/>
        </Node>
      </Node>
    </BinaryTree>
    <BinaryTree type="DecisionTree" boostWeight="1.0000000000000000e+00" itree="41">
      <Node pos="s" depth="0" NCoef="0" IVar="0" Cut="8.6726977539062500e+02" cType="1" res="-1.0912249796092510e-02" rms="3.8445153832435608e-01" purity="4.9007982015609741e-01" nType="0">
        <Node pos="l" depth="1" NCoef="0" IVar="3" Cut="3.4568598866462708e-01" cType="1" res="-6.1325732618570328e-02" rms="4.0903493762016296e-01" purity="2.6402625441551208e-01" nType="0">
          <Node pos="l" depth="2" NCoef="0" IVar="-1" Cut="0.0000000000000000e+00" cType="1" res="-2.3698877543210983e-02" rms="4.2197799682617188e-01" purity="2.9796102643013000e-01" nType="-99"/>
          <Node pos="r" depth="2" NCoef="0" IVar="-1" Cut="0.0000000000000000e+00" cType="1" res="-2.8149969875812531e-03" rms="3.8381487131118774e-01" purity="2.1578367054462433e-01" nType="-99"/>
        </Node>
        <Node pos="r" depth="1" NCoef="0" IVar="2" Cut="3.2863263040781021e-02" cType="1" res="3.6815095692873001e-02" rms="3.5306054353713989e-01" purity="7.0408886671066284e-01" nType="0">
          <Node pos="l" depth="2" NCoef="0" IVar="-1" Cut="0.0000000000000000e+00" cType="1" res="2.5046467781066895e-02" rms="3.2780414819717407e-01" purity="8.0699825286865234e-01" nType="-99"/>
          <Node pos="r" depth="2" NCoef="0" IVar="-1" Cut="0.0000000000000000e+00" cType="1" res="-1.3144455850124359e-02" rms="3.9811241626739502e-01" purity="4.3664208054542542e-01" nType="-99"/>
        </Node>
      </Node>
    </BinaryTree>
    <BinaryTree type="DecisionTree" boostWeight="1.0000000000000000e+00" itree="42">
      <Node pos="s" depth="0" NCoef="0" IVar="3" Cut="1.6058929264545441e-01" cType="1" res="-1.0247693397104740e-02" rms="3.8261607289314270e-01" purity="4.9258336424827576e-01" nType="0">
        <Node pos="l" depth="1" NCoef="0" IVar="2" Cut="3.1371518969535828e-02" cType="1" res="5.7066895067691803e-02" rms="3.3897802233695984e-01" purity="7.0039719343185425e-01" nType="0">
          <Node pos="l" depth="2" NCoef="0" IVar="-1" Cut="0.0000000000000000e+00" cType="1" res="3.6954101175069809e-02" rms="2.8244030475616455e-01" purity="8.1820732355117798e-01" nType="-99"/>
          <Node pos="r" depth="2" NCoef="0" IVar="-1" Cut="0.0000000000000000e+00" cType="1" res="-9.7219953313469887e-03" rms="4.1353785991668701e-01" purity="4.6515679359436035e-01" nType="-99"/>
        </Node>
        <Node pos="r" depth="1" NCoef="0" IVar="3" Cut="2.1257989108562469e-01" cType="1" res="-5.0583451986312866e-02" rms="4.0115019679069519e-01" purity="3.6805868148803711e-01" nType="0">
          <Node pos="l" depth="2" NCoef="0" IVar="-1" Cut="0.0000000000000000e+00" cType="1" res="-4.3046563863754272e-02" rms="4.0203604102134705e-01" purity="4.4499284029006958e-01" nType="-99"/>
          <Node pos="r" depth="2" NCoef="0" IVar="-1" Cut="0.0000000000000000e+00" cType="1" res="-6.6809304989874363e-03" rms="3.9654335379600525e-01" purity="3.4857937693595886e-01" nType="-99"/>
        </Node>
      </Node>
    </BinaryTree>
    <BinaryTree type="DecisionTree" boostWeight="1.0000000000000000e+00" itree="43">
      <Node pos="s" depth="0" NCoef="0" IVar="2" Cut="1.1100890114903450e-02" cType="1" res="-1.3224849477410316e-02" rms="3.9853680133819580e-01" purity="5.0886130332946777e-01" nType="0">
        <Node pos="l" depth="1" NCoef="0" IVar="3" Cut="4.9531221389770508e-02" cType="1" res="-6.2916368246078491e-02" rms="4.0258511900901794e-01" purity="6.0481572151184082e-01" nType="0">
          <Node pos="l" depth="2" NCoef="0" IVar="-1" Cut="0.0000000000000000e+00" cType="1" res="-1.0163322091102600e-01" rms="4.3643015623092651e-01" purity="5.5978751182556152e-01" nType="-99"/>
          <Node pos="r" depth="2" NCoef="0" IVar="-1" Cut="0.0000000000000000e+00" cType="1" res="-8.9717898517847061e-03" rms="3.8620105385780334e-01" purity="6.1325508356094360e-01" nType="-99"/>
        </Node>
        <Node pos="r" depth="1" NCoef="0" IVar="1" Cut="3.4400238990783691e+00" cType="1" res="1.4793045818805695e-02" rms="3.9347895979881287e-01" purity="4.5475879311561584e-01" nType="0">
          <Node pos="l" depth="2" NCoef="0" IVar="-1" Cut="0.0000000000000000e+00" cType="1" res="-8.0798352137207985e-03" rms="3.9812180399894714e-01" purity="2.2815901041030884e-01" nType="-99"/>
          <Node pos="r" depth="2" NCoef="0" IVar="-1" Cut="0.0000000000000000e+00" cType="1" res="1.8549073487520218e-02" rms="3.8137161731719971e-01" purity="7.2838127613067627e-01" nType="-99"/>
        </Node>
      </Node>
    </BinaryTree>
    <BinaryTree type="DecisionTree" boostWeight="1.0000000000000000e+00" itree="44">
      <Node pos="s" depth="0" NCoef="0" IVar="1" Cut="5.7647981643676758e+00" cType="1" res="-4.7596786171197891e-02" rms="4.0524756908416748e-01" purity="4.5657488703727722e-01" nType="0">
        <Node pos="l" depth="1" NCoef="0" IVar="1" Cut="4.7023167610168457e+00" cType="1" res="-4.2245399206876755e-02" rms="4.0659594535827637e-01" purity="4.3790408968925476e-01" nType="0">
          <Node pos="l" depth="2" NCoef="0" IVar="-1" Cut="0.0000000000000000e+00" cType="1" res="-1.4879300259053707e-02" rms="4.1939830780029297e-01" purity="3.7934777140617371e-01" nType="-99"/>
          <Node pos="r" depth="2" NCoef="0" IVar="-1" Cut="0.0000000000000000e+00" cType="1" res="1.9224042072892189e-02" rms="2.8635284304618835e-01" purity="8.4915846586227417e-01" nType="-99"/>
        </Node>
        <Node pos="r" depth="1" NCoef="0" IVar="-1" Cut="0.0000000000000000e+00" cType="1" res="-1.1434126645326614e-01" rms="3.6865022778511047e-01" purity="7.8238916397094727e-01" nType="-99"/>
      </Node>
    </BinaryTree>
    <BinaryTree type="DecisionTree" boostWeight="1.0000000000000000e+00" itree="45">
      <Node pos="s" depth="0" NCoef="0" IVar="0" Cut="1.3151904296875000e+03" cType="1" res="-6.0041658580303192e-03" rms="3.8933160901069641e-01" purity="4.8409086465835571e-01" nType="0">
        <Node pos="l" depth="1" NCoef="0" IVar="1" Cut="3.6616349220275879e+00" cType="1" res="-3.3849626779556274e-02" rms="4.2168372869491577e-01" purity="3.3847486972808838e-01" nType="0">
          <Node pos="l" depth="2" NCoef="0" IVar="-1" Cut="0.0000000000000000e+00" cType="1" res="-1.4979253755882382e-03" rms="3.9834094047546387e-01" purity="2.8166517615318298e-01" nType="-99"/>
          <Node pos="r" depth="2" NCoef="0" IVar="-1" Cut="0.0000000000000000e+00" cType="1" res="-2.7216857299208641e-02" rms="4.7240549325942993e-01" purity="4.9924838542938232e-01" nType="-99"/>
        </Node>
        <Node pos="r" depth="1" NCoef="0" IVar="1" Cut="4.0707736015319824e+00" cType="1" res="6.6686809062957764e-02" rms="2.7527463436126709e-01" purity="8.6422348022460938e-01" nType="0">
          <Node pos="l" depth="2" NCoef="0" IVar="-1" Cut="0.0000000000000000e+00" cType="1" res="5.8629468083381653e-02" rms="3.2381588220596313e-01" purity="8.5664248466491699e-01" nType="-99"/>
          <Node pos="r" depth="2" NCoef="0" IVar="-1" Cut="0.0000000000000000e+00" cType="1" res="1.2842182070016861e-02" rms="2.4655987322330475e-01" purity="8.6631834506988525e-01" nType="-99"/>
        </Node>
      </Node>
    </BinaryTree>
    <BinaryTree type="DecisionTree" boostWeight="1.0000000000000000e+00" itree="46">
      <Node pos="s" depth="0" NCoef="0" IVar="1" Cut="3.1035242080688477e+00" cType="1" res="2.1742986515164375e-02" rms="3.7457144260406494e-01" purity="5.0900739431381226e-01" nType="0">
        <Node pos="l" depth="1" NCoef="0" IVar="0" Cut="8.4889886474609375e+02" cType="1" res="-3.1846225261688232e-02" rms="3.8861608505249023e-01" purity="2.3168072104454041e-01" nType="0">
          <Node pos="l" depth="2" NCoef="0" IVar="-1" Cut="0.0000000000000000e+00" cType="1" res="-1.5487417578697205e-02" rms="3.6303296685218811e-01" purity="1.8038535118103027e-01" nType="-99"/>
          <Node pos="r" depth="2" NCoef="0" IVar="-1" Cut="0.0000000000000000e+00" cType="1" res="5.4881847463548183e-03" rms="4.5342338085174561e-01" purity="3.8772660493850708e-01" nType="-99"/>
        </Node>
        <Node pos="r" depth="1" NCoef="0" IVar="1" Cut="3.2784781455993652e+00" cType="1" res="6.3651837408542633e-02" rms="3.5765784978866577e-01" purity="7.2588771581649780e-01" nType="0">
          <Node pos="l" depth="2" NCoef="0" IVar="-1" Cut="0.0000000000000000e+00" cType="1" res="6.7851968109607697e-02" rms="3.0174198746681213e-01" purity="6.4736425876617432e-01" nType="-99"/>
          <Node pos="r" depth="2" NCoef="0" IVar="-1" Cut="0.0000000000000000e+00" cType="1" res="1.4933890663087368e-02" rms="3.5674473643302917e-01" purity="7.3220729827880859e-01" nType="-99"/>
        </Node>
      </Node>
    </BinaryTree>
    <BinaryTree type="DecisionTree" boostWeight="1.0000000000000000e+00" itree="47">
      <Node pos="s" depth="0" NCoef="0" IVar="0" Cut="5.7180761718750000e+02" cType="1" res="1.6246631741523743e-02" rms="3.8982498645782471e-01" purity="5.1400518417358398e-01" nType="0">
        <Node pos="l" depth="1" NCoef="0" IVar="1" Cut="1.8307698965072632e+00" cType="1" res="2.0162227749824524e-01" rms="3.0201792716979980e-01" purity="3.3621975779533386e-01" nType="0">
          <Node pos="l" depth="2" NCoef="0" IVar="-1" Cut="0.0000000000000000e+00" cType="1" res="-1.6432540491223335e-02" rms="3.2336896657943726e-01" purity="1.0762302577495575e-01" nType="-99"/>
          <Node pos="r" depth="2" NCoef="0" IVar="-1" Cut="0.0000000000000000e+00" cType="1" res="1.2510304152965546e-01" rms="-nan" purity="5.5598366260528564e-01" nType="-99"/>
        </Node>
        <Node pos="r" depth="1" NCoef="0" IVar="1" Cut="4.6829867362976074e+00" cType="1" res="3.5349605605006218e-03" rms="3.9193263649940491e-01" purity="5.2619642019271851e-01" nType="0">
          <Node pos="l" depth="2" NCoef="0" IVar="-1" Cut="0.0000000000000000e+00" cType="1" res="-3.8530963938683271e-03" rms="4.2386153340339661e-01" purity="4.3081298470497131e-01" nType="-99"/>
          <Node pos="r" depth="2" NCoef="0" IVar="-1" Cut="0.0000000000000000e+00" cType="1" res="3.9442859590053558e-02" rms="1.8282690644264221e-01" purity="9.3933308124542236e-01" nType="-99"/>
        </Node>
      </Node>
    </BinaryTree>
    <BinaryTree type="DecisionTree" boostWeight="1.0000000000000000e+00" itree="48">
      <Node pos="s" depth="0" NCoef="0" IVar="0" Cut="9.4070703125000000e+02" cType="1" res="-2.8155988082289696e-02" rms="3.9654690027236938e-01" purity="4.8370072245597839e-01" nType="0">
        <Node pos="l" depth="1" NCoef="0" IVar="1" Cut="3.1795914173126221e+00" cType="1" res="-8.1952355802059174e-02" rms="4.0413793921470642e-01" purity="2.5769269466400146e-01" nType="0">
          <Node pos="l" depth="2" NCoef="0" IVar="-1" Cut="0.0000000000000000e+00" cType="1" res="-8.5301641374826431e-03" rms="3.9528092741966248e-01" purity="2.2737117111682892e-01" nType="-99"/>
          <Node pos="r" depth="2" NCoef="0" IVar="-1" Cut="0.0000000000000000e+00" cType="1" res="-3.7406202405691147e-02" rms="4.0424054861068726e-01" purity="3.0329322814941406e-01" nType="-99"/>
        </Node>
        <Node pos="r" depth="1" NCoef="0" IVar="3" Cut="2.9590189456939697e-01" cType="1" res="3.6777507513761520e-02" rms="3.7709888815879822e-01" purity="7.5649774074554443e-01" nType="0">
          <Node pos="l" depth="2" NCoef="0" IVar="-1" Cut="0.0000000000000000e+00" cType="1" res="-1.1893423274159431e-02" rms="3.9127635955810547e-01" purity="7.6422548294067383e-01" nType="-99"/>
          <Node pos="r" depth="2" NCoef="0" IVar="-1" Cut="0.0000000000000000e+00" cType="1" res="8.4166273474693298e-02" rms="-nan" purity="7.2044557332992554e-01" nType="-99"/>
        </Node>
      </Node>
    </BinaryTree>
    <BinaryTree type="DecisionTree" boostWeight="1.0000000000000000e+00" itree="49">
      <Node pos="s" depth="0" NCoef="0" IVar="1" Cut="5.9937605857849121e+00" cType="1" res="-3.2206531614065170e-02" rms="4.0836703777313232e-01" purity="4.8131653666496277e-01" nType="0">
        <Node pos="l" depth="1" NCoef="0" IVar="1" Cut="4.8872299194335938e+00" cType="1" res="-2.6430828496813774e-02" rms="4.0893554687500000e-01" purity="4.6726524829864502e-01" nType="0">
          <Node pos="l" depth="2" NCoef="0" IVar="-1" Cut="0.0000000000000000e+00" cType="1" res="-1.0259524919092655e-02" rms="4.2559808492660522e-01" purity="4.1098344326019287e-01" nType="-99"/>
          <Node pos="r" depth="2" NCoef="0" IVar="-1" Cut="0.0000000000000000e+00" cType="1" res="2.8504977002739906e-02" rms="2.1881644427776337e-01" purity="9.1875249147415161e-01" nType="-99"/>
        </Node>
        <Node pos="r" depth="1" NCoef="0" IVar="-1" Cut="0.0000000000000000e+00" cType="1" res="-1.3051809370517731e-01" rms="3.7567764520645142e-01" purity="7.7978694438934326e-01" nType="-99"/>
      </Node>
    </BinaryTree>
    <BinaryTree type="DecisionTree" boostWeight="1.0000000000000000e+00" itree="50">
      <Node pos="s" depth="0" NCoef="0" IVar="1" Cut="2.9381966590881348e+00" cType="1" res="-1.8182218074798584e-02" rms="3.9148783683776855e-01" purity="4.8475852608680725e-01" nType="0">
        <Node pos="l" depth="1" NCoef="0" IVar="2" Cut="9.4742914661765099e-03" cType="1" res="-6.7027159035205841e-02" rms="3.8944271206855774e-01" purity="1.9038619101047516e-01" nType="0">
          <Node pos="l" depth="2" NCoef="0" IVar="-1" Cut="0.0000000000000000e+00" cType="1" res="-4.1935760527849197e-02" rms="4.1974854469299316e-01" purity="2.3966081440448761e-01" nType="-99"/>
          <Node pos="r" depth="2" NCoef="0" IVar="-1" Cut="0.0000000000000000e+00" cType="1" res="-8.8353483006358147e-03" rms="3.6984011530876160e-01" purity="1.7299942672252655e-01" nType="-99"/>
        </Node>
        <Node pos="r" depth="1" NCoef="0" IVar="3" Cut="5.7961851358413696e-01" cType="1" res="8.4111364558339119e-03" rms="3.9003345370292664e-01" purity="6.4502793550491333e-01" nType="0">
          <Node pos="l" depth="2" NCoef="0" IVar="-1" Cut="0.0000000000000000e+00" cType="1" res="7.1773831732571125e-03" rms="3.9249268174171448e-01" purity="6.9902247190475464e-01" nType="-99"/>
          <Node pos="r" depth="2" NCoef="0" IVar="-1" Cut="0.0000000000000000e+00" cType="1" res="-3.8498699665069580e-02" rms="3.3029738068580627e-01" purity="1.2520517408847809e-01" nType="-99"/>
        </Node>
      </Node>
    </BinaryTree>
    <BinaryTree type="DecisionTree" boostWeight="1.0000000000000000e+00" itree="51">
      <Node pos="s" depth="0" NCoef="0" IVar="1" Cut="5.9725904464721680e+00" cType="1" res="-1.9435464637354016e-03" rms="4.1119560599327087e-01" purity="5.2960014343261719e-01" nType="0">
        <Node pos="l" depth="1" NCoef="0" IVar="1" Cut="1.5625833272933960e+00" cType="1" res="9.1459322720766068e-03" rms="4.0620246529579163e-01" purity="5.2152997255325317e-01" nType="0">
          <Node pos="l" depth="2" NCoef="0" IVar="-1" Cut="0.0000000000000000e+00" cType="1" res="-4.4094234704971313e-02" rms="2.3917189240455627e-01" purity="5.5010270327329636e-02" nType="-99"/>
          <Node pos="r" depth="2" NCoef="0" IVar="-1" Cut="0.0000000000000000e+00" cType="1" res="5.5743064731359482e-03" rms="4.1537836194038391e-01" purity="5.6024110317230225e-01" nType="-99"/>
        </Node>
        <Node pos="r" depth="1" NCoef="0" IVar="-1" Cut="0.0000000000000000e+00" cType="1" res="-2.0153032243251801e-01" rms="4.4481518864631653e-01" purity="6.9983810186386108e-01" nType="-99"/>
      </Node>
    </BinaryTree>
    <BinaryTree type="DecisionTree" boostWeight="1.0000000000000000e+00" itree="52">
      <Node pos="s" depth="0" NCoef="0" IVar="3" Cut="2.9625105857849121e-01" cType="1" res="2.5253409985452890e-03" rms="3.9556884765625000e-01" purity="5.0439435243606567e-01" nType="0">
        <Node pos="l" depth="1" NCoef="0" IVar="2" Cut="7.7706217765808105e-02" cType="1" res="-1.8978588283061981e-02" rms="3.9744073152542114e-01" purity="5.9758782386779785e-01" nType="0">
          <Node pos="l" depth="2" NCoef="0" IVar="-1" Cut="0.0000000000000000e+00" cType="1" res="-9.4737485051155090e-03" rms="3.8716760277748108e-01" purity="5.9429574012756348e-01" nType="-99"/>
          <Node pos="r" depth="2" NCoef="0" IVar="-1" Cut="0.0000000000000000e+00" cType="1" res="4.9559928476810455e-02" rms="4.9632066488265991e-01" purity="6.5156948566436768e-01" nType="-99"/>
        </Node>
        <Node pos="r" depth="1" NCoef="0" IVar="3" Cut="3.7448865175247192e-01" cType="1" res="4.4999271631240845e-02" rms="3.8836237788200378e-01" purity="3.2032147049903870e-01" nType="0">
          <Node pos="l" depth="2" NCoef="0" IVar="-1" Cut="0.0000000000000000e+00" cType="1" res="8.0919675529003143e-02" rms="-nan" purity="6.4766007661819458e-01" nType="-99"/>
          <Node pos="r" depth="2" NCoef="0" IVar="-1" Cut="0.0000000000000000e+00" cType="1" res="-5.8419476263225079e-03" rms="4.2113438248634338e-01" purity="2.4704679846763611e-01" nType="-99"/>
        </Node>
      </Node>
    </BinaryTree>
    <BinaryTree type="DecisionTree" boostWeight="1.0000000000000000e+00" itree="53">
      <Node pos="s" depth="0" NCoef="0" IVar="2" Cut="5.5504455231130123e-03" cType="1" res="9.3831811100244522e-03" rms="4.0384495258331299e-01" purity="5.2210694551467896e-01" nType="0">
        <Node pos="l" depth="1" NCoef="0" IVar="1" Cut="4.8054032325744629e+00" cType="1" res="-6.6875569522380829e-02" rms="3.9513552188873291e-01" purity="6.7743188142776489e-01" nType="0">
          <Node pos="l" depth="2" NCoef="0" IVar="-1" Cut="0.0000000000000000e+00" cType="1" res="-3.1583853065967560e-02" rms="4.4528236985206604e-01" purity="5.8394950628280640e-01" nType="-99"/>
          <Node pos="r" depth="2" NCoef="0" IVar="-1" Cut="0.0000000000000000e+00" cType="1" res="7.7309407293796539e-02" rms="-nan" purity="1.0189478397369385e+00" nType="-99"/>
        </Node>
        <Node pos="r" depth="1" NCoef="0" IVar="2" Cut="1.4461431652307510e-02" cType="1" res="2.2998403757810593e-02" rms="4.0386813879013062e-01" purity="4.9437519907951355e-01" nType="0">
          <Node pos="l" depth="2" NCoef="0" IVar="-1" Cut="0.0000000000000000e+00" cType="1" res="2.2503197193145752e-02" rms="3.5114458203315735e-01" purity="6.5346664190292358e-01" nType="-99"/>
          <Node pos="r" depth="2" NCoef="0" IVar="-1" Cut="0.0000000000000000e+00" cType="1" res="7.1326885517919436e-06" rms="4.2413571476936340e-01" purity="4.2064538598060608e-01" nType="-99"/>
        </Node>
      </Node>
    </BinaryTree>
    <BinaryTree type="DecisionTree" boostWeight="1.0000000000000000e+00" itree="54">
      <Node pos="s" depth="0" NCoef="0" IVar="1" Cut="3.3817827701568604e+00" cType="1" res="3.1003002077341080e-03" rms="3.7999832630157471e-01" purity="5.1108735799789429e-01" nType="0">
        <Node pos="l" depth="1" NCoef="0" IVar="0" Cut="5.4991125488281250e+02" cType="1" res="-4.8353552818298340e-02" rms="3.9209470152854919e-01" purity="2.5076508522033691e-01" nType="0">
          <Node pos="l" depth="2" NCoef="0" IVar="-1" Cut="0.0000000000000000e+00" cType="1" res="-4.4678214937448502e-02" rms="3.3952754735946655e-01" purity="1.1431016772985458e-01" nType="-99"/>
          <Node pos="r" depth="2" NCoef="0" IVar="-1" Cut="0.0000000000000000e+00" cType="1" res="-6.9936518557369709e-03" rms="3.9963793754577637e-01" purity="2.8242260217666626e-01" nType="-99"/>
        </Node>
        <Node pos="r" depth="1" NCoef="0" IVar="3" Cut="3.8824057579040527e-01" cType="1" res="6.0390520840883255e-02" rms="3.5744908452033997e-01" purity="8.0093783140182495e-01" nType="0">
          <Node pos="l" depth="2" NCoef="0" IVar="-1" Cut="0.0000000000000000e+00" cType="1" res="1.0816713795065880e-02" rms="3.5391214489936829e-01" purity="7.9660940170288086e-01" nType="-99"/>
          <Node pos="r" depth="2" NCoef="0" IVar="-1" Cut="0.0000000000000000e+00" cType="1" res="9.2538543045520782e-02" rms="2.1819485723972321e-01" purity="8.4892374277114868e-01" nType="-99"/>
        </Node>
      </Node>
    </BinaryTree>
    <BinaryTree type="DecisionTree" boostWeight="1.0000000000000000e+00" itree="55">
      <Node pos="s" depth="0" NCoef="0" IVar="0" Cut="1.7078575439453125e+03" cType="1" res="-2.6004679966717958e-03" rms="3.9544647932052612e-01" purity="5.1559263467788696e-01" nType="0">
        <Node pos="l" depth="1" NCoef="0" IVar="0" Cut="9.1748785400390625e+02" cType="1" res="-1.7318755388259888e-02" rms="4.2856031656265259e-01" purity="4.2492336034774780e-01" nType="0">
          <Node pos="l" depth="2" NCoef="0" IVar="-1" Cut="0.0000000000000000e+00" cType="1" res="8.0597763881087303e-03" rms="4.1588363051414490e-01" purity="3.3443960547447205e-01" nType="-99"/>
          <Node pos="r" depth="2" NCoef="0" IVar="-1" Cut="0.0000000000000000e+00" cType="1" res="-2.0051999017596245e-02" rms="4.3713074922561646e-01" purity="5.4028844833374023e-01" nType="-99"/>
        </Node>
        <Node pos="r" depth="1" NCoef="0" IVar="0" Cut="2.1016696777343750e+03" cType="1" res="6.6303081810474396e-02" rms="1.5125072002410889e-01" purity="9.4006001949310303e-01" nType="0">
          <Node pos="l" depth="2" NCoef="0" IVar="-1" Cut="0.0000000000000000e+00" cType="1" res="7.7230505645275116e-02" rms="-nan" purity="1.0150759220123291e+00" nType="-99"/>
          <Node pos="r" depth="2" NCoef="0" IVar="-1" Cut="0.0000000000000000e+00" cType="1" res="1.5014926902949810e-03" rms="2.3217386007308960e-01" purity="9.0238475799560547e-01" nType="-99"/>
        </Node>
      </Node>
    </BinaryTree>
    <BinaryTree type="DecisionTree" boostWeight="1.0000000000000000e+00" itree="56">
      <Node pos="s" depth="0" NCoef="0" IVar="2" Cut="9.8000913858413696e-02" cType="1" res="-5.1600951701402664e-03" rms="3.9965605735778809e-01" purity="4.9704191088676453e-01" nType="0">
        <Node pos="l" depth="1" NCoef="0" IVar="2" Cut="7.4869051575660706e-02" cType="1" res="1.0894560255110264e-02" rms="3.9648610353469849e-01" purity="5.2481544017791748e-01" nType="0">
          <Node pos="l" depth="2" NCoef="0" IVar="-1" Cut="0.0000000000000000e+00" cType="1" res="7.3215027805417776e-04" rms="3.9608627557754517e-01" purity="5.2462732791900635e-01" nType="-99"/>
          <Node pos="r" depth="2" NCoef="0" IVar="-1" Cut="0.0000000000000000e+00" cType="1" res="6.2374241650104523e-02" rms="3.4493499994277954e-01" purity="5.2950775623321533e-01" nType="-99"/>
        </Node>
        <Node pos="r" depth="1" NCoef="0" IVar="-1" Cut="0.0000000000000000e+00" cType="1" res="-5.0459749996662140e-02" rms="3.8956388831138611e-01" purity="1.7813336849212646e-01" nType="-99"/>
      </Node>
    </BinaryTree>
    <BinaryTree type="DecisionTree" boostWeight="1.0000000000000000e+00" itree="57">
      <Node pos="s" depth="0" NCoef="0" IVar="1" Cut="4.6613245010375977e+00" cType="1" res="2.3841099813580513e-02" rms="3.5744988918304443e-01" purity="5.2748697996139526e-01" nType="0">
        <Node pos="l" depth="1" NCoef="0" IVar="3" Cut="2.4848021566867828e-02" cType="1" res="-5.9909955598413944e-03" rms="4.0561115741729736e-01" purity="4.2450803518295288e-01" nType="0">
          <Node pos="l" depth="2" NCoef="0" IVar="-1" Cut="0.0000000000000000e+00" cType="1" res="8.6665518581867218e-02" rms="-nan" purity="8.7774997949600220e-01" nType="-99"/>
          <Node pos="r" depth="2" NCoef="0" IVar="-1" Cut="0.0000000000000000e+00" cType="1" res="-5.7168221101164818e-03" rms="4.0981215238571167e-01" purity="4.0381401777267456e-01" nType="-99"/>
        </Node>
        <Node pos="r" depth="1" NCoef="0" IVar="3" Cut="1.3810262084007263e-01" cType="1" res="9.3643650412559509e-02" rms="-nan" purity="1.0459772348403931e+00" nType="-99"/>
      </Node>
    </BinaryTree>
    <BinaryTree type="DecisionTree" boostWeight="1.0000000000000000e+00" itree="58">
      <Node pos="s" depth="0" NCoef="0" IVar="3" Cut="2.4716261774301529e-02" cType="1" res="1.7494089901447296e-02" rms="3.8471624255180359e-01" purity="5.2231621742248535e-01" nType="0">
        <Node pos="l" depth="1" NCoef="0" IVar="-1" Cut="0.0000000000000000e+00" cType="1" res="6.6892974078655243e-02" rms="9.9565461277961731e-02" purity="8.8576406240463257e-01" nType="-99"/>
        <Node pos="r" depth="1" NCoef="0" IVar="2" Cut="7.3815330862998962e-02" cType="1" res="7.3324623517692089e-03" rms="3.9230984449386597e-01" purity="5.0171953439712524e-01" nType="0">
          <Node pos="l" depth="2" NCoef="0" IVar="-1" Cut="0.0000000000000000e+00" cType="1" res="6.0475785285234451e-03" rms="3.8697820901870728e-01" purity="5.3093808889389038e-01" nType="-99"/>
          <Node pos="r" depth="2" NCoef="0" IVar="-1" Cut="0.0000000000000000e+00" cType="1" res="-2.7222523465752602e-02" rms="4.2024651169776917e-01" purity="2.5894778966903687e-01" nType="-99"/>
        </Node>
      </Node>
    </BinaryTree>
    <BinaryTree type="DecisionTree" boostWeight="1.0000000000000000e+00" itree="59">
      <Node pos="s" depth="0" NCoef="0" IVar="2" Cut="2.9602369293570518e-02" cType="1" res="1.0967691428959370e-02" rms="3.9479252696037292e-01" purity="5.3753519058227539e-01" nType="0">
        <Node pos="l" depth="1" NCoef="0" IVar="3" Cut="2.4687653407454491e-02" cType="1" res="4.4203922152519226e-02" rms="3.7472131848335266e-01" purity="6.4050811529159546e-01" nType="0">
          <Node pos="l" depth="2" NCoef="0" IVar="-1" Cut="0.0000000000000000e+00" cType="1" res="1.3628572225570679e-01" rms="-nan" purity="1.1536883115768433e+00" nType="-99"/>
          <Node pos="r" depth="2" NCoef="0" IVar="-1" Cut="0.0000000000000000e+00" cType="1" res="9.2727355659008026e-03" rms="3.9103245735168457e-01" purity="6.1185652017593384e-01" nType="-99"/>
        </Node>
        <Node pos="r" depth="1" NCoef="0" IVar="1" Cut="4.5901455879211426e+00" cType="1" res="-4.5392960309982300e-02" rms="4.2071667313575745e-01" purity="3.6291798949241638e-01" nType="0">
          <Node pos="l" depth="2" NCoef="0" IVar="-1" Cut="0.0000000000000000e+00" cType="1" res="-1.2721203966066241e-03" rms="4.3934163451194763e-01" purity="3.2848525047302246e-01" nType="-99"/>
          <Node pos="r" depth="2" NCoef="0" IVar="-1" Cut="0.0000000000000000e+00" cType="1" res="-4.4868577271699905e-02" rms="3.3110308647155762e-01" purity="4.6549719572067261e-01" nType="-99"/>
        </Node>
      </Node>
    </BinaryTree>
    <BinaryTree type="DecisionTree" boostWeight="1.0000000000000000e+00" itree="60">
      <Node pos="s" depth="0" NCoef="0" IVar="3" Cut="5.5557805299758911e-01" cType="1" res="8.3986697718501091e-03" rms="3.8670149445533752e-01" purity="5.3095984458923340e-01" nType="0">
        <Node pos="l" depth="1" NCoef="0" IVar="3" Cut="2.8807902336120605e-01" cType="1" res="2.3551708087325096e-02" rms="3.9388483762741089e-01" purity="5.9841227531433105e-01" nType="0">
          <Node pos="l" depth="2" NCoef="0" IVar="-1" Cut="0.0000000000000000e+00" cType="1" res="-1.4098212122917175e-03" rms="3.9405998587608337e-01" purity="6.3414376974105835e-01" nType="-99"/>
          <Node pos="r" depth="2" NCoef="0" IVar="-1" Cut="0.0000000000000000e+00" cType="1" res="3.3886324614286423e-02" rms="3.7864404916763306e-01" purity="4.7937542200088501e-01" nType="-99"/>
        </Node>
        <Node pos="r" depth="1" NCoef="0" IVar="1" Cut="2.9266431331634521e+00" cType="1" res="-8.1387408077716827e-02" rms="3.2694283127784729e-01" purity="1.3128490746021271e-01" nType="0">
          <Node pos="l" depth="2" NCoef="0" IVar="-1" Cut="0.0000000000000000e+00" cType="1" res="-4.8259519971907139e-03" rms="3.0854585766792297e-01" purity="1.3877005875110626e-01" nType="-99"/>
          <Node pos="r" depth="2" NCoef="0" IVar="-1" Cut="0.0000000000000000e+00" cType="1" res="-4.8025850206613541e-02" rms="3.2554057240486145e-01" purity="1.1975023895502090e-01" nType="-99"/>
        </Node>
      </Node>
    </BinaryTree>
    <BinaryTree type="DecisionTree" boostWeight="1.0000000000000000e+00" itree="61">
      <Node pos="s" depth="0" NCoef="0" IVar="3" Cut="1.3578467071056366e-01" cType="1" res="-1.4659483917057514e-02" rms="3.7886157631874084e-01" purity="4.7998467087745667e-01" nType="0">
        <Node pos="l" depth="1" NCoef="0" IVar="2" Cut="5.5414787493646145e-03" cType="1" res="7.4886515736579895e-02" rms="3.1303012371063232e-01" purity="7.2893756628036499e-01" nType="0">
          <Node pos="l" depth="2" NCoef="0" IVar="-1" Cut="0.0000000000000000e+00" cType="1" res="1.2416876852512360e-01" rms="-nan" purity="1.0979703664779663e+00" nType="-99"/>
          <Node pos="r" depth="2" NCoef="0" IVar="-1" Cut="0.0000000000000000e+00" cType="1" res="1.4895283617079258e-02" rms="3.7180209159851074e-01" purity="6.7345762252807617e-01" nType="-99"/>
        </Node>
        <Node pos="r" depth="1" NCoef="0" IVar="0" Cut="2.2932912597656250e+03" cType="1" res="-5.8165457099676132e-02" rms="3.9984643459320068e-01" purity="3.5903069376945496e-01" nType="0">
          <Node pos="l" depth="2" NCoef="0" IVar="-1" Cut="0.0000000000000000e+00" cType="1" res="-1.8748451024293900e-02" rms="4.1090834140777588e-01" purity="3.2869237661361694e-01" nType="-99"/>
          <Node pos="r" depth="2" NCoef="0" IVar="-1" Cut="0.0000000000000000e+00" cType="1" res="6.1111260205507278e-02" rms="-nan" purity="9.8831468820571899e-01" nType="-99"/>
        </Node>
      </Node>
    </BinaryTree>
    <BinaryTree type="DecisionTree" boostWeight="1.0000000000000000e+00" itree="62">
      <Node pos="s" depth="0" NCoef="0" IVar="2" Cut="1.8501481041312218e-02" cType="1" res="-1.2752867303788662e-02" rms="3.8464561104774475e-01" purity="5.0134378671646118e-01" nType="0">
        <Node pos="l" depth="1" NCoef="0" IVar="2" Cut="1.3245612382888794e-02" cType="1" res="2.7964118868112564e-02" rms="3.5516205430030823e-01" purity="6.7462128400802612e-01" nType="0">
          <Node pos="l" depth="2" NCoef="0" IVar="-1" Cut="0.0000000000000000e+00" cType="1" res="8.7010965216904879e-04" rms="3.5747835040092468e-01" purity="6.6872549057006836e-01" nType="-99"/>
          <Node pos="r" depth="2" NCoef="0" IVar="-1" Cut="0.0000000000000000e+00" cType="1" res="4.3409340083599091e-02" rms="3.2584822177886963e-01" purity="6.9856780767440796e-01" nType="-99"/>
        </Node>
        <Node pos="r" depth="1" NCoef="0" IVar="1" Cut="5.2101769447326660e+00" cType="1" res="-5.0781846046447754e-02" rms="4.0660771727561951e-01" purity="3.3950561285018921e-01" nType="0">
          <Node pos="l" depth="2" NCoef="0" IVar="-1" Cut="0.0000000000000000e+00" cType="1" res="-9.5321079716086388e-03" rms="3.9764979481697083e-01" purity="3.0939003825187683e-01" nType="-99"/>
          <Node pos="r" depth="2" NCoef="0" IVar="-1" Cut="0.0000000000000000e+00" cType="1" res="-1.0144688189029694e-01" rms="4.5169627666473389e-01" purity="6.3509303331375122e-01" nType="-99"/>
        </Node>
      </Node>
    </BinaryTree>
    <BinaryTree type="DecisionTree" boostWeight="1.0000000000000000e+00" itree="63">
      <Node pos="s" depth="0" NCoef="0" IVar="2" Cut="2.5902073830366135e-02" cType="1" res="-1.8178470432758331e-02" rms="4.0125280618667603e-01" purity="4.9632507562637329e-01" nType="0">
        <Node pos="l" depth="1" NCoef="0" IVar="0" Cut="5.6418841552734375e+02" cType="1" res="-4.9957536160945892e-02" rms="4.0157684683799744e-01" purity="5.4874682426452637e-01" nType="0">
          <Node pos="l" depth="2" NCoef="0" IVar="-1" Cut="0.0000000000000000e+00" cType="1" res="-4.2631998658180237e-02" rms="3.9885160326957703e-01" purity="1.5207606554031372e-01" nType="-99"/>
          <Node pos="r" depth="2" NCoef="0" IVar="-1" Cut="0.0000000000000000e+00" cType="1" res="-1.2029781937599182e-02" rms="4.0001279115676880e-01" purity="5.9698605537414551e-01" nType="-99"/>
        </Node>
        <Node pos="r" depth="1" NCoef="0" IVar="2" Cut="6.8752609193325043e-02" cType="1" res="3.8106288760900497e-02" rms="3.9444440603256226e-01" purity="4.0347960591316223e-01" nType="0">
          <Node pos="l" depth="2" NCoef="0" IVar="-1" Cut="0.0000000000000000e+00" cType="1" res="2.3769430816173553e-02" rms="3.7886011600494385e-01" purity="4.4967973232269287e-01" nType="-99"/>
          <Node pos="r" depth="2" NCoef="0" IVar="-1" Cut="0.0000000000000000e+00" cType="1" res="-1.6072150319814682e-02" rms="4.1157293319702148e-01" purity="3.0151608586311340e-01" nType="-99"/>
        </Node>
      </Node>
    </BinaryTree>
    <BinaryTree type="DecisionTree" boostWeight="1.0000000000000000e+00" itree="64">
      <Node pos="s" depth="0" NCoef="0" IVar="0" Cut="1.2686250000000000e+03" cType="1" res="9.6497386693954468e-03" rms="3.7476009130477905e-01" purity="5.2199339866638184e-01" nType="0">
        <Node pos="l" depth="1" NCoef="0" IVar="2" Cut="6.1019439250230789e-02" cType="1" res="-1.8852576613426208e-02" rms="4.2010027170181274e-01" purity="3.6136558651924133e-01" nType="0">
          <Node pos="l" depth="2" NCoef="0" IVar="-1" Cut="0.0000000000000000e+00" cType="1" res="-7.8809950500726700e-03" rms="4.2230045795440674e-01" purity="3.7380617856979370e-01" nType="-99"/>
          <Node pos="r" depth="2" NCoef="0" IVar="-1" Cut="0.0000000000000000e+00" cType="1" res="1.4070733450353146e-02" rms="4.0062451362609863e-01" purity="2.8748819231987000e-01" nType="-99"/>
        </Node>
        <Node pos="r" depth="1" NCoef="0" IVar="0" Cut="1.4500905761718750e+03" cType="1" res="7.4184618890285492e-02" rms="2.2987248003482819e-01" purity="8.8568663597106934e-01" nType="0">
          <Node pos="l" depth="2" NCoef="0" IVar="-1" Cut="0.0000000000000000e+00" cType="1" res="1.2501892447471619e-01" rms="-nan" purity="1.1001340150833130e+00" nType="-99"/>
          <Node pos="r" depth="2" NCoef="0" IVar="-1" Cut="0.0000000000000000e+00" cType="1" res="6.3715418800711632e-03" rms="2.8570634126663208e-01" purity="8.5193383693695068e-01" nType="-99"/>
        </Node>
      </Node>
    </BinaryTree>
    <BinaryTree type="DecisionTree" boostWeight="1.0000000000000000e+00" itree="65">
      <Node pos="s" depth="0" NCoef="0" IVar="2" Cut="5.5504459887742996e-03" cType="1" res="1.7879014834761620e-02" rms="3.6584687232971191e-01" purity="5.1743012666702271e-01" nType="0">
        <Node pos="l" depth="1" NCoef="0" IVar="3" Cut="2.0937368273735046e-01" cType="1" res="6.4119018614292145e-02" rms="-nan" purity="8.9010626077651978e-01" nType="-99"/>
        <Node pos="r" depth="1" NCoef="0" IVar="1" Cut="5.8384070396423340e+00" cType="1" res="-2.2084577940404415e-03" rms="3.8687980175018311e-01" purity="4.6859166026115417e-01" nType="0">
          <Node pos="l" depth="2" NCoef="0" IVar="-1" Cut="0.0000000000000000e+00" cType="1" res="-2.5470687542110682e-03" rms="3.9943274855613708e-01" purity="4.4101732969284058e-01" nType="-99"/>
          <Node pos="r" depth="2" NCoef="0" IVar="-1" Cut="0.0000000000000000e+00" cType="1" res="1.0163740813732147e-01" rms="-nan" purity="1.0587401390075684e+00" nType="-99"/>
        </Node>
      </Node>
    </BinaryTree>
    <BinaryTree type="DecisionTree" boostWeight="1.0000000000000000e+00" itree="66">
      <Node pos="s" depth="0" NCoef="0" IVar="1" Cut="5.8773875236511230e+00" cType="1" res="-1.5148270875215530e-02" rms="3.9795875549316406e-01" purity="4.9114975333213806e-01" nType="0">
        <Node pos="l" depth="1" NCoef="0" IVar="0" Cut="5.5113183593750000e+02" cType="1" res="-2.2522168233990669e-02" rms="4.0963926911354065e-01" purity="4.7031694650650024e-01" nType="0">
          <Node pos="l" depth="2" NCoef="0" IVar="-1" Cut="0.0000000000000000e+00" cType="1" res="-3.5209309309720993e-02" rms="3.4822705388069153e-01" purity="1.2913565337657928e-01" nType="-99"/>
          <Node pos="r" depth="2" NCoef="0" IVar="-1" Cut="0.0000000000000000e+00" cType="1" res="-3.1134947203099728e-03" rms="4.1561710834503174e-01" purity="5.1559245586395264e-01" nType="-99"/>
        </Node>
        <Node pos="r" depth="1" NCoef="0" IVar="-1" Cut="0.0000000000000000e+00" cType="1" res="2.2040566802024841e-01" rms="-nan" purity="1.1673513650894165e+00" nType="-99"/>
      </Node>
    </BinaryTree>
    <BinaryTree type="DecisionTree" boostWeight="1.0000000000000000e+00" itree="67">
      <Node pos="s" depth="0" NCoef="0" IVar="3" Cut="5.3016304969787598e-01" cType="1" res="-3.7659395020455122e-03" rms="3.8275113701820374e-01" purity="5.0269085168838501e-01" nType="0">
        <Node pos="l" depth="1" NCoef="0" IVar="3" Cut="4.6438184380531311e-01" cType="1" res="1.3739874586462975e-02" rms="3.9266291260719299e-01" purity="5.8342021703720093e-01" nType="0">
          <Node pos="l" depth="2" NCoef="0" IVar="-1" Cut="0.0000000000000000e+00" cType="1" res="1.4206748455762863e-03" rms="3.8630312681198120e-01" purity="5.8999687433242798e-01" nType="-99"/>
          <Node pos="r" depth="2" NCoef="0" IVar="-1" Cut="0.0000000000000000e+00" cType="1" res="6.6458597779273987e-02" rms="4.6729198098182678e-01" purity="4.4483223557472229e-01" nType="-99"/>
        </Node>
        <Node pos="r" depth="1" NCoef="0" IVar="0" Cut="7.7973681640625000e+02" cType="1" res="-8.5844427347183228e-02" rms="3.1982666254043579e-01" purity="1.2417966127395630e-01" nType="0">
