<?xml version="1.0"?>
<MethodSetup Method="BDT::BDT-0.4.6_fold5">
  <GeneralInfo>
    <Info name="TMVA Release" value="4.2.1 [262657]"/>
    <Info name="ROOT Release" value="6.32/00 [401408]"/>
    <Info name="Creator" value="abennett"/>
    <Info name="Date" value="Thu Aug 22 15:59:58 2024"/>
    <Info name="Host" value="Linux 6772f6b99311 6.5.0-1022-azure #23~22.04.1-Ubuntu SMP Thu May 9 17:59:24 UTC 2024 x86_64 x86_64 x86_64 GNU/Linux"/>
    <Info name="Dir" value="/gluster/home/abennett/BDT_training"/>
    <Info name="Training events" value="17760"/>
    <Info name="TrainingTime" value="8.08732033e-01"/>
    <Info name="AnalysisType" value="Classification"/>
  </GeneralInfo>
  <Options>
    <Option name="V" modified="Yes">False</Option>
    <Option name="VerbosityLevel" modified="No">Default</Option>
    <Option name="VarTransform" modified="No">None</Option>
    <Option name="H" modified="Yes">False</Option>
    <Option name="CreateMVAPdfs" modified="No">False</Option>
    <Option name="IgnoreNegWeightsInTraining" modified="No">False</Option>
    <Option name="NTrees" modified="Yes">125</Option>
    <Option name="MaxDepth" modified="Yes">2</Option>
    <Option name="MinNodeSize" modified="Yes">3%</Option>
    <Option name="nCuts" modified="Yes">80</Option>
    <Option name="BoostType" modified="Yes">Grad</Option>
    <Option name="AdaBoostR2Loss" modified="No">quadratic</Option>
    <Option name="UseBaggedBoost" modified="Yes">True</Option>
    <Option name="Shrinkage" modified="Yes">1.000000e-01</Option>
    <Option name="AdaBoostBeta" modified="No">5.000000e-01</Option>
    <Option name="UseRandomisedTrees" modified="No">False</Option>
    <Option name="UseNvars" modified="Yes">2</Option>
    <Option name="UsePoissonNvars" modified="No">True</Option>
    <Option name="BaggedSampleFraction" modified="Yes">5.000000e-01</Option>
    <Option name="UseYesNoLeaf" modified="No">True</Option>
    <Option name="NegWeightTreatment" modified="No">pray</Option>
    <Option name="Css" modified="No">1.000000e+00</Option>
    <Option name="Cts_sb" modified="No">1.000000e+00</Option>
    <Option name="Ctb_ss" modified="No">1.000000e+00</Option>
    <Option name="Cbb" modified="No">1.000000e+00</Option>
    <Option name="NodePurityLimit" modified="No">5.000000e-01</Option>
    <Option name="SeparationType" modified="Yes">sdivsqrtsplusb</Option>
    <Option name="RegressionLossFunctionBDTG" modified="No">huber</Option>
    <Option name="HuberQuantile" modified="No">7.000000e-01</Option>
    <Option name="DoBoostMonitor" modified="No">False</Option>
    <Option name="UseFisherCuts" modified="No">False</Option>
    <Option name="MinLinCorrForFisher" modified="No">8.000000e-01</Option>
    <Option name="UseExclusiveVars" modified="No">False</Option>
    <Option name="DoPreselection" modified="No">False</Option>
    <Option name="SigToBkgFraction" modified="No">1.000000e+00</Option>
    <Option name="PruneMethod" modified="No">nopruning</Option>
    <Option name="PruneStrength" modified="No">0.000000e+00</Option>
    <Option name="PruningValFraction" modified="No">5.000000e-01</Option>
    <Option name="SkipNormalization" modified="No">False</Option>
    <Option name="nEventsMin" modified="No">0</Option>
    <Option name="UseBaggedGrad" modified="No">False</Option>
    <Option name="GradBaggingFraction" modified="No">5.000000e-01</Option>
    <Option name="UseNTrainEvents" modified="No">0</Option>
    <Option name="NNodesMax" modified="No">0</Option>
  </Options>
  <Variables NVar="4">
    <Variable VarIndex="0" Expression="mjj" Label="mjj" Title="m_{jj}" Unit="GeV" Internal="mjj" Type="D" Min="5.00083496e+02" Max="7.10228711e+03"/>
    <Variable VarIndex="1" Expression="JetGap" Label="JetGap" Title="#Delta y_{jj}" Unit="" Internal="JetGap" Type="D" Min="2.04434600e-02" Max="8.30311966e+00"/>
    <Variable VarIndex="2" Expression="PtBalance" Label="PtBalance" Title="pT_{balance}" Unit="" Internal="PtBalance" Type="D" Min="1.21698218e-09" Max="1.49861991e-01"/>
    <Variable VarIndex="3" Expression="centrality" Label="centrality" Title="#xi(Z)" Unit="" Internal="centrality" Type="D" Min="5.42057251e-06" Max="9.99970436e-01"/>
  </Variables>
  <Spectators NSpec="1">
    <Spectator SpecIndex="0" Expression="eventNumber" Label="eventNumber" Title="I" Unit="" Internal="eventNumber" Type="F" Min="7.03000000e+02" Max="6.84984192e+08"/>
  </Spectators>
  <Classes NClass="2">
    <Class Name="Signal" Index="0"/>
    <Class Name="Background" Index="1"/>
  </Classes>
  <Transformations NTransformations="0"/>
  <MVAPdfs/>
  <Weights NTrees="125" AnalysisType="1">
    <BinaryTree type="DecisionTree" boostWeight="1.0000000000000000e+00" itree="0">
      <Node pos="s" depth="0" NCoef="0" IVar="0" Cut="9.0766973876953125e+02" cType="1" res="2.4170659482479095e-02" rms="4.9941542744636536e-01" purity="5.2417063713073730e-01" nType="0">
        <Node pos="l" depth="1" NCoef="0" IVar="1" Cut="2.5838611125946045e+00" cType="1" res="-2.0084658265113831e-01" rms="4.5788717269897461e-01" purity="2.9915344715118408e-01" nType="0">
          <Node pos="l" depth="2" NCoef="0" IVar="-1" Cut="0.0000000000000000e+00" cType="1" res="-6.5260350704193115e-02" rms="3.7884980440139771e-01" purity="1.7369826138019562e-01" nType="-99"/>
          <Node pos="r" depth="2" NCoef="0" IVar="-1" Cut="0.0000000000000000e+00" cType="1" res="-2.2231336683034897e-02" rms="4.8748764395713806e-01" purity="3.8884332776069641e-01" nType="-99"/>
        </Node>
        <Node pos="r" depth="1" NCoef="0" IVar="3" Cut="3.3215051889419556e-01" cType="1" res="2.4606144428253174e-01" rms="4.3526285886764526e-01" purity="7.4606144428253174e-01" nType="0">
          <Node pos="l" depth="2" NCoef="0" IVar="-1" Cut="0.0000000000000000e+00" cType="1" res="6.7455157637596130e-02" rms="3.6911386251449585e-01" purity="8.3727580308914185e-01" nType="-99"/>
          <Node pos="r" depth="2" NCoef="0" IVar="-1" Cut="0.0000000000000000e+00" cType="1" res="-1.4500201679766178e-02" rms="4.9471569061279297e-01" purity="4.2749902606010437e-01" nType="-99"/>
        </Node>
      </Node>
    </BinaryTree>
    <BinaryTree type="DecisionTree" boostWeight="1.0000000000000000e+00" itree="1">
      <Node pos="s" depth="0" NCoef="0" IVar="1" Cut="3.8020517826080322e+00" cType="1" res="-9.0647935867309570e-03" rms="4.8817488551139832e-01" purity="4.9415159225463867e-01" nType="0">
        <Node pos="l" depth="1" NCoef="0" IVar="0" Cut="7.1666717529296875e+02" cType="1" res="-1.7147532105445862e-01" rms="4.6064728498458862e-01" purity="3.1847316026687622e-01" nType="0">
          <Node pos="l" depth="2" NCoef="0" IVar="-1" Cut="0.0000000000000000e+00" cType="1" res="-5.3521282970905304e-02" rms="4.0784326195716858e-01" purity="2.1173146367073059e-01" nType="-99"/>
          <Node pos="r" depth="2" NCoef="0" IVar="-1" Cut="0.0000000000000000e+00" cType="1" res="-1.2030608952045441e-02" rms="4.9258342385292053e-01" purity="4.4303897023200989e-01" nType="-99"/>
        </Node>
        <Node pos="r" depth="1" NCoef="0" IVar="2" Cut="1.6431633383035660e-02" cType="1" res="2.5918927788734436e-01" rms="4.0734228491783142e-01" purity="7.8432029485702515e-01" nType="0">
          <Node pos="l" depth="2" NCoef="0" IVar="-1" Cut="0.0000000000000000e+00" cType="1" res="7.7884607017040253e-02" rms="2.7634438872337341e-01" purity="9.1542196273803711e-01" nType="-99"/>
          <Node pos="r" depth="2" NCoef="0" IVar="-1" Cut="0.0000000000000000e+00" cType="1" res="2.5170216336846352e-02" rms="4.7319146990776062e-01" purity="6.4804828166961670e-01" nType="-99"/>
        </Node>
      </Node>
    </BinaryTree>
    <BinaryTree type="DecisionTree" boostWeight="1.0000000000000000e+00" itree="2">
      <Node pos="s" depth="0" NCoef="0" IVar="1" Cut="4.1341953277587891e+00" cType="1" res="8.0050555989146233e-03" rms="4.7808870673179626e-01" purity="5.1118761301040649e-01" nType="0">
        <Node pos="l" depth="1" NCoef="0" IVar="1" Cut="2.5586178302764893e+00" cType="1" res="-1.0522058606147766e-01" rms="4.7413405776023865e-01" purity="3.7720271944999695e-01" nType="0">
          <Node pos="l" depth="2" NCoef="0" IVar="-1" Cut="0.0000000000000000e+00" cType="1" res="-5.5696222931146622e-02" rms="3.8364833593368530e-01" purity="1.8246200680732727e-01" nType="-99"/>
          <Node pos="r" depth="2" NCoef="0" IVar="-1" Cut="0.0000000000000000e+00" cType="1" res="-1.8551342654973269e-03" rms="4.9285733699798584e-01" purity="4.8681458830833435e-01" nType="-99"/>
        </Node>
        <Node pos="r" depth="1" NCoef="0" IVar="0" Cut="1.3031265869140625e+03" cType="1" res="2.9095599055290222e-01" rms="3.5479679703712463e-01" purity="8.4601598978042603e-01" nType="0">
          <Node pos="l" depth="2" NCoef="0" IVar="-1" Cut="0.0000000000000000e+00" cType="1" res="1.8703969195485115e-02" rms="4.6928530931472778e-01" purity="6.3140153884887695e-01" nType="-99"/>
          <Node pos="r" depth="2" NCoef="0" IVar="-1" Cut="0.0000000000000000e+00" cType="1" res="7.1157179772853851e-02" rms="2.8701180219650269e-01" purity="9.1022264957427979e-01" nType="-99"/>
        </Node>
      </Node>
    </BinaryTree>
    <BinaryTree type="DecisionTree" boostWeight="1.0000000000000000e+00" itree="3">
      <Node pos="s" depth="0" NCoef="0" IVar="0" Cut="1.3151704101562500e+03" cType="1" res="-1.5260053798556328e-02" rms="4.7103923559188843e-01" purity="4.9262601137161255e-01" nType="0">
        <Node pos="l" depth="1" NCoef="0" IVar="3" Cut="4.0736284852027893e-01" cType="1" res="-1.2297064065933228e-01" rms="4.6665570139884949e-01" purity="3.5661202669143677e-01" nType="0">
          <Node pos="l" depth="2" NCoef="0" IVar="-1" Cut="0.0000000000000000e+00" cType="1" res="-8.2032540813088417e-03" rms="4.8659718036651611e-01" purity="4.4836923480033875e-01" nType="-99"/>
          <Node pos="r" depth="2" NCoef="0" IVar="-1" Cut="0.0000000000000000e+00" cType="1" res="-6.4169481396675110e-02" rms="3.4555196762084961e-01" purity="1.4062631130218506e-01" nType="-99"/>
        </Node>
        <Node pos="r" depth="1" NCoef="0" IVar="3" Cut="4.0345570445060730e-01" cType="1" res="2.3749388754367828e-01" rms="3.7471938133239746e-01" purity="8.1179672479629517e-01" nType="0">
          <Node pos="l" depth="2" NCoef="0" IVar="-1" Cut="0.0000000000000000e+00" cType="1" res="5.9518139809370041e-02" rms="3.2838016748428345e-01" purity="8.7132096290588379e-01" nType="-99"/>
          <Node pos="r" depth="2" NCoef="0" IVar="-1" Cut="0.0000000000000000e+00" cType="1" res="-3.2744031399488449e-02" rms="4.6568766236305237e-01" purity="3.4208437800407410e-01" nType="-99"/>
        </Node>
      </Node>
    </BinaryTree>
    <BinaryTree type="DecisionTree" boostWeight="1.0000000000000000e+00" itree="4">
      <Node pos="s" depth="0" NCoef="0" IVar="1" Cut="3.7141246795654297e+00" cType="1" res="4.4114069896750152e-04" rms="4.5841416716575623e-01" purity="5.0432717800140381e-01" nType="0">
        <Node pos="l" depth="1" NCoef="0" IVar="3" Cut="5.8022218942642212e-01" cType="1" res="-1.4437468349933624e-01" rms="4.4790557026863098e-01" purity="3.0643600225448608e-01" nType="0">
          <Node pos="l" depth="2" NCoef="0" IVar="-1" Cut="0.0000000000000000e+00" cType="1" res="-1.9260348752140999e-02" rms="4.7252926230430603e-01" purity="3.6732345819473267e-01" nType="-99"/>
          <Node pos="r" depth="2" NCoef="0" IVar="-1" Cut="0.0000000000000000e+00" cType="1" res="-6.5967902541160583e-02" rms="2.8632593154907227e-01" purity="9.2064321041107178e-02" nType="-99"/>
        </Node>
        <Node pos="r" depth="1" NCoef="0" IVar="2" Cut="1.6517730429768562e-02" cType="1" res="2.2869677841663361e-01" rms="3.7416523694992065e-01" purity="8.1623911857604980e-01" nType="0">
          <Node pos="l" depth="2" NCoef="0" IVar="-1" Cut="0.0000000000000000e+00" cType="1" res="6.9084174931049347e-02" rms="2.5062152743339539e-01" purity="9.3661415576934814e-01" nType="-99"/>
          <Node pos="r" depth="2" NCoef="0" IVar="-1" Cut="0.0000000000000000e+00" cType="1" res="2.4034122005105019e-02" rms="4.5177760720252991e-01" purity="6.7973017692565918e-01" nType="-99"/>
        </Node>
      </Node>
    </BinaryTree>
    <BinaryTree type="DecisionTree" boostWeight="1.0000000000000000e+00" itree="5">
      <Node pos="s" depth="0" NCoef="0" IVar="0" Cut="1.2344560546875000e+03" cType="1" res="-3.2223049551248550e-02" rms="4.5286995172500610e-01" purity="4.7317913174629211e-01" nType="0">
        <Node pos="l" depth="1" NCoef="0" IVar="2" Cut="7.4005946516990662e-03" cType="1" res="-1.4327836036682129e-01" rms="4.4909435510635376e-01" purity="3.1510135531425476e-01" nType="0">
          <Node pos="l" depth="2" NCoef="0" IVar="-1" Cut="0.0000000000000000e+00" cType="1" res="1.1727304197847843e-02" rms="4.7036594152450562e-01" purity="5.1525461673736572e-01" nType="-99"/>
          <Node pos="r" depth="2" NCoef="0" IVar="-1" Cut="0.0000000000000000e+00" cType="1" res="-3.6804366856813431e-02" rms="4.3552756309509277e-01" purity="2.7918046712875366e-01" nType="-99"/>
        </Node>
        <Node pos="r" depth="1" NCoef="0" IVar="3" Cut="3.3342948555946350e-01" cType="1" res="2.1249543130397797e-01" rms="3.5430353879928589e-01" purity="8.2151490449905396e-01" nType="0">
          <Node pos="l" depth="2" NCoef="0" IVar="-1" Cut="0.0000000000000000e+00" cType="1" res="5.8500744402408600e-02" rms="2.8975042700767517e-01" purity="8.9858531951904297e-01" nType="-99"/>
          <Node pos="r" depth="2" NCoef="0" IVar="-1" Cut="0.0000000000000000e+00" cType="1" res="-1.5121170319616795e-02" rms="4.8026353120803833e-01" purity="4.4333928823471069e-01" nType="-99"/>
        </Node>
      </Node>
    </BinaryTree>
    <BinaryTree type="DecisionTree" boostWeight="1.0000000000000000e+00" itree="6">
      <Node pos="s" depth="0" NCoef="0" IVar="0" Cut="1.5596964111328125e+03" cType="1" res="-3.2274839468300343e-03" rms="4.4698274135589600e-01" purity="4.9691534042358398e-01" nType="0">
        <Node pos="l" depth="1" NCoef="0" IVar="2" Cut="1.4792592264711857e-02" cType="1" res="-7.4815854430198669e-02" rms="4.6074411273002625e-01" purity="3.8341510295867920e-01" nType="0">
          <Node pos="l" depth="2" NCoef="0" IVar="-1" Cut="0.0000000000000000e+00" cType="1" res="1.5050480142235756e-02" rms="4.7218349575996399e-01" purity="5.5217766761779785e-01" nType="-99"/>
          <Node pos="r" depth="2" NCoef="0" IVar="-1" Cut="0.0000000000000000e+00" cType="1" res="-3.2704126089811325e-02" rms="4.3265834450721741e-01" purity="2.8856688737869263e-01" nType="-99"/>
        </Node>
        <Node pos="r" depth="1" NCoef="0" IVar="3" Cut="3.2002589106559753e-01" cType="1" res="2.3908855020999908e-01" rms="2.8538987040519714e-01" purity="8.8109701871871948e-01" nType="0">
          <Node pos="l" depth="2" NCoef="0" IVar="-1" Cut="0.0000000000000000e+00" cType="1" res="7.3070660233497620e-02" rms="7.6690010726451874e-02" purity="9.8701077699661255e-01" nType="-99"/>
          <Node pos="r" depth="2" NCoef="0" IVar="-1" Cut="0.0000000000000000e+00" cType="1" res="-3.2055135816335678e-02" rms="4.8745852708816528e-01" purity="3.9850583672523499e-01" nType="-99"/>
        </Node>
      </Node>
    </BinaryTree>
    <BinaryTree type="DecisionTree" boostWeight="1.0000000000000000e+00" itree="7">
      <Node pos="s" depth="0" NCoef="0" IVar="0" Cut="1.6750795898437500e+03" cType="1" res="-2.7197331190109253e-02" rms="4.4443035125732422e-01" purity="4.7792825102806091e-01" nType="0">
        <Node pos="l" depth="1" NCoef="0" IVar="2" Cut="5.5504459887742996e-03" cType="1" res="-8.5934549570083618e-02" rms="4.5564848184585571e-01" purity="3.8079422712326050e-01" nType="0">
          <Node pos="l" depth="2" NCoef="0" IVar="-1" Cut="0.0000000000000000e+00" cType="1" res="3.4396752715110779e-02" rms="4.4683834910392761e-01" purity="6.6926485300064087e-01" nType="-99"/>
          <Node pos="r" depth="2" NCoef="0" IVar="-1" Cut="0.0000000000000000e+00" cType="1" res="-2.4753054603934288e-02" rms="4.4654363393783569e-01" purity="3.4326094388961792e-01" nType="-99"/>
        </Node>
        <Node pos="r" depth="1" NCoef="0" IVar="2" Cut="1.4682427980005741e-02" cType="1" res="2.3039102554321289e-01" rms="2.6787298917770386e-01" purity="9.0390324592590332e-01" nType="0">
          <Node pos="l" depth="2" NCoef="0" IVar="-1" Cut="0.0000000000000000e+00" cType="1" res="7.3416031897068024e-02" rms="-nan" purity="9.9688917398452759e-01" nType="-99"/>
          <Node pos="r" depth="2" NCoef="0" IVar="-1" Cut="0.0000000000000000e+00" cType="1" res="2.8024585917592049e-02" rms="3.9379680156707764e-01" purity="7.7754777669906616e-01" nType="-99"/>
        </Node>
      </Node>
    </BinaryTree>
    <BinaryTree type="DecisionTree" boostWeight="1.0000000000000000e+00" itree="8">
      <Node pos="s" depth="0" NCoef="0" IVar="0" Cut="2.6740791015625000e+03" cType="1" res="-1.8619470298290253e-02" rms="4.4585564732551575e-01" purity="4.7823902964591980e-01" nType="0">
        <Node pos="l" depth="1" NCoef="0" IVar="0" Cut="7.1479290771484375e+02" cType="1" res="-4.0887143462896347e-02" rms="4.5513257384300232e-01" purity="4.4705960154533386e-01" nType="0">
          <Node pos="l" depth="2" NCoef="0" IVar="-1" Cut="0.0000000000000000e+00" cType="1" res="-3.4159589558839798e-02" rms="4.1075637936592102e-01" purity="2.2693319618701935e-01" nType="-99"/>
          <Node pos="r" depth="2" NCoef="0" IVar="-1" Cut="0.0000000000000000e+00" cType="1" res="5.6955465115606785e-03" rms="4.6495535969734192e-01" purity="5.7117462158203125e-01" nType="-99"/>
        </Node>
        <Node pos="r" depth="1" NCoef="0" IVar="-1" Cut="0.0000000000000000e+00" cType="1" res="1.1643442511558533e-01" rms="-nan" purity="1.1713514328002930e+00" nType="-99"/>
      </Node>
    </BinaryTree>
    <BinaryTree type="DecisionTree" boostWeight="1.0000000000000000e+00" itree="9">
      <Node pos="s" depth="0" NCoef="0" IVar="1" Cut="3.0002810955047607e+00" cType="1" res="2.3761890828609467e-02" rms="4.3180531263351440e-01" purity="5.2151906490325928e-01" nType="0">
        <Node pos="l" depth="1" NCoef="0" IVar="1" Cut="2.5617389678955078e+00" cType="1" res="-1.4610069990158081e-01" rms="4.1226261854171753e-01" purity="2.4068230390548706e-01" nType="0">
          <Node pos="l" depth="2" NCoef="0" IVar="-1" Cut="0.0000000000000000e+00" cType="1" res="-4.2636793106794357e-02" rms="3.7488168478012085e-01" purity="1.7478744685649872e-01" nType="-99"/>
          <Node pos="r" depth="2" NCoef="0" IVar="-1" Cut="0.0000000000000000e+00" cType="1" res="-7.5324340723454952e-03" rms="4.6595793962478638e-01" purity="3.8570141792297363e-01" nType="-99"/>
        </Node>
        <Node pos="r" depth="1" NCoef="0" IVar="3" Cut="5.8235818147659302e-01" cType="1" res="1.2110242992639542e-01" rms="4.1218790411949158e-01" purity="6.8245375156402588e-01" nType="0">
          <Node pos="l" depth="2" NCoef="0" IVar="-1" Cut="0.0000000000000000e+00" cType="1" res="3.4515008330345154e-02" rms="4.0132075548171997e-01" purity="7.3467600345611572e-01" nType="-99"/>
          <Node pos="r" depth="2" NCoef="0" IVar="-1" Cut="0.0000000000000000e+00" cType="1" res="-6.1354052275419235e-02" rms="2.9549542069435120e-01" purity="9.8154470324516296e-02" nType="-99"/>
        </Node>
      </Node>
    </BinaryTree>
    <BinaryTree type="DecisionTree" boostWeight="1.0000000000000000e+00" itree="10">
      <Node pos="s" depth="0" NCoef="0" IVar="3" Cut="3.0865103006362915e-01" cType="1" res="-1.3036950491368771e-02" rms="4.3609708547592163e-01" purity="4.8943868279457092e-01" nType="0">
        <Node pos="l" depth="1" NCoef="0" IVar="1" Cut="2.7516939640045166e+00" cType="1" res="6.2930509448051453e-02" rms="4.3840172886848450e-01" purity="6.2479209899902344e-01" nType="0">
          <Node pos="l" depth="2" NCoef="0" IVar="-1" Cut="0.0000000000000000e+00" cType="1" res="-2.4265624582767487e-02" rms="4.4083374738693237e-01" purity="2.7465429902076721e-01" nType="-99"/>
          <Node pos="r" depth="2" NCoef="0" IVar="-1" Cut="0.0000000000000000e+00" cType="1" res="2.3407116532325745e-02" rms="4.2753303050994873e-01" purity="7.0673656463623047e-01" nType="-99"/>
        </Node>
        <Node pos="r" depth="1" NCoef="0" IVar="0" Cut="1.5108449707031250e+03" cType="1" res="-1.5133194625377655e-01" rms="3.9608111977577209e-01" purity="2.4303451180458069e-01" nType="0">
          <Node pos="l" depth="2" NCoef="0" IVar="-1" Cut="0.0000000000000000e+00" cType="1" res="-4.0514670312404633e-02" rms="3.8190299272537231e-01" purity="1.9443614780902863e-01" nType="-99"/>
          <Node pos="r" depth="2" NCoef="0" IVar="-1" Cut="0.0000000000000000e+00" cType="1" res="4.8628438264131546e-02" rms="3.4385755658149719e-01" purity="7.7146548032760620e-01" nType="-99"/>
        </Node>
      </Node>
    </BinaryTree>
    <BinaryTree type="DecisionTree" boostWeight="1.0000000000000000e+00" itree="11">
      <Node pos="s" depth="0" NCoef="0" IVar="0" Cut="7.4466662597656250e+02" cType="1" res="-3.2863202504813671e-03" rms="4.2063507437705994e-01" purity="4.9628412723541260e-01" nType="0">
        <Node pos="l" depth="1" NCoef="0" IVar="3" Cut="1.1126042157411575e-01" cType="1" res="-1.5387973189353943e-01" rms="3.8774797320365906e-01" purity="2.0416913926601410e-01" nType="0">
          <Node pos="l" depth="2" NCoef="0" IVar="-1" Cut="0.0000000000000000e+00" cType="1" res="1.6962090507149696e-02" rms="4.3277239799499512e-01" purity="4.3888342380523682e-01" nType="-99"/>
          <Node pos="r" depth="2" NCoef="0" IVar="-1" Cut="0.0000000000000000e+00" cType="1" res="-4.3196801096200943e-02" rms="3.6484259366989136e-01" purity="1.6354648768901825e-01" nType="-99"/>
        </Node>
        <Node pos="r" depth="1" NCoef="0" IVar="3" Cut="4.4389578700065613e-01" cType="1" res="8.7236031889915466e-02" rms="4.1362798213958740e-01" purity="6.7187571525573730e-01" nType="0">
          <Node pos="l" depth="2" NCoef="0" IVar="-1" Cut="0.0000000000000000e+00" cType="1" res="2.8740663081407547e-02" rms="3.9781171083450317e-01" purity="7.4850219488143921e-01" nType="-99"/>
          <Node pos="r" depth="2" NCoef="0" IVar="-1" Cut="0.0000000000000000e+00" cType="1" res="-2.6019277051091194e-02" rms="4.3288666009902954e-01" purity="2.6648896932601929e-01" nType="-99"/>
        </Node>
      </Node>
    </BinaryTree>
    <BinaryTree type="DecisionTree" boostWeight="1.0000000000000000e+00" itree="12">
      <Node pos="s" depth="0" NCoef="0" IVar="3" Cut="2.5925770401954651e-01" cType="1" res="-3.0733488965779543e-03" rms="4.2696064710617065e-01" purity="4.9779471755027771e-01" nType="0">
        <Node pos="l" depth="1" NCoef="0" IVar="1" Cut="3.0366899967193604e+00" cType="1" res="8.2508496940135956e-02" rms="4.1642948985099792e-01" purity="6.5741688013076782e-01" nType="0">
          <Node pos="l" depth="2" NCoef="0" IVar="-1" Cut="0.0000000000000000e+00" cType="1" res="-1.3839802704751492e-02" rms="4.6723070740699768e-01" purity="3.2806816697120667e-01" nType="-99"/>
          <Node pos="r" depth="2" NCoef="0" IVar="-1" Cut="0.0000000000000000e+00" cType="1" res="3.1540486961603165e-02" rms="3.8325703144073486e-01" purity="7.7539128065109253e-01" nType="-99"/>
        </Node>
        <Node pos="r" depth="1" NCoef="0" IVar="0" Cut="1.1498870849609375e+03" cType="1" res="-1.1403578519821167e-01" rms="4.1473159193992615e-01" purity="2.9083421826362610e-01" nType="0">
          <Node pos="l" depth="2" NCoef="0" IVar="-1" Cut="0.0000000000000000e+00" cType="1" res="-3.3900819718837738e-02" rms="3.8718923926353455e-01" purity="2.0459391176700592e-01" nType="-99"/>
          <Node pos="r" depth="2" NCoef="0" IVar="-1" Cut="0.0000000000000000e+00" cType="1" res="1.0869185207411647e-03" rms="4.7463861107826233e-01" purity="5.7112580537796021e-01" nType="-99"/>
        </Node>
      </Node>
    </BinaryTree>
    <BinaryTree type="DecisionTree" boostWeight="1.0000000000000000e+00" itree="13">
      <Node pos="s" depth="0" NCoef="0" IVar="1" Cut="3.3731682300567627e+00" cType="1" res="-1.4811354689300060e-02" rms="4.2314890027046204e-01" purity="4.9716380238533020e-01" nType="0">
        <Node pos="l" depth="1" NCoef="0" IVar="2" Cut="4.1602730751037598e-02" cType="1" res="-1.0475330054759979e-01" rms="4.1881766915321350e-01" purity="2.6289796829223633e-01" nType="0">
          <Node pos="l" depth="2" NCoef="0" IVar="-1" Cut="0.0000000000000000e+00" cType="1" res="-1.3186347670853138e-02" rms="4.3902564048767090e-01" purity="3.1818354129791260e-01" nType="-99"/>
          <Node pos="r" depth="2" NCoef="0" IVar="-1" Cut="0.0000000000000000e+00" cType="1" res="-4.8338033258914948e-02" rms="3.4421101212501526e-01" purity="1.3317313790321350e-01" nType="-99"/>
        </Node>
        <Node pos="r" depth="1" NCoef="0" IVar="2" Cut="1.6517728567123413e-02" cType="1" res="6.9807879626750946e-02" rms="4.0952986478805542e-01" purity="7.1756601333618164e-01" nType="0">
          <Node pos="l" depth="2" NCoef="0" IVar="-1" Cut="0.0000000000000000e+00" cType="1" res="3.8464017212390900e-02" rms="3.3919769525527954e-01" purity="8.5533612966537476e-01" nType="-99"/>
          <Node pos="r" depth="2" NCoef="0" IVar="-1" Cut="0.0000000000000000e+00" cType="1" res="-3.2190363854169846e-03" rms="4.5597341656684875e-01" purity="5.7575684785842896e-01" nType="-99"/>
        </Node>
      </Node>
    </BinaryTree>
    <BinaryTree type="DecisionTree" boostWeight="1.0000000000000000e+00" itree="14">
      <Node pos="s" depth="0" NCoef="0" IVar="1" Cut="2.9858460426330566e+00" cType="1" res="-2.1155735477805138e-02" rms="4.3051537871360779e-01" purity="4.9684110283851624e-01" nType="0">
        <Node pos="l" depth="1" NCoef="0" IVar="2" Cut="7.6201651245355606e-03" cType="1" res="-1.1580358445644379e-01" rms="3.9867338538169861e-01" purity="2.1988619863986969e-01" nType="0">
          <Node pos="l" depth="2" NCoef="0" IVar="-1" Cut="0.0000000000000000e+00" cType="1" res="-1.4580235583707690e-03" rms="4.7914522886276245e-01" purity="4.0166968107223511e-01" nType="-99"/>
          <Node pos="r" depth="2" NCoef="0" IVar="-1" Cut="0.0000000000000000e+00" cType="1" res="-3.4918844699859619e-02" rms="3.6602935194969177e-01" purity="1.6709615290164948e-01" nType="-99"/>
        </Node>
        <Node pos="r" depth="1" NCoef="0" IVar="1" Cut="5.8089523315429688e+00" cType="1" res="3.5263162106275558e-02" rms="4.3881559371948242e-01" purity="6.6193193197250366e-01" nType="0">
          <Node pos="l" depth="2" NCoef="0" IVar="-1" Cut="0.0000000000000000e+00" cType="1" res="1.6451846808195114e-02" rms="4.2386591434478760e-01" purity="6.7544090747833252e-01" nType="-99"/>
          <Node pos="r" depth="2" NCoef="0" IVar="-1" Cut="0.0000000000000000e+00" cType="1" res="-5.3886268287897110e-02" rms="4.6153503656387329e-01" purity="5.7961589097976685e-01" nType="-99"/>
        </Node>
      </Node>
    </BinaryTree>
    <BinaryTree type="DecisionTree" boostWeight="1.0000000000000000e+00" itree="15">
      <Node pos="s" depth="0" NCoef="0" IVar="1" Cut="3.2526769638061523e+00" cType="1" res="-9.0437028557062149e-03" rms="4.1863542795181274e-01" purity="4.9430423974990845e-01" nType="0">
        <Node pos="l" depth="1" NCoef="0" IVar="1" Cut="1.5366014242172241e+00" cType="1" res="-9.7383394837379456e-02" rms="4.1409453749656677e-01" purity="2.4904365837574005e-01" nType="0">
          <Node pos="l" depth="2" NCoef="0" IVar="-1" Cut="0.0000000000000000e+00" cType="1" res="-5.1851212978363037e-02" rms="2.7509784698486328e-01" purity="8.0127745866775513e-02" nType="-99"/>
          <Node pos="r" depth="2" NCoef="0" IVar="-1" Cut="0.0000000000000000e+00" cType="1" res="-1.7394082620739937e-02" rms="4.3211376667022705e-01" purity="2.8063791990280151e-01" nType="-99"/>
        </Node>
        <Node pos="r" depth="1" NCoef="0" IVar="2" Cut="3.6907049361616373e-03" cType="1" res="6.9345578551292419e-02" rms="4.0686762332916260e-01" purity="7.1193921566009521e-01" nType="0">
          <Node pos="l" depth="2" NCoef="0" IVar="-1" Cut="0.0000000000000000e+00" cType="1" res="1.6518591344356537e-01" rms="-nan" purity="1.3822106122970581e+00" nType="-99"/>
          <Node pos="r" depth="2" NCoef="0" IVar="-1" Cut="0.0000000000000000e+00" cType="1" res="8.8201761245727539e-03" rms="4.2911350727081299e-01" purity="6.7179203033447266e-01" nType="-99"/>
        </Node>
      </Node>
    </BinaryTree>
    <BinaryTree type="DecisionTree" boostWeight="1.0000000000000000e+00" itree="16">
      <Node pos="s" depth="0" NCoef="0" IVar="0" Cut="1.1521940917968750e+03" cType="1" res="-7.2861127555370331e-03" rms="4.1321557760238647e-01" purity="5.0120306015014648e-01" nType="0">
        <Node pos="l" depth="1" NCoef="0" IVar="3" Cut="1.6060814261436462e-01" cType="1" res="-7.5227767229080200e-02" rms="4.3492510914802551e-01" purity="3.1906121969223022e-01" nType="0">
          <Node pos="l" depth="2" NCoef="0" IVar="-1" Cut="0.0000000000000000e+00" cType="1" res="2.1778570953756571e-03" rms="4.7090038657188416e-01" purity="4.8032820224761963e-01" nType="-99"/>
          <Node pos="r" depth="2" NCoef="0" IVar="-1" Cut="0.0000000000000000e+00" cType="1" res="-2.6105811819434166e-02" rms="4.1239950060844421e-01" purity="2.4759420752525330e-01" nType="-99"/>
        </Node>
        <Node pos="r" depth="1" NCoef="0" IVar="3" Cut="4.1973444819450378e-01" cType="1" res="1.0890065878629684e-01" rms="3.4331661462783813e-01" purity="8.1268322467803955e-01" nType="0">
          <Node pos="l" depth="2" NCoef="0" IVar="-1" Cut="0.0000000000000000e+00" cType="1" res="3.4441102296113968e-02" rms="3.1831747293472290e-01" purity="8.5700529813766479e-01" nType="-99"/>
          <Node pos="r" depth="2" NCoef="0" IVar="-1" Cut="0.0000000000000000e+00" cType="1" res="-1.7347626388072968e-02" rms="4.8806416988372803e-01" purity="3.8318434357643127e-01" nType="-99"/>
        </Node>
      </Node>
    </BinaryTree>
    <BinaryTree type="DecisionTree" boostWeight="1.0000000000000000e+00" itree="17">
      <Node pos="s" depth="0" NCoef="0" IVar="1" Cut="3.6121470928192139e+00" cType="1" res="1.7870049923658371e-02" rms="4.1209763288497925e-01" purity="5.2519530057907104e-01" nType="0">
        <Node pos="l" depth="1" NCoef="0" IVar="3" Cut="2.3461903631687164e-01" cType="1" res="-6.0791984200477600e-02" rms="4.2724066972732544e-01" purity="3.0029734969139099e-01" nType="0">
          <Node pos="l" depth="2" NCoef="0" IVar="-1" Cut="0.0000000000000000e+00" cType="1" res="1.0567231947788969e-04" rms="4.6146017313003540e-01" purity="4.2599803209304810e-01" nType="-99"/>
          <Node pos="r" depth="2" NCoef="0" IVar="-1" Cut="0.0000000000000000e+00" cType="1" res="-2.4095337837934494e-02" rms="3.9881736040115356e-01" purity="2.1960537135601044e-01" nType="-99"/>
        </Node>
        <Node pos="r" depth="1" NCoef="0" IVar="0" Cut="9.0657458496093750e+02" cType="1" res="1.2621629238128662e-01" rms="3.6339560151100159e-01" purity="8.3496171236038208e-01" nType="0">
          <Node pos="l" depth="2" NCoef="0" IVar="-1" Cut="0.0000000000000000e+00" cType="1" res="9.5530852675437927e-02" rms="2.2362749278545380e-01" purity="1.0261709690093994e+00" nType="-99"/>
          <Node pos="r" depth="2" NCoef="0" IVar="-1" Cut="0.0000000000000000e+00" cType="1" res="2.4735502898693085e-02" rms="3.5708314180374146e-01" purity="8.1649792194366455e-01" nType="-99"/>
        </Node>
      </Node>
    </BinaryTree>
    <BinaryTree type="DecisionTree" boostWeight="1.0000000000000000e+00" itree="18">
      <Node pos="s" depth="0" NCoef="0" IVar="0" Cut="7.4168615722656250e+02" cType="1" res="-2.1177545189857483e-02" rms="4.1134861111640930e-01" purity="4.7917142510414124e-01" nType="0">
        <Node pos="l" depth="1" NCoef="0" IVar="2" Cut="2.0351635292172432e-02" cType="1" res="-1.0227485001087189e-01" rms="4.0023270249366760e-01" purity="2.1735699474811554e-01" nType="0">
          <Node pos="l" depth="2" NCoef="0" IVar="-1" Cut="0.0000000000000000e+00" cType="1" res="-1.0400559753179550e-02" rms="4.5275899767875671e-01" purity="3.0888885259628296e-01" nType="-99"/>
          <Node pos="r" depth="2" NCoef="0" IVar="-1" Cut="0.0000000000000000e+00" cType="1" res="-3.6454848945140839e-02" rms="3.5074046254158020e-01" purity="1.5007665753364563e-01" nType="-99"/>
        </Node>
        <Node pos="r" depth="1" NCoef="0" IVar="3" Cut="3.7050104141235352e-01" cType="1" res="2.6076069101691246e-02" rms="4.1036474704742432e-01" purity="6.3172495365142822e-01" nType="0">
          <Node pos="l" depth="2" NCoef="0" IVar="-1" Cut="0.0000000000000000e+00" cType="1" res="1.6030194237828255e-02" rms="3.9168679714202881e-01" purity="7.3339104652404785e-01" nType="-99"/>
          <Node pos="r" depth="2" NCoef="0" IVar="-1" Cut="0.0000000000000000e+00" cType="1" res="-2.3170685395598412e-02" rms="4.4424310326576233e-01" purity="2.8964713215827942e-01" nType="-99"/>
        </Node>
      </Node>
    </BinaryTree>
    <BinaryTree type="DecisionTree" boostWeight="1.0000000000000000e+00" itree="19">
      <Node pos="s" depth="0" NCoef="0" IVar="2" Cut="1.8490741029381752e-02" cType="1" res="1.0023121722042561e-02" rms="4.0644460916519165e-01" purity="5.1174473762512207e-01" nType="0">
        <Node pos="l" depth="1" NCoef="0" IVar="1" Cut="2.1986513137817383e+00" cType="1" res="8.1385120749473572e-02" rms="3.8865533471107483e-01" purity="6.6011232137680054e-01" nType="0">
          <Node pos="l" depth="2" NCoef="0" IVar="-1" Cut="0.0000000000000000e+00" cType="1" res="-3.2682295888662338e-02" rms="3.7149006128311157e-01" purity="1.6749958693981171e-01" nType="-99"/>
          <Node pos="r" depth="2" NCoef="0" IVar="-1" Cut="0.0000000000000000e+00" cType="1" res="3.0888963490724564e-02" rms="3.7888741493225098e-01" purity="7.4891799688339233e-01" nType="-99"/>
        </Node>
        <Node pos="r" depth="1" NCoef="0" IVar="0" Cut="1.9674708251953125e+03" cType="1" res="-5.5778592824935913e-02" rms="4.1135606169700623e-01" purity="3.7493744492530823e-01" nType="0">
          <Node pos="l" depth="2" NCoef="0" IVar="-1" Cut="0.0000000000000000e+00" cType="1" res="-1.8762301653623581e-02" rms="4.1979733109474182e-01" purity="3.2787996530532837e-01" nType="-99"/>
          <Node pos="r" depth="2" NCoef="0" IVar="-1" Cut="0.0000000000000000e+00" cType="1" res="7.6847180724143982e-02" rms="-nan" purity="1.0374994277954102e+00" nType="-99"/>
        </Node>
      </Node>
    </BinaryTree>
    <BinaryTree type="DecisionTree" boostWeight="1.0000000000000000e+00" itree="20">
      <Node pos="s" depth="0" NCoef="0" IVar="2" Cut="5.5360556580126286e-03" cType="1" res="-1.2642184272408485e-02" rms="4.1362899541854858e-01" purity="4.9345117807388306e-01" nType="0">
        <Node pos="l" depth="1" NCoef="0" IVar="3" Cut="1.6013151407241821e-01" cType="1" res="1.5092252194881439e-01" rms="3.2129135727882385e-01" purity="7.6686197519302368e-01" nType="0">
          <Node pos="l" depth="2" NCoef="0" IVar="-1" Cut="0.0000000000000000e+00" cType="1" res="8.6191020905971527e-02" rms="-nan" purity="1.0178518295288086e+00" nType="-99"/>
          <Node pos="r" depth="2" NCoef="0" IVar="-1" Cut="0.0000000000000000e+00" cType="1" res="1.7024928703904152e-02" rms="4.3885341286659241e-01" purity="6.1309462785720825e-01" nType="-99"/>
        </Node>
        <Node pos="r" depth="1" NCoef="0" IVar="1" Cut="3.1949038505554199e+00" cType="1" res="-3.8369908928871155e-02" rms="4.2058646678924561e-01" purity="4.5044541358947754e-01" nType="0">
          <Node pos="l" depth="2" NCoef="0" IVar="-1" Cut="0.0000000000000000e+00" cType="1" res="-2.3478806018829346e-02" rms="3.8613122701644897e-01" purity="2.0260018110275269e-01" nType="-99"/>
          <Node pos="r" depth="2" NCoef="0" IVar="-1" Cut="0.0000000000000000e+00" cType="1" res="1.1494518257677555e-03" rms="4.4112396240234375e-01" purity="6.4568841457366943e-01" nType="-99"/>
        </Node>
      </Node>
    </BinaryTree>
    <BinaryTree type="DecisionTree" boostWeight="1.0000000000000000e+00" itree="21">
      <Node pos="s" depth="0" NCoef="0" IVar="0" Cut="2.5935573730468750e+03" cType="1" res="-2.9804099351167679e-02" rms="4.1865697503089905e-01" purity="4.7601631283760071e-01" nType="0">
        <Node pos="l" depth="1" NCoef="0" IVar="0" Cut="2.2820588378906250e+03" cType="1" res="-4.1282720863819122e-02" rms="4.2960697412490845e-01" purity="4.4324135780334473e-01" nType="0">
          <Node pos="l" depth="2" NCoef="0" IVar="-1" Cut="0.0000000000000000e+00" cType="1" res="-8.0634718760848045e-03" rms="4.2520698904991150e-01" purity="4.3751585483551025e-01" nType="-99"/>
          <Node pos="r" depth="2" NCoef="0" IVar="-1" Cut="0.0000000000000000e+00" cType="1" res="-6.8909429013729095e-02" rms="4.7546342015266418e-01" purity="5.5977964401245117e-01" nType="-99"/>
        </Node>
        <Node pos="r" depth="1" NCoef="0" IVar="-1" Cut="0.0000000000000000e+00" cType="1" res="5.7218246161937714e-02" rms="-nan" purity="9.8444676399230957e-01" nType="-99"/>
      </Node>
    </BinaryTree>
    <BinaryTree type="DecisionTree" boostWeight="1.0000000000000000e+00" itree="22">
      <Node pos="s" depth="0" NCoef="0" IVar="0" Cut="2.4493759765625000e+03" cType="1" res="6.2166652642190456e-03" rms="4.1158404946327209e-01" purity="5.1489710807800293e-01" nType="0">
        <Node pos="l" depth="1" NCoef="0" IVar="2" Cut="8.3256661891937256e-02" cType="1" res="-1.0486356914043427e-02" rms="4.2878091335296631e-01" purity="4.7589263319969177e-01" nType="0">
          <Node pos="l" depth="2" NCoef="0" IVar="-1" Cut="0.0000000000000000e+00" cType="1" res="1.8287141574546695e-03" rms="4.2547416687011719e-01" purity="4.9952313303947449e-01" nType="-99"/>
          <Node pos="r" depth="2" NCoef="0" IVar="-1" Cut="0.0000000000000000e+00" cType="1" res="-4.8535156995058060e-02" rms="4.1780602931976318e-01" purity="2.2549116611480713e-01" nType="-99"/>
        </Node>
        <Node pos="r" depth="1" NCoef="0" IVar="1" Cut="5.6782875061035156e+00" cType="1" res="9.7298786044120789e-02" rms="-nan" purity="1.0891783237457275e+00" nType="-99"/>
      </Node>
    </BinaryTree>
    <BinaryTree type="DecisionTree" boostWeight="1.0000000000000000e+00" itree="23">
      <Node pos="s" depth="0" NCoef="0" IVar="0" Cut="2.0162541503906250e+03" cType="1" res="-6.7447652108967304e-03" rms="4.0300050377845764e-01" purity="4.9558630585670471e-01" nType="0">
        <Node pos="l" depth="1" NCoef="0" IVar="2" Cut="9.7803622484207153e-02" cType="1" res="-3.5789296030998230e-02" rms="4.2973807454109192e-01" purity="4.2085164785385132e-01" nType="0">
          <Node pos="l" depth="2" NCoef="0" IVar="-1" Cut="0.0000000000000000e+00" cType="1" res="-4.9764923751354218e-03" rms="4.2902407050132751e-01" purity="4.4148051738739014e-01" nType="-99"/>
          <Node pos="r" depth="2" NCoef="0" IVar="-1" Cut="0.0000000000000000e+00" cType="1" res="-5.7191904634237289e-02" rms="3.8903257250785828e-01" purity="1.6357642412185669e-01" nType="-99"/>
        </Node>
        <Node pos="r" depth="1" NCoef="0" IVar="0" Cut="2.7119545898437500e+03" cType="1" res="7.2455257177352905e-02" rms="-nan" purity="1.0217465162277222e+00" nType="-99"/>
      </Node>
    </BinaryTree>
    <BinaryTree type="DecisionTree" boostWeight="1.0000000000000000e+00" itree="24">
      <Node pos="s" depth="0" NCoef="0" IVar="2" Cut="3.3302664756774902e-02" cType="1" res="3.8393370341509581e-03" rms="3.9638310670852661e-01" purity="5.1895374059677124e-01" nType="0">
        <Node pos="l" depth="1" NCoef="0" IVar="1" Cut="1.7954154014587402e+00" cType="1" res="5.4337516427040100e-02" rms="3.9084568619728088e-01" purity="6.1550122499465942e-01" nType="0">
          <Node pos="l" depth="2" NCoef="0" IVar="-1" Cut="0.0000000000000000e+00" cType="1" res="-4.9842912703752518e-02" rms="2.6091304421424866e-01" purity="7.1026876568794250e-02" nType="-99"/>
          <Node pos="r" depth="2" NCoef="0" IVar="-1" Cut="0.0000000000000000e+00" cType="1" res="2.1045699715614319e-02" rms="3.9390119910240173e-01" purity="6.7300087213516235e-01" nType="-99"/>
        </Node>
        <Node pos="r" depth="1" NCoef="0" IVar="2" Cut="4.3379288166761398e-02" cType="1" res="-1.0752975195646286e-01" rms="3.8562467694282532e-01" purity="3.0602723360061646e-01" nType="0">
          <Node pos="l" depth="2" NCoef="0" IVar="-1" Cut="0.0000000000000000e+00" cType="1" res="-5.2116576582193375e-02" rms="4.1727477312088013e-01" purity="2.6078134775161743e-01" nType="-99"/>
          <Node pos="r" depth="2" NCoef="0" IVar="-1" Cut="0.0000000000000000e+00" cType="1" res="-1.8723040819168091e-02" rms="3.6760732531547546e-01" purity="3.2183101773262024e-01" nType="-99"/>
        </Node>
      </Node>
    </BinaryTree>
    <BinaryTree type="DecisionTree" boostWeight="1.0000000000000000e+00" itree="25">
      <Node pos="s" depth="0" NCoef="0" IVar="0" Cut="2.5378798828125000e+03" cType="1" res="9.3164816498756409e-03" rms="4.1072651743888855e-01" purity="5.0672417879104614e-01" nType="0">
        <Node pos="l" depth="1" NCoef="0" IVar="3" Cut="2.9636678099632263e-01" cType="1" res="-5.8736745268106461e-03" rms="4.3056127429008484e-01" purity="4.7236859798431396e-01" nType="0">
          <Node pos="l" depth="2" NCoef="0" IVar="-1" Cut="0.0000000000000000e+00" cType="1" res="8.3634750917553902e-03" rms="4.3055677413940430e-01" purity="6.0433715581893921e-01" nType="-99"/>
          <Node pos="r" depth="2" NCoef="0" IVar="-1" Cut="0.0000000000000000e+00" cType="1" res="-1.7790285870432854e-02" rms="4.2282825708389282e-01" purity="2.5822249054908752e-01" nType="-99"/>
        </Node>
        <Node pos="r" depth="1" NCoef="0" IVar="-1" Cut="0.0000000000000000e+00" cType="1" res="1.5363635122776031e-01" rms="-nan" purity="1.1943955421447754e+00" nType="-99"/>
      </Node>
    </BinaryTree>
    <BinaryTree type="DecisionTree" boostWeight="1.0000000000000000e+00" itree="26">
      <Node pos="s" depth="0" NCoef="0" IVar="3" Cut="5.9250521659851074e-01" cType="1" res="1.6986347036436200e-03" rms="4.0569981932640076e-01" purity="5.0405919551849365e-01" nType="0">
        <Node pos="l" depth="1" NCoef="0" IVar="2" Cut="4.2034994810819626e-02" cType="1" res="1.9538519904017448e-02" rms="4.1317066550254822e-01" purity="5.5663180351257324e-01" nType="0">
          <Node pos="l" depth="2" NCoef="0" IVar="-1" Cut="0.0000000000000000e+00" cType="1" res="1.2914508581161499e-02" rms="4.0381211042404175e-01" purity="6.1621367931365967e-01" nType="-99"/>
          <Node pos="r" depth="2" NCoef="0" IVar="-1" Cut="0.0000000000000000e+00" cType="1" res="-1.7611159011721611e-02" rms="4.2828729748725891e-01" purity="3.7251645326614380e-01" nType="-99"/>
        </Node>
        <Node pos="r" depth="1" NCoef="0" IVar="1" Cut="2.5194380283355713e+00" cType="1" res="-1.3245037198066711e-01" rms="3.1337019801139832e-01" purity="1.0873340815305710e-01" nType="0">
          <Node pos="l" depth="2" NCoef="0" IVar="-1" Cut="0.0000000000000000e+00" cType="1" res="-1.8791228532791138e-02" rms="3.3923286199569702e-01" purity="1.3886769115924835e-01" nType="-99"/>
          <Node pos="r" depth="2" NCoef="0" IVar="-1" Cut="0.0000000000000000e+00" cType="1" res="-4.8754170536994934e-02" rms="2.8425514698028564e-01" purity="8.8644653558731079e-02" nType="-99"/>
        </Node>
      </Node>
    </BinaryTree>
    <BinaryTree type="DecisionTree" boostWeight="1.0000000000000000e+00" itree="27">
      <Node pos="s" depth="0" NCoef="0" IVar="2" Cut="5.5414792150259018e-03" cType="1" res="-2.4956773966550827e-02" rms="4.1109922528266907e-01" purity="4.7630724310874939e-01" nType="0">
        <Node pos="l" depth="1" NCoef="0" IVar="0" Cut="1.0460562744140625e+03" cType="1" res="1.2830963730812073e-01" rms="3.3195587992668152e-01" purity="7.8692322969436646e-01" nType="0">
          <Node pos="l" depth="2" NCoef="0" IVar="-1" Cut="0.0000000000000000e+00" cType="1" res="5.5468123406171799e-02" rms="3.2449144124984741e-01" purity="6.9021469354629517e-01" nType="-99"/>
          <Node pos="r" depth="2" NCoef="0" IVar="-1" Cut="0.0000000000000000e+00" cType="1" res="1.9090594723820686e-02" rms="3.1351909041404724e-01" purity="8.4951674938201904e-01" nType="-99"/>
        </Node>
        <Node pos="r" depth="1" NCoef="0" IVar="3" Cut="2.4832393974065781e-02" cType="1" res="-4.9247920513153076e-02" rms="4.1714501380920410e-01" purity="4.2707777023315430e-01" nType="0">
          <Node pos="l" depth="2" NCoef="0" IVar="-1" Cut="0.0000000000000000e+00" cType="1" res="3.6525987088680267e-02" rms="4.2757457494735718e-01" purity="7.6092928647994995e-01" nType="-99"/>
          <Node pos="r" depth="2" NCoef="0" IVar="-1" Cut="0.0000000000000000e+00" cType="1" res="-1.5722777694463730e-02" rms="4.1381442546844482e-01" purity="4.0722188353538513e-01" nType="-99"/>
        </Node>
      </Node>
    </BinaryTree>
    <BinaryTree type="DecisionTree" boostWeight="1.0000000000000000e+00" itree="28">
      <Node pos="s" depth="0" NCoef="0" IVar="0" Cut="2.0487485351562500e+03" cType="1" res="2.8724521398544312e-03" rms="3.9208871126174927e-01" purity="5.0776052474975586e-01" nType="0">
        <Node pos="l" depth="1" NCoef="0" IVar="3" Cut="3.7061251699924469e-02" cType="1" res="-2.0295288413763046e-02" rms="4.2232647538185120e-01" purity="4.3795114755630493e-01" nType="0">
          <Node pos="l" depth="2" NCoef="0" IVar="-1" Cut="0.0000000000000000e+00" cType="1" res="3.8748361170291901e-02" rms="3.4549078345298767e-01" purity="7.7266532182693481e-01" nType="-99"/>
          <Node pos="r" depth="2" NCoef="0" IVar="-1" Cut="0.0000000000000000e+00" cType="1" res="-8.9029958471655846e-03" rms="4.2507839202880859e-01" purity="4.0838441252708435e-01" nType="-99"/>
        </Node>
        <Node pos="r" depth="1" NCoef="0" IVar="1" Cut="5.7427902221679688e+00" cType="1" res="8.4145836532115936e-02" rms="-nan" purity="1.0484766960144043e+00" nType="-99"/>
      </Node>
    </BinaryTree>
    <BinaryTree type="DecisionTree" boostWeight="1.0000000000000000e+00" itree="29">
      <Node pos="s" depth="0" NCoef="0" IVar="2" Cut="2.4051925167441368e-02" cType="1" res="-4.4734375551342964e-03" rms="4.0094894170761108e-01" purity="4.9490243196487427e-01" nType="0">
        <Node pos="l" depth="1" NCoef="0" IVar="0" Cut="7.1503607177734375e+02" cType="1" res="4.8451572656631470e-02" rms="3.7668702006340027e-01" purity="6.1570084095001221e-01" nType="0">
          <Node pos="l" depth="2" NCoef="0" IVar="-1" Cut="0.0000000000000000e+00" cType="1" res="-1.4066270552575588e-02" rms="4.3058136105537415e-01" purity="2.7349776029586792e-01" nType="-99"/>
          <Node pos="r" depth="2" NCoef="0" IVar="-1" Cut="0.0000000000000000e+00" cType="1" res="2.5119101628661156e-02" rms="3.4612029790878296e-01" purity="7.4426662921905518e-01" nType="-99"/>
        </Node>
        <Node pos="r" depth="1" NCoef="0" IVar="3" Cut="3.7381939589977264e-02" cType="1" res="-7.5660459697246552e-02" rms="4.2107242345809937e-01" purity="3.3242198824882507e-01" nType="0">
          <Node pos="l" depth="2" NCoef="0" IVar="-1" Cut="0.0000000000000000e+00" cType="1" res="-6.3560530543327332e-02" rms="4.5393377542495728e-01" purity="3.1072050333023071e-01" nType="-99"/>
          <Node pos="r" depth="2" NCoef="0" IVar="-1" Cut="0.0000000000000000e+00" cType="1" res="-1.2337769381701946e-02" rms="4.0827482938766479e-01" purity="3.3573782444000244e-01" nType="-99"/>
        </Node>
      </Node>
    </BinaryTree>
    <BinaryTree type="DecisionTree" boostWeight="1.0000000000000000e+00" itree="30">
      <Node pos="s" depth="0" NCoef="0" IVar="2" Cut="9.2507423833012581e-03" cType="1" res="-6.4829592593014240e-03" rms="4.1591966152191162e-01" purity="5.2166086435317993e-01" nType="0">
        <Node pos="l" depth="1" NCoef="0" IVar="1" Cut="2.7821636199951172e+00" cType="1" res="9.9456772208213806e-02" rms="3.3433058857917786e-01" purity="7.5834178924560547e-01" nType="0">
          <Node pos="l" depth="2" NCoef="0" IVar="-1" Cut="0.0000000000000000e+00" cType="1" res="-1.1198461987078190e-02" rms="4.6114432811737061e-01" purity="3.1225392222404480e-01" nType="-99"/>
          <Node pos="r" depth="2" NCoef="0" IVar="-1" Cut="0.0000000000000000e+00" cType="1" res="5.0105422735214233e-02" rms="2.5972205400466919e-01" purity="9.1035979986190796e-01" nType="-99"/>
        </Node>
        <Node pos="r" depth="1" NCoef="0" IVar="1" Cut="4.9643492698669434e+00" cType="1" res="-4.4223438948392868e-02" rms="4.3517023324966431e-01" purity="4.3734452128410339e-01" nType="0">
          <Node pos="l" depth="2" NCoef="0" IVar="-1" Cut="0.0000000000000000e+00" cType="1" res="-3.3186683431267738e-03" rms="4.2868459224700928e-01" purity="4.0466991066932678e-01" nType="-99"/>
          <Node pos="r" depth="2" NCoef="0" IVar="-1" Cut="0.0000000000000000e+00" cType="1" res="-6.4248234033584595e-02" rms="4.3559831380844116e-01" purity="5.9412491321563721e-01" nType="-99"/>
        </Node>
      </Node>
    </BinaryTree>
    <BinaryTree type="DecisionTree" boostWeight="1.0000000000000000e+00" itree="31">
      <Node pos="s" depth="0" NCoef="0" IVar="3" Cut="2.8400495648384094e-01" cType="1" res="5.1834533223882318e-04" rms="3.9479297399520874e-01" purity="4.9300801753997803e-01" nType="0">
        <Node pos="l" depth="1" NCoef="0" IVar="1" Cut="5.8724598884582520e+00" cType="1" res="4.6179942786693573e-02" rms="3.8613295555114746e-01" purity="6.5221476554870605e-01" nType="0">
          <Node pos="l" depth="2" NCoef="0" IVar="-1" Cut="0.0000000000000000e+00" cType="1" res="1.7827872186899185e-02" rms="3.7908703088760376e-01" purity="6.4711749553680420e-01" nType="-99"/>
          <Node pos="r" depth="2" NCoef="0" IVar="-1" Cut="0.0000000000000000e+00" cType="1" res="-6.9387115538120270e-02" rms="3.9308395981788635e-01" purity="7.0095717906951904e-01" nType="-99"/>
        </Node>
        <Node pos="r" depth="1" NCoef="0" IVar="0" Cut="1.3857508544921875e+03" cType="1" res="-6.3770122826099396e-02" rms="3.9788764715194702e-01" purity="2.6885557174682617e-01" nType="0">
          <Node pos="l" depth="2" NCoef="0" IVar="-1" Cut="0.0000000000000000e+00" cType="1" res="-2.3139268159866333e-02" rms="3.9112383127212524e-01" purity="2.0537109673023224e-01" nType="-99"/>
          <Node pos="r" depth="2" NCoef="0" IVar="-1" Cut="0.0000000000000000e+00" cType="1" res="3.4596614539623260e-02" rms="4.0044835209846497e-01" purity="7.8181213140487671e-01" nType="-99"/>
        </Node>
      </Node>
    </BinaryTree>
    <BinaryTree type="DecisionTree" boostWeight="1.0000000000000000e+00" itree="32">
      <Node pos="s" depth="0" NCoef="0" IVar="0" Cut="2.0299479980468750e+03" cType="1" res="-2.9869133606553078e-02" rms="3.9482843875885010e-01" purity="4.7009673714637756e-01" nType="0">
        <Node pos="l" depth="1" NCoef="0" IVar="2" Cut="1.6544332727789879e-02" cType="1" res="-4.6510305255651474e-02" rms="4.1531881690025330e-01" purity="4.0386769175529480e-01" nType="0">
          <Node pos="l" depth="2" NCoef="0" IVar="-1" Cut="0.0000000000000000e+00" cType="1" res="8.9821318397298455e-05" rms="4.1351979970932007e-01" purity="5.5510348081588745e-01" nType="-99"/>
          <Node pos="r" depth="2" NCoef="0" IVar="-1" Cut="0.0000000000000000e+00" cType="1" res="-2.0581694319844246e-02" rms="4.1320943832397461e-01" purity="2.9102981090545654e-01" nType="-99"/>
        </Node>
        <Node pos="r" depth="1" NCoef="0" IVar="1" Cut="5.2895283699035645e+00" cType="1" res="9.6992298960685730e-02" rms="1.0552336275577545e-01" purity="9.7498369216918945e-01" nType="0">
          <Node pos="l" depth="2" NCoef="0" IVar="-1" Cut="0.0000000000000000e+00" cType="1" res="1.2539962306618690e-02" rms="2.8295439481735229e-01" purity="8.9097911119461060e-01" nType="-99"/>
          <Node pos="r" depth="2" NCoef="0" IVar="-1" Cut="0.0000000000000000e+00" cType="1" res="7.9996846616268158e-02" rms="-nan" purity="1.0404711961746216e+00" nType="-99"/>
        </Node>
      </Node>
    </BinaryTree>
    <BinaryTree type="DecisionTree" boostWeight="1.0000000000000000e+00" itree="33">
      <Node pos="s" depth="0" NCoef="0" IVar="0" Cut="1.0007304077148438e+03" cType="1" res="-1.5747694298624992e-02" rms="3.9621800184249878e-01" purity="4.8119923472404480e-01" nType="0">
        <Node pos="l" depth="1" NCoef="0" IVar="1" Cut="3.7228882312774658e+00" cType="1" res="-6.0151375830173492e-02" rms="4.1625210642814636e-01" purity="2.7966278791427612e-01" nType="0">
          <Node pos="l" depth="2" NCoef="0" IVar="-1" Cut="0.0000000000000000e+00" cType="1" res="-4.8428457230329514e-03" rms="4.0261223912239075e-01" purity="2.6967632770538330e-01" nType="-99"/>
          <Node pos="r" depth="2" NCoef="0" IVar="-1" Cut="0.0000000000000000e+00" cType="1" res="-4.8146810382604599e-02" rms="4.2850801348686218e-01" purity="3.1781956553459167e-01" nType="-99"/>
        </Node>
        <Node pos="r" depth="1" NCoef="0" IVar="3" Cut="3.0866071581840515e-01" cType="1" res="4.5029327273368835e-02" rms="3.5821363329887390e-01" purity="7.5705003738403320e-01" nType="0">
          <Node pos="l" depth="2" NCoef="0" IVar="-1" Cut="0.0000000000000000e+00" cType="1" res="3.1910475343465805e-02" rms="3.0892693996429443e-01" purity="8.7143045663833618e-01" nType="-99"/>
          <Node pos="r" depth="2" NCoef="0" IVar="-1" Cut="0.0000000000000000e+00" cType="1" res="-3.2237417995929718e-02" rms="4.4740119576454163e-01" purity="3.6711388826370239e-01" nType="-99"/>
        </Node>
      </Node>
    </BinaryTree>
    <BinaryTree type="DecisionTree" boostWeight="1.0000000000000000e+00" itree="34">
      <Node pos="s" depth="0" NCoef="0" IVar="1" Cut="6.0356264114379883e+00" cType="1" res="2.2169207222759724e-03" rms="3.9272949099540710e-01" purity="4.9159032106399536e-01" nType="0">
        <Node pos="l" depth="1" NCoef="0" IVar="3" Cut="1.3577573001384735e-01" cType="1" res="1.3860851526260376e-02" rms="3.8883870840072632e-01" purity="4.8338788747787476e-01" nType="0">
          <Node pos="l" depth="2" NCoef="0" IVar="-1" Cut="0.0000000000000000e+00" cType="1" res="3.3916957676410675e-02" rms="3.5358610749244690e-01" purity="7.5300580263137817e-01" nType="-99"/>
          <Node pos="r" depth="2" NCoef="0" IVar="-1" Cut="0.0000000000000000e+00" cType="1" res="-8.1159081310033798e-03" rms="3.9419201016426086e-01" purity="3.7104845046997070e-01" nType="-99"/>
        </Node>
        <Node pos="r" depth="1" NCoef="0" IVar="-1" Cut="0.0000000000000000e+00" cType="1" res="-8.9052073657512665e-02" rms="4.0285184979438782e-01" purity="6.4052534103393555e-01" nType="-99"/>
      </Node>
    </BinaryTree>
    <BinaryTree type="DecisionTree" boostWeight="1.0000000000000000e+00" itree="35">
      <Node pos="s" depth="0" NCoef="0" IVar="2" Cut="5.5414796806871891e-03" cType="1" res="-2.2655650973320007e-02" rms="3.8874280452728271e-01" purity="4.6350157260894775e-01" nType="0">
        <Node pos="l" depth="1" NCoef="0" IVar="2" Cut="3.0097721610218287e-03" cType="1" res="6.6250726580619812e-02" rms="-nan" purity="8.9588153362274170e-01" nType="-99"/>
        <Node pos="r" depth="1" NCoef="0" IVar="2" Cut="1.0879506357014179e-02" cType="1" res="-4.8296790570020676e-02" rms="4.0342476963996887e-01" purity="4.1276866197586060e-01" nType="0">
          <Node pos="l" depth="2" NCoef="0" IVar="-1" Cut="0.0000000000000000e+00" cType="1" res="7.4154781177639961e-03" rms="3.7644034624099731e-01" purity="6.1767774820327759e-01" nType="-99"/>
          <Node pos="r" depth="2" NCoef="0" IVar="-1" Cut="0.0000000000000000e+00" cType="1" res="-1.7755638808012009e-02" rms="4.0769219398498535e-01" purity="3.6273071169853210e-01" nType="-99"/>
        </Node>
      </Node>
    </BinaryTree>
    <BinaryTree type="DecisionTree" boostWeight="1.0000000000000000e+00" itree="36">
      <Node pos="s" depth="0" NCoef="0" IVar="2" Cut="3.3302664756774902e-02" cType="1" res="-1.4265395700931549e-02" rms="3.9423525333404541e-01" purity="4.8190599679946899e-01" nType="0">
        <Node pos="l" depth="1" NCoef="0" IVar="0" Cut="1.5468498535156250e+03" cType="1" res="1.8001530319452286e-02" rms="3.9182436466217041e-01" purity="5.7476878166198730e-01" nType="0">
          <Node pos="l" depth="2" NCoef="0" IVar="-1" Cut="0.0000000000000000e+00" cType="1" res="-3.5344485659152269e-03" rms="4.4428890943527222e-01" purity="4.4410839676856995e-01" nType="-99"/>
          <Node pos="r" depth="2" NCoef="0" IVar="-1" Cut="0.0000000000000000e+00" cType="1" res="4.6917006373405457e-02" rms="1.3457532227039337e-01" purity="9.4467467069625854e-01" nType="-99"/>
        </Node>
        <Node pos="r" depth="1" NCoef="0" IVar="2" Cut="3.9067491888999939e-02" cType="1" res="-8.4453329443931580e-02" rms="3.9032366871833801e-01" purity="2.7990823984146118e-01" nType="0">
          <Node pos="l" depth="2" NCoef="0" IVar="-1" Cut="0.0000000000000000e+00" cType="1" res="-4.6122293919324875e-02" rms="4.1788160800933838e-01" purity="2.4188895523548126e-01" nType="-99"/>
          <Node pos="r" depth="2" NCoef="0" IVar="-1" Cut="0.0000000000000000e+00" cType="1" res="-1.7930971458554268e-02" rms="3.8236376643180847e-01" purity="2.8745892643928528e-01" nType="-99"/>
        </Node>
      </Node>
    </BinaryTree>
    <BinaryTree type="DecisionTree" boostWeight="1.0000000000000000e+00" itree="37">
      <Node pos="s" depth="0" NCoef="0" IVar="0" Cut="2.7823266601562500e+03" cType="1" res="2.0936569198966026e-03" rms="4.0142524242401123e-01" purity="4.9669742584228516e-01" nType="0">
        <Node pos="l" depth="1" NCoef="0" IVar="0" Cut="5.2821972656250000e+02" cType="1" res="-9.8159145563840866e-03" rms="4.1940838098526001e-01" purity="4.6870601177215576e-01" nType="0">
          <Node pos="l" depth="2" NCoef="0" IVar="-1" Cut="0.0000000000000000e+00" cType="1" res="-4.8415962606668472e-02" rms="2.7736026048660278e-01" purity="8.2083299756050110e-02" nType="-99"/>
          <Node pos="r" depth="2" NCoef="0" IVar="-1" Cut="0.0000000000000000e+00" cType="1" res="6.9868029095232487e-04" rms="4.2555081844329834e-01" purity="4.9762827157974243e-01" nType="-99"/>
        </Node>
        <Node pos="r" depth="1" NCoef="0" IVar="-1" Cut="0.0000000000000000e+00" cType="1" res="2.4759081006050110e-01" rms="-nan" purity="1.2502057552337646e+00" nType="-99"/>
      </Node>
    </BinaryTree>
    <BinaryTree type="DecisionTree" boostWeight="1.0000000000000000e+00" itree="38">
      <Node pos="s" depth="0" NCoef="0" IVar="2" Cut="9.7899436950683594e-02" cType="1" res="4.8006931319832802e-03" rms="3.9499372243881226e-01" purity="5.0982236862182617e-01" nType="0">
        <Node pos="l" depth="1" NCoef="0" IVar="1" Cut="2.3546459674835205e+00" cType="1" res="1.6462223604321480e-02" rms="3.9034229516983032e-01" purity="5.2780973911285400e-01" nType="0">
          <Node pos="l" depth="2" NCoef="0" IVar="-1" Cut="0.0000000000000000e+00" cType="1" res="-3.0421473085880280e-02" rms="3.4110769629478455e-01" purity="1.3904692232608795e-01" nType="-99"/>
          <Node pos="r" depth="2" NCoef="0" IVar="-1" Cut="0.0000000000000000e+00" cType="1" res="1.2516120448708534e-02" rms="3.9595088362693787e-01" purity="6.1766934394836426e-01" nType="-99"/>
        </Node>
        <Node pos="r" depth="1" NCoef="0" IVar="-1" Cut="0.0000000000000000e+00" cType="1" res="-4.9878630787134171e-02" rms="4.2024374008178711e-01" purity="2.0564818382263184e-01" nType="-99"/>
      </Node>
    </BinaryTree>
    <BinaryTree type="DecisionTree" boostWeight="1.0000000000000000e+00" itree="39">
      <Node pos="s" depth="0" NCoef="0" IVar="1" Cut="4.6829323768615723e+00" cType="1" res="7.5598079711198807e-03" rms="3.9306184649467468e-01" purity="5.0359070301055908e-01" nType="0">
        <Node pos="l" depth="1" NCoef="0" IVar="2" Cut="4.4403553009033203e-02" cType="1" res="-2.4975765496492386e-02" rms="4.3412885069847107e-01" purity="4.0350013971328735e-01" nType="0">
          <Node pos="l" depth="2" NCoef="0" IVar="-1" Cut="0.0000000000000000e+00" cType="1" res="-1.3515768572688103e-02" rms="4.2708602547645569e-01" purity="4.2010471224784851e-01" nType="-99"/>
          <Node pos="r" depth="2" NCoef="0" IVar="-1" Cut="0.0000000000000000e+00" cType="1" res="2.0093930885195732e-02" rms="4.4578668475151062e-01" purity="3.4437546133995056e-01" nType="-99"/>
        </Node>
        <Node pos="r" depth="1" NCoef="0" IVar="0" Cut="1.9748044433593750e+03" cType="1" res="7.9453252255916595e-02" rms="-nan" purity="1.0037096738815308e+00" nType="-99"/>
      </Node>
    </BinaryTree>
    <BinaryTree type="DecisionTree" boostWeight="1.0000000000000000e+00" itree="40">
      <Node pos="s" depth="0" NCoef="0" IVar="3" Cut="3.7036124616861343e-02" cType="1" res="-5.1885857246816158e-03" rms="3.9999285340309143e-01" purity="4.9495077133178711e-01" nType="0">
        <Node pos="l" depth="1" NCoef="0" IVar="2" Cut="1.2847122736275196e-02" cType="1" res="-1.1117629706859589e-01" rms="4.3415752053260803e-01" purity="5.8078694343566895e-01" nType="0">
          <Node pos="l" depth="2" NCoef="0" IVar="-1" Cut="0.0000000000000000e+00" cType="1" res="2.1553330123424530e-02" rms="2.7594622969627380e-01" purity="8.4198623895645142e-01" nType="-99"/>
          <Node pos="r" depth="2" NCoef="0" IVar="-1" Cut="0.0000000000000000e+00" cType="1" res="-5.5754601955413818e-02" rms="4.7901257872581482e-01" purity="4.2772331833839417e-01" nType="-99"/>
        </Node>
        <Node pos="r" depth="1" NCoef="0" IVar="1" Cut="5.6749510765075684e+00" cType="1" res="8.8697718456387520e-03" rms="3.9309865236282349e-01" purity="4.8356536030769348e-01" nType="0">
          <Node pos="l" depth="2" NCoef="0" IVar="-1" Cut="0.0000000000000000e+00" cType="1" res="-7.8716297866776586e-04" rms="4.0918394923210144e-01" purity="4.5363730192184448e-01" nType="-99"/>
          <Node pos="r" depth="2" NCoef="0" IVar="-1" Cut="0.0000000000000000e+00" cType="1" res="2.1976049244403839e-01" rms="-nan" purity="1.2135516405105591e+00" nType="-99"/>
        </Node>
      </Node>
    </BinaryTree>
    <BinaryTree type="DecisionTree" boostWeight="1.0000000000000000e+00" itree="41">
      <Node pos="s" depth="0" NCoef="0" IVar="3" Cut="1.2371272780001163e-02" cType="1" res="-8.0470908433198929e-03" rms="3.8939830660820007e-01" purity="4.8854079842567444e-01" nType="0">
        <Node pos="l" depth="1" NCoef="0" IVar="-1" Cut="0.0000000000000000e+00" cType="1" res="8.2372911274433136e-02" rms="3.0420301482081413e-02" purity="8.7216216325759888e-01" nType="-99"/>
        <Node pos="r" depth="1" NCoef="0" IVar="1" Cut="5.8556556701660156e+00" cType="1" res="-1.6708098351955414e-02" rms="3.9248231053352356e-01" purity="4.7625133395195007e-01" nType="0">
          <Node pos="l" depth="2" NCoef="0" IVar="-1" Cut="0.0000000000000000e+00" cType="1" res="-2.1552026737481356e-03" rms="3.9156728982925415e-01" purity="4.5951884984970093e-01" nType="-99"/>
          <Node pos="r" depth="2" NCoef="0" IVar="-1" Cut="0.0000000000000000e+00" cType="1" res="-1.0550305992364883e-01" rms="3.7788453698158264e-01" purity="7.4406915903091431e-01" nType="-99"/>
        </Node>
      </Node>
    </BinaryTree>
    <BinaryTree type="DecisionTree" boostWeight="1.0000000000000000e+00" itree="42">
      <Node pos="s" depth="0" NCoef="0" IVar="3" Cut="1.6051115095615387e-01" cType="1" res="-2.3405717685818672e-02" rms="4.0915504097938538e-01" purity="4.8720818758010864e-01" nType="0">
        <Node pos="l" depth="1" NCoef="0" IVar="2" Cut="4.1991949081420898e-02" cType="1" res="3.3481959253549576e-02" rms="3.9184606075286865e-01" purity="6.9080770015716553e-01" nType="0">
          <Node pos="l" depth="2" NCoef="0" IVar="-1" Cut="0.0000000000000000e+00" cType="1" res="2.0017441362142563e-02" rms="3.6970371007919312e-01" purity="7.6630395650863647e-01" nType="-99"/>
          <Node pos="r" depth="2" NCoef="0" IVar="-1" Cut="0.0000000000000000e+00" cType="1" res="-1.5260483138263226e-02" rms="4.4788309931755066e-01" purity="4.2737585306167603e-01" nType="-99"/>
        </Node>
        <Node pos="r" depth="1" NCoef="0" IVar="3" Cut="2.4366915225982666e-01" cType="1" res="-5.8680310845375061e-02" rms="4.1563674807548523e-01" purity="3.6096128821372986e-01" nType="0">
          <Node pos="l" depth="2" NCoef="0" IVar="-1" Cut="0.0000000000000000e+00" cType="1" res="-3.9040733128786087e-02" rms="3.9931985735893250e-01" purity="4.2354431748390198e-01" nType="-99"/>
          <Node pos="r" depth="2" NCoef="0" IVar="-1" Cut="0.0000000000000000e+00" cType="1" res="-4.6296981163322926e-03" rms="4.1757196187973022e-01" purity="3.2860791683197021e-01" nType="-99"/>
        </Node>
      </Node>
    </BinaryTree>
    <BinaryTree type="DecisionTree" boostWeight="1.0000000000000000e+00" itree="43">
      <Node pos="s" depth="0" NCoef="0" IVar="0" Cut="2.0690512695312500e+03" cType="1" res="1.5477280132472515e-02" rms="3.9842021465301514e-01" purity="5.2603584527969360e-01" nType="0">
        <Node pos="l" depth="1" NCoef="0" IVar="1" Cut="4.6375865936279297e+00" cType="1" res="3.2364670187234879e-02" rms="4.0472406148910522e-01" purity="4.7483125329017639e-01" nType="0">
          <Node pos="l" depth="2" NCoef="0" IVar="-1" Cut="0.0000000000000000e+00" cType="1" res="2.7148835361003876e-03" rms="4.2733964323997498e-01" purity="4.1641494631767273e-01" nType="-99"/>
          <Node pos="r" depth="2" NCoef="0" IVar="-1" Cut="0.0000000000000000e+00" cType="1" res="8.2551777362823486e-02" rms="-nan" purity="1.0247024297714233e+00" nType="-99"/>
        </Node>
        <Node pos="r" depth="1" NCoef="0" IVar="0" Cut="2.4125441894531250e+03" cType="1" res="-8.3997853100299835e-02" rms="3.4255006909370422e-01" purity="8.2765620946884155e-01" nType="0">
          <Node pos="l" depth="2" NCoef="0" IVar="-1" Cut="0.0000000000000000e+00" cType="1" res="-1.2882180511951447e-01" rms="4.8524954915046692e-01" purity="6.1165165901184082e-01" nType="-99"/>
          <Node pos="r" depth="2" NCoef="0" IVar="-1" Cut="0.0000000000000000e+00" cType="1" res="3.4791652113199234e-02" rms="4.2451802641153336e-02" purity="9.7182434797286987e-01" nType="-99"/>
        </Node>
      </Node>
    </BinaryTree>
    <BinaryTree type="DecisionTree" boostWeight="1.0000000000000000e+00" itree="44">
      <Node pos="s" depth="0" NCoef="0" IVar="2" Cut="3.7002977915108204e-03" cType="1" res="-2.1275779232382774e-02" rms="3.8962575793266296e-01" purity="4.7425132989883423e-01" nType="0">
        <Node pos="l" depth="1" NCoef="0" IVar="-1" Cut="0.0000000000000000e+00" cType="1" res="4.5980978757143021e-02" rms="-nan" purity="8.1932520866394043e-01" nType="-99"/>
        <Node pos="r" depth="1" NCoef="0" IVar="3" Cut="2.2224381566047668e-01" cType="1" res="-3.3261217176914215e-02" rms="4.0143632888793945e-01" purity="4.4896042346954346e-01" nType="0">
          <Node pos="l" depth="2" NCoef="0" IVar="-1" Cut="0.0000000000000000e+00" cType="1" res="1.0432539274916053e-03" rms="4.0902692079544067e-01" purity="6.3436287641525269e-01" nType="-99"/>
          <Node pos="r" depth="2" NCoef="0" IVar="-1" Cut="0.0000000000000000e+00" cType="1" res="-1.9166072830557823e-02" rms="3.9099735021591187e-01" purity="2.7450597286224365e-01" nType="-99"/>
        </Node>
      </Node>
    </BinaryTree>
    <BinaryTree type="DecisionTree" boostWeight="1.0000000000000000e+00" itree="45">
      <Node pos="s" depth="0" NCoef="0" IVar="0" Cut="1.2337143554687500e+03" cType="1" res="2.4887321051210165e-03" rms="3.8519611954689026e-01" purity="4.9503540992736816e-01" nType="0">
        <Node pos="l" depth="1" NCoef="0" IVar="1" Cut="4.1949715614318848e+00" cType="1" res="-3.0407413840293884e-02" rms="4.2228546738624573e-01" purity="3.2383793592453003e-01" nType="0">
          <Node pos="l" depth="2" NCoef="0" IVar="-1" Cut="0.0000000000000000e+00" cType="1" res="-3.0770958401262760e-03" rms="4.1071468591690063e-01" purity="3.1304082274436951e-01" nType="-99"/>
          <Node pos="r" depth="2" NCoef="0" IVar="-1" Cut="0.0000000000000000e+00" cType="1" res="-4.9485258758068085e-02" rms="4.8326778411865234e-01" purity="4.2548596858978271e-01" nType="-99"/>
        </Node>
        <Node pos="r" depth="1" NCoef="0" IVar="2" Cut="3.2781645655632019e-02" cType="1" res="7.6531842350959778e-02" rms="2.7027463912963867e-01" purity="8.8036912679672241e-01" nType="0">
          <Node pos="l" depth="2" NCoef="0" IVar="-1" Cut="0.0000000000000000e+00" cType="1" res="5.3729500621557236e-02" rms="1.5673984587192535e-01" purity="9.6735876798629761e-01" nType="-99"/>
          <Node pos="r" depth="2" NCoef="0" IVar="-1" Cut="0.0000000000000000e+00" cType="1" res="-1.1699999682605267e-02" rms="4.4387677311897278e-01" purity="6.2295478582382202e-01" nType="-99"/>
        </Node>
      </Node>
    </BinaryTree>
    <BinaryTree type="DecisionTree" boostWeight="1.0000000000000000e+00" itree="46">
      <Node pos="s" depth="0" NCoef="0" IVar="3" Cut="3.3290287852287292e-01" cType="1" res="8.1057380884885788e-03" rms="3.8677927851676941e-01" purity="4.9915587902069092e-01" nType="0">
        <Node pos="l" depth="1" NCoef="0" IVar="3" Cut="1.1911566555500031e-01" cType="1" res="4.0315084159374237e-02" rms="3.8354972004890442e-01" purity="6.4607709646224976e-01" nType="0">
          <Node pos="l" depth="2" NCoef="0" IVar="-1" Cut="0.0000000000000000e+00" cType="1" res="-6.8522756919264793e-03" rms="4.0409246087074280e-01" purity="6.5637195110321045e-01" nType="-99"/>
          <Node pos="r" depth="2" NCoef="0" IVar="-1" Cut="0.0000000000000000e+00" cType="1" res="2.6247011497616768e-02" rms="3.5570487380027771e-01" purity="6.3700079917907715e-01" nType="-99"/>
        </Node>
        <Node pos="r" depth="1" NCoef="0" IVar="0" Cut="1.4386510009765625e+03" cType="1" res="-5.4253078997135162e-02" rms="3.8537979125976562e-01" purity="2.1470963954925537e-01" nType="0">
          <Node pos="l" depth="2" NCoef="0" IVar="-1" Cut="0.0000000000000000e+00" cType="1" res="-9.8472274839878082e-03" rms="3.6856603622436523e-01" purity="1.9295297563076019e-01" nType="-99"/>
          <Node pos="r" depth="2" NCoef="0" IVar="-1" Cut="0.0000000000000000e+00" cType="1" res="-5.5857915431261063e-02" rms="4.5829510688781738e-01" purity="3.7650555372238159e-01" nType="-99"/>
        </Node>
      </Node>
    </BinaryTree>
    <BinaryTree type="DecisionTree" boostWeight="1.0000000000000000e+00" itree="47">
      <Node pos="s" depth="0" NCoef="0" IVar="1" Cut="1.5983003377914429e+00" cType="1" res="-1.7488981829956174e-03" rms="4.0658709406852722e-01" purity="4.9430435895919800e-01" nType="0">
        <Node pos="l" depth="1" NCoef="0" IVar="3" Cut="4.0765324234962463e-01" cType="1" res="-1.0285577923059464e-01" rms="2.9960769414901733e-01" purity="8.7456807494163513e-02" nType="0">
          <Node pos="l" depth="2" NCoef="0" IVar="-1" Cut="0.0000000000000000e+00" cType="1" res="-5.5083446204662323e-02" rms="2.3439691960811615e-01" purity="5.1010932773351669e-02" nType="-99"/>
          <Node pos="r" depth="2" NCoef="0" IVar="-1" Cut="0.0000000000000000e+00" cType="1" res="-5.4232771508395672e-03" rms="3.3728104829788208e-01" purity="1.2859721481800079e-01" nType="-99"/>
        </Node>
        <Node pos="r" depth="1" NCoef="0" IVar="1" Cut="3.6568977832794189e+00" cType="1" res="6.5422435291111469e-03" rms="4.1303908824920654e-01" purity="5.2766740322113037e-01" nType="0">
          <Node pos="l" depth="2" NCoef="0" IVar="-1" Cut="0.0000000000000000e+00" cType="1" res="1.0735690593719482e-02" rms="4.2947542667388916e-01" purity="3.6875548958778381e-01" nType="-99"/>
          <Node pos="r" depth="2" NCoef="0" IVar="-1" Cut="0.0000000000000000e+00" cType="1" res="-1.1117055080831051e-02" rms="3.8940656185150146e-01" purity="7.1303063631057739e-01" nType="-99"/>
        </Node>
      </Node>
    </BinaryTree>
    <BinaryTree type="DecisionTree" boostWeight="1.0000000000000000e+00" itree="48">
      <Node pos="s" depth="0" NCoef="0" IVar="0" Cut="2.1909411621093750e+03" cType="1" res="-2.1534677594900131e-02" rms="4.1374734044075012e-01" purity="4.9679177999496460e-01" nType="0">
        <Node pos="l" depth="1" NCoef="0" IVar="0" Cut="1.9579178466796875e+03" cType="1" res="-6.2845377251505852e-03" rms="4.1768661141395569e-01" purity="4.6050226688385010e-01" nType="0">
          <Node pos="l" depth="2" NCoef="0" IVar="-1" Cut="0.0000000000000000e+00" cType="1" res="-3.9268359541893005e-03" rms="4.2747282981872559e-01" purity="4.3510094285011292e-01" nType="-99"/>
          <Node pos="r" depth="2" NCoef="0" IVar="-1" Cut="0.0000000000000000e+00" cType="1" res="8.9022137224674225e-02" rms="-nan" purity="1.0549234151840210e+00" nType="-99"/>
        </Node>
        <Node pos="r" depth="1" NCoef="0" IVar="0" Cut="2.4894458007812500e+03" cType="1" res="-1.3969422876834869e-01" rms="3.6061942577362061e-01" purity="7.7796649932861328e-01" nType="0">
          <Node pos="l" depth="2" NCoef="0" IVar="-1" Cut="0.0000000000000000e+00" cType="1" res="-1.2634763121604919e-01" rms="4.5733878016471863e-01" purity="5.3153008222579956e-01" nType="-99"/>
          <Node pos="r" depth="2" NCoef="0" IVar="-1" Cut="0.0000000000000000e+00" cType="1" res="-5.5077616125345230e-02" rms="2.3794876039028168e-01" purity="9.2089968919754028e-01" nType="-99"/>
        </Node>
      </Node>
    </BinaryTree>
    <BinaryTree type="DecisionTree" boostWeight="1.0000000000000000e+00" itree="49">
      <Node pos="s" depth="0" NCoef="0" IVar="3" Cut="1.6049362719058990e-01" cType="1" res="-2.8611695393919945e-02" rms="3.8483867049217224e-01" purity="4.6606746315956116e-01" nType="0">
        <Node pos="l" depth="1" NCoef="0" IVar="3" Cut="6.3398793339729309e-02" cType="1" res="3.2259091734886169e-02" rms="3.6302787065505981e-01" purity="6.8566596508026123e-01" nType="0">
          <Node pos="l" depth="2" NCoef="0" IVar="-1" Cut="0.0000000000000000e+00" cType="1" res="-1.2729720212519169e-02" rms="3.8618609309196472e-01" purity="6.2783104181289673e-01" nType="-99"/>
          <Node pos="r" depth="2" NCoef="0" IVar="-1" Cut="0.0000000000000000e+00" cType="1" res="3.0574105679988861e-02" rms="3.2387644052505493e-01" purity="7.4179965257644653e-01" nType="-99"/>
        </Node>
        <Node pos="r" depth="1" NCoef="0" IVar="2" Cut="8.3942063152790070e-02" cType="1" res="-6.5378367900848389e-02" rms="3.9289107918739319e-01" purity="3.3342736959457397e-01" nType="0">
          <Node pos="l" depth="2" NCoef="0" IVar="-1" Cut="0.0000000000000000e+00" cType="1" res="-1.5819031745195389e-02" rms="3.9746746420860291e-01" purity="3.5915336012840271e-01" nType="-99"/>
          <Node pos="r" depth="2" NCoef="0" IVar="-1" Cut="0.0000000000000000e+00" cType="1" res="-4.6536866575479507e-02" rms="3.4012767672538757e-01" purity="1.1931258440017700e-01" nType="-99"/>
        </Node>
      </Node>
    </BinaryTree>
    <BinaryTree type="DecisionTree" boostWeight="1.0000000000000000e+00" itree="50">
      <Node pos="s" depth="0" NCoef="0" IVar="1" Cut="1.4520170688629150e+00" cType="1" res="8.4124235436320305e-03" rms="3.9597386121749878e-01" purity="5.0138312578201294e-01" nType="0">
        <Node pos="l" depth="1" NCoef="0" IVar="2" Cut="2.1911183372139931e-02" cType="1" res="-1.4416970312595367e-01" rms="1.8749979138374329e-01" purity="2.9735177755355835e-02" nType="0">
          <Node pos="l" depth="2" NCoef="0" IVar="-1" Cut="0.0000000000000000e+00" cType="1" res="-6.3502594828605652e-02" rms="1.8077974021434784e-01" purity="1.9713807851076126e-02" nType="-99"/>
          <Node pos="r" depth="2" NCoef="0" IVar="-1" Cut="0.0000000000000000e+00" cType="1" res="-4.2039103806018829e-02" rms="1.7802998423576355e-01" purity="3.9251156151294708e-02" nType="-99"/>
        </Node>
        <Node pos="r" depth="1" NCoef="0" IVar="1" Cut="5.5119771957397461e+00" cType="1" res="1.9196119159460068e-02" rms="4.0451258420944214e-01" purity="5.3471672534942627e-01" nType="0">
          <Node pos="l" depth="2" NCoef="0" IVar="-1" Cut="0.0000000000000000e+00" cType="1" res="9.2272395268082619e-03" rms="4.0655505657196045e-01" purity="5.0680321455001831e-01" nType="-99"/>
          <Node pos="r" depth="2" NCoef="0" IVar="-1" Cut="0.0000000000000000e+00" cType="1" res="-7.0252433419227600e-02" rms="3.6012631654739380e-01" purity="7.9392296075820923e-01" nType="-99"/>
        </Node>
      </Node>
    </BinaryTree>
    <BinaryTree type="DecisionTree" boostWeight="1.0000000000000000e+00" itree="51">
      <Node pos="s" depth="0" NCoef="0" IVar="1" Cut="5.3082022666931152e+00" cType="1" res="-4.5398810470942408e-06" rms="4.0656250715255737e-01" purity="5.1735782623291016e-01" nType="0">
        <Node pos="l" depth="1" NCoef="0" IVar="1" Cut="1.6522023677825928e+00" cType="1" res="1.6666250303387642e-02" rms="4.1030305624008179e-01" purity="4.8367586731910706e-01" nType="0">
          <Node pos="l" depth="2" NCoef="0" IVar="-1" Cut="0.0000000000000000e+00" cType="1" res="-3.3814802765846252e-02" rms="2.9813560843467712e-01" purity="9.3592077493667603e-02" nType="-99"/>
          <Node pos="r" depth="2" NCoef="0" IVar="-1" Cut="0.0000000000000000e+00" cType="1" res="7.4302982538938522e-03" rms="4.1772982478141785e-01" purity="5.1998716592788696e-01" nType="-99"/>
        </Node>
        <Node pos="r" depth="1" NCoef="0" IVar="0" Cut="2.5249763183593750e+03" cType="1" res="-1.1552386730909348e-01" rms="3.5895597934722900e-01" purity="7.5075566768646240e-01" nType="0">
          <Node pos="l" depth="2" NCoef="0" IVar="-1" Cut="0.0000000000000000e+00" cType="1" res="-7.4045494198799133e-02" rms="4.3071299791336060e-01" purity="5.9469538927078247e-01" nType="-99"/>
          <Node pos="r" depth="2" NCoef="0" IVar="-1" Cut="0.0000000000000000e+00" cType="1" res="5.7685695588588715e-02" rms="-nan" purity="1.0030972957611084e+00" nType="-99"/>
        </Node>
      </Node>
    </BinaryTree>
    <BinaryTree type="DecisionTree" boostWeight="1.0000000000000000e+00" itree="52">
      <Node pos="s" depth="0" NCoef="0" IVar="3" Cut="3.7036124616861343e-02" cType="1" res="-9.1588143259286880e-03" rms="3.9560133218765259e-01" purity="4.9009782075881958e-01" nType="0">
        <Node pos="l" depth="1" NCoef="0" IVar="1" Cut="4.3521437644958496e+00" cType="1" res="9.9083893001079559e-02" rms="3.2314443588256836e-01" purity="7.6525777578353882e-01" nType="0">
          <Node pos="l" depth="2" NCoef="0" IVar="-1" Cut="0.0000000000000000e+00" cType="1" res="3.9796750992536545e-02" rms="3.4324750304222107e-01" purity="6.8561393022537231e-01" nType="-99"/>
          <Node pos="r" depth="2" NCoef="0" IVar="-1" Cut="0.0000000000000000e+00" cType="1" res="7.8766448423266411e-03" rms="2.7519127726554871e-01" purity="8.6354386806488037e-01" nType="-99"/>
        </Node>
        <Node pos="r" depth="1" NCoef="0" IVar="3" Cut="9.6472859382629395e-02" cType="1" res="-1.9544543698430061e-02" rms="4.0033134818077087e-01" purity="4.6369659900665283e-01" nType="0">
          <Node pos="l" depth="2" NCoef="0" IVar="-1" Cut="0.0000000000000000e+00" cType="1" res="-3.2074216753244400e-02" rms="4.3488153815269470e-01" purity="5.8786183595657349e-01" nType="-99"/>
          <Node pos="r" depth="2" NCoef="0" IVar="-1" Cut="0.0000000000000000e+00" cType="1" res="5.2067928481847048e-04" rms="3.8799741864204407e-01" purity="4.3132969737052917e-01" nType="-99"/>
        </Node>
      </Node>
    </BinaryTree>
    <BinaryTree type="DecisionTree" boostWeight="1.0000000000000000e+00" itree="53">
      <Node pos="s" depth="0" NCoef="0" IVar="1" Cut="2.8802037239074707e+00" cType="1" res="1.1456795036792755e-02" rms="3.8820186257362366e-01" purity="5.0612163543701172e-01" nType="0">
        <Node pos="l" depth="1" NCoef="0" IVar="2" Cut="6.0311082750558853e-02" cType="1" res="-4.1445642709732056e-02" rms="3.8222301006317139e-01" purity="1.9738759100437164e-01" nType="0">
          <Node pos="l" depth="2" NCoef="0" IVar="-1" Cut="0.0000000000000000e+00" cType="1" res="-1.7459776252508163e-02" rms="3.7471672892570496e-01" purity="1.9288322329521179e-01" nType="-99"/>
          <Node pos="r" depth="2" NCoef="0" IVar="-1" Cut="0.0000000000000000e+00" cType="1" res="2.6356073096394539e-02" rms="4.0733543038368225e-01" purity="2.2397963702678680e-01" nType="-99"/>
        </Node>
        <Node pos="r" depth="1" NCoef="0" IVar="3" Cut="4.4230312108993530e-01" cType="1" res="4.0658865123987198e-02" rms="3.8838860392570496e-01" purity="6.7654246091842651e-01" nType="0">
          <Node pos="l" depth="2" NCoef="0" IVar="-1" Cut="0.0000000000000000e+00" cType="1" res="2.0418768748641014e-02" rms="3.7819465994834900e-01" purity="7.4234324693679810e-01" nType="-99"/>
          <Node pos="r" depth="2" NCoef="0" IVar="-1" Cut="0.0000000000000000e+00" cType="1" res="-3.8662362843751907e-02" rms="4.0820807218551636e-01" purity="2.0179907977581024e-01" nType="-99"/>
        </Node>
      </Node>
    </BinaryTree>
    <BinaryTree type="DecisionTree" boostWeight="1.0000000000000000e+00" itree="54">
      <Node pos="s" depth="0" NCoef="0" IVar="1" Cut="3.1095817089080811e+00" cType="1" res="-3.0903008300811052e-03" rms="3.8021999597549438e-01" purity="4.8050817847251892e-01" nType="0">
        <Node pos="l" depth="1" NCoef="0" IVar="1" Cut="1.2920831441879272e+00" cType="1" res="-5.0757065415382385e-02" rms="3.7509936094284058e-01" purity="2.0530262589454651e-01" nType="0">
          <Node pos="l" depth="2" NCoef="0" IVar="-1" Cut="0.0000000000000000e+00" cType="1" res="-5.6059278547763824e-02" rms="1.5325441956520081e-01" purity="1.5184585005044937e-02" nType="-99"/>
          <Node pos="r" depth="2" NCoef="0" IVar="-1" Cut="0.0000000000000000e+00" cType="1" res="-1.1447180062532425e-02" rms="3.9424476027488708e-01" purity="2.3087610304355621e-01" nType="-99"/>
        </Node>
        <Node pos="r" depth="1" NCoef="0" IVar="2" Cut="6.8277999758720398e-02" cType="1" res="3.3550702035427094e-02" rms="3.8006734848022461e-01" purity="6.9205611944198608e-01" nType="0">
          <Node pos="l" depth="2" NCoef="0" IVar="-1" Cut="0.0000000000000000e+00" cType="1" res="1.8213111907243729e-02" rms="3.7366190552711487e-01" purity="7.6085901260375977e-01" nType="-99"/>
          <Node pos="r" depth="2" NCoef="0" IVar="-1" Cut="0.0000000000000000e+00" cType="1" res="-2.7726428583264351e-02" rms="3.8456308841705322e-01" purity="2.9489490389823914e-01" nType="-99"/>
        </Node>
      </Node>
    </BinaryTree>
    <BinaryTree type="DecisionTree" boostWeight="1.0000000000000000e+00" itree="55">
      <Node pos="s" depth="0" NCoef="0" IVar="0" Cut="2.5779965820312500e+03" cType="1" res="-2.2210339084267616e-02" rms="3.9909914135932922e-01" purity="4.8991188406944275e-01" nType="0">
        <Node pos="l" depth="1" NCoef="0" IVar="1" Cut="4.9527397155761719e+00" cType="1" res="-3.2224953174591064e-02" rms="4.1842439770698547e-01" purity="4.5249122381210327e-01" nType="0">
          <Node pos="l" depth="2" NCoef="0" IVar="-1" Cut="0.0000000000000000e+00" cType="1" res="-3.7684438284486532e-03" rms="4.1666224598884583e-01" purity="4.2972195148468018e-01" nType="-99"/>
          <Node pos="r" depth="2" NCoef="0" IVar="-1" Cut="0.0000000000000000e+00" cType="1" res="-5.2674196660518646e-02" rms="4.0903505682945251e-01" purity="5.9993612766265869e-01" nType="-99"/>
        </Node>
        <Node pos="r" depth="1" NCoef="0" IVar="-1" Cut="0.0000000000000000e+00" cType="1" res="2.1113996207714081e-01" rms="-nan" purity="1.1044205427169800e+00" nType="-99"/>
      </Node>
    </BinaryTree>
    <BinaryTree type="DecisionTree" boostWeight="1.0000000000000000e+00" itree="56">
      <Node pos="s" depth="0" NCoef="0" IVar="2" Cut="9.8057843744754791e-02" cType="1" res="9.5584886148571968e-03" rms="4.0085497498512268e-01" purity="5.1321429014205933e-01" nType="0">
        <Node pos="l" depth="1" NCoef="0" IVar="1" Cut="5.8627090454101562e+00" cType="1" res="2.4206336587667465e-02" rms="3.9981549978256226e-01" purity="5.4429286718368530e-01" nType="0">
          <Node pos="l" depth="2" NCoef="0" IVar="-1" Cut="0.0000000000000000e+00" cType="1" res="4.7290194779634476e-03" rms="4.1436326503753662e-01" purity="5.2089422941207886e-01" nType="-99"/>
          <Node pos="r" depth="2" NCoef="0" IVar="-1" Cut="0.0000000000000000e+00" cType="1" res="1.5096066892147064e-01" rms="-nan" purity="1.1168951988220215e+00" nType="-99"/>
        </Node>
        <Node pos="r" depth="1" NCoef="0" IVar="-1" Cut="0.0000000000000000e+00" cType="1" res="-4.0398806333541870e-02" rms="3.7670090794563293e-01" purity="1.7428594827651978e-01" nType="-99"/>
      </Node>
    </BinaryTree>
    <BinaryTree type="DecisionTree" boostWeight="1.0000000000000000e+00" itree="57">
      <Node pos="s" depth="0" NCoef="0" IVar="3" Cut="3.7133190780878067e-02" cType="1" res="1.2512150220572948e-02" rms="3.8760221004486084e-01" purity="5.1908224821090698e-01" nType="0">
        <Node pos="l" depth="1" NCoef="0" IVar="3" Cut="1.4250196516513824e-02" cType="1" res="1.2356425821781158e-01" rms="2.9538473486900330e-01" purity="7.9808354377746582e-01" nType="0">
          <Node pos="l" depth="2" NCoef="0" IVar="-1" Cut="0.0000000000000000e+00" cType="1" res="1.1663538962602615e-01" rms="-nan" purity="1.0559905767440796e+00" nType="-99"/>
          <Node pos="r" depth="2" NCoef="0" IVar="-1" Cut="0.0000000000000000e+00" cType="1" res="9.2550488188862801e-03" rms="3.6247053742408752e-01" purity="6.5857005119323730e-01" nType="-99"/>
        </Node>
        <Node pos="r" depth="1" NCoef="0" IVar="3" Cut="4.9042705446481705e-02" cType="1" res="1.2300033122301102e-03" rms="3.9402279257774353e-01" purity="4.9073758721351624e-01" nType="0">
          <Node pos="l" depth="2" NCoef="0" IVar="-1" Cut="0.0000000000000000e+00" cType="1" res="-6.9858953356742859e-02" rms="4.3050417304039001e-01" purity="4.5214888453483582e-01" nType="-99"/>
          <Node pos="r" depth="2" NCoef="0" IVar="-1" Cut="0.0000000000000000e+00" cType="1" res="5.1239770837128162e-03" rms="3.8623744249343872e-01" purity="4.9330934882164001e-01" nType="-99"/>
        </Node>
      </Node>
    </BinaryTree>
    <BinaryTree type="DecisionTree" boostWeight="1.0000000000000000e+00" itree="58">
      <Node pos="s" depth="0" NCoef="0" IVar="0" Cut="1.0706442871093750e+03" cType="1" res="-3.7333772052079439e-03" rms="4.2081254720687866e-01" purity="5.2091372013092041e-01" nType="0">
        <Node pos="l" depth="1" NCoef="0" IVar="1" Cut="2.9757699966430664e+00" cType="1" res="6.2433257699012756e-02" rms="4.2919310927391052e-01" purity="3.9512380957603455e-01" nType="0">
          <Node pos="l" depth="2" NCoef="0" IVar="-1" Cut="0.0000000000000000e+00" cType="1" res="2.9815800953656435e-03" rms="4.2049324512481689e-01" purity="2.4787709116935730e-01" nType="-99"/>
          <Node pos="r" depth="2" NCoef="0" IVar="-1" Cut="0.0000000000000000e+00" cType="1" res="3.3822316676378250e-02" rms="4.2998924851417542e-01" purity="6.1507779359817505e-01" nType="-99"/>
        </Node>
        <Node pos="r" depth="1" NCoef="0" IVar="2" Cut="1.2780159711837769e-02" cType="1" res="-7.8196167945861816e-02" rms="3.9823973178863525e-01" purity="6.6247552633285522e-01" nType="0">
          <Node pos="l" depth="2" NCoef="0" IVar="-1" Cut="0.0000000000000000e+00" cType="1" res="9.0766102075576782e-03" rms="2.7980110049247742e-01" purity="8.4567075967788696e-01" nType="-99"/>
          <Node pos="r" depth="2" NCoef="0" IVar="-1" Cut="0.0000000000000000e+00" cType="1" res="-4.4298458844423294e-02" rms="4.5418176054954529e-01" purity="5.2554666996002197e-01" nType="-99"/>
        </Node>
      </Node>
    </BinaryTree>
    <BinaryTree type="DecisionTree" boostWeight="1.0000000000000000e+00" itree="59">
      <Node pos="s" depth="0" NCoef="0" IVar="3" Cut="3.5727432370185852e-01" cType="1" res="-4.2600594460964203e-03" rms="3.9573031663894653e-01" purity="5.0029081106185913e-01" nType="0">
        <Node pos="l" depth="1" NCoef="0" IVar="0" Cut="7.4466113281250000e+02" cType="1" res="-2.9303515329957008e-02" rms="3.8319483399391174e-01" purity="5.5837893486022949e-01" nType="0">
          <Node pos="l" depth="2" NCoef="0" IVar="-1" Cut="0.0000000000000000e+00" cType="1" res="-2.8007902204990387e-02" rms="3.8652345538139343e-01" purity="2.1602517366409302e-01" nType="-99"/>
          <Node pos="r" depth="2" NCoef="0" IVar="-1" Cut="0.0000000000000000e+00" cType="1" res="3.0344764236360788e-03" rms="3.7537837028503418e-01" purity="7.2374540567398071e-01" nType="-99"/>
        </Node>
        <Node pos="r" depth="1" NCoef="0" IVar="3" Cut="5.6291002035140991e-01" cType="1" res="7.4674464762210846e-02" rms="4.2328572273254395e-01" purity="3.1720277667045593e-01" nType="0">
          <Node pos="l" depth="2" NCoef="0" IVar="-1" Cut="0.0000000000000000e+00" cType="1" res="4.8021499067544937e-02" rms="4.6663907170295715e-01" purity="4.6562862396240234e-01" nType="-99"/>
          <Node pos="r" depth="2" NCoef="0" IVar="-1" Cut="0.0000000000000000e+00" cType="1" res="-4.3126437813043594e-03" rms="3.5747468471527100e-01" purity="1.7847856879234314e-01" nType="-99"/>
        </Node>
      </Node>
    </BinaryTree>
    <BinaryTree type="DecisionTree" boostWeight="1.0000000000000000e+00" itree="60">
      <Node pos="s" depth="0" NCoef="0" IVar="0" Cut="2.1303017578125000e+03" cType="1" res="-5.4468777962028980e-03" rms="3.9216369390487671e-01" purity="5.0034052133560181e-01" nType="0">
        <Node pos="l" depth="1" NCoef="0" IVar="0" Cut="1.6270926513671875e+03" cType="1" res="-1.7026927322149277e-02" rms="4.1356930136680603e-01" purity="4.4135576486587524e-01" nType="0">
          <Node pos="l" depth="2" NCoef="0" IVar="-1" Cut="0.0000000000000000e+00" cType="1" res="9.3414244474843144e-04" rms="4.0635389089584351e-01" purity="4.0290278196334839e-01" nType="-99"/>
          <Node pos="r" depth="2" NCoef="0" IVar="-1" Cut="0.0000000000000000e+00" cType="1" res="-5.6363184005022049e-02" rms="4.3482181429862976e-01" purity="6.7766565084457397e-01" nType="-99"/>
        </Node>
        <Node pos="r" depth="1" NCoef="0" IVar="3" Cut="1.1887963116168976e-01" cType="1" res="8.6235888302326202e-02" rms="-nan" purity="1.0297627449035645e+00" nType="-99"/>
      </Node>
    </BinaryTree>
    <BinaryTree type="DecisionTree" boostWeight="1.0000000000000000e+00" itree="61">
      <Node pos="s" depth="0" NCoef="0" IVar="0" Cut="1.9672814941406250e+03" cType="1" res="-7.8776786103844643e-03" rms="4.0661045908927917e-01" purity="4.9700504541397095e-01" nType="0">
        <Node pos="l" depth="1" NCoef="0" IVar="3" Cut="1.3585568964481354e-01" cType="1" res="1.4496758580207825e-02" rms="4.0957379341125488e-01" purity="4.4149926304817200e-01" nType="0">
          <Node pos="l" depth="2" NCoef="0" IVar="-1" Cut="0.0000000000000000e+00" cType="1" res="3.1641412526369095e-02" rms="3.5425281524658203e-01" purity="7.0162230730056763e-01" nType="-99"/>
          <Node pos="r" depth="2" NCoef="0" IVar="-1" Cut="0.0000000000000000e+00" cType="1" res="-7.4805333279073238e-03" rms="4.2223545908927917e-01" purity="3.3949768543243408e-01" nType="-99"/>
        </Node>
        <Node pos="r" depth="1" NCoef="0" IVar="2" Cut="1.2748419307172298e-02" cType="1" res="-1.2403539568185806e-01" rms="3.6970806121826172e-01" purity="7.8516554832458496e-01" nType="0">
          <Node pos="l" depth="2" NCoef="0" IVar="-1" Cut="0.0000000000000000e+00" cType="1" res="-9.2454506084322929e-03" rms="2.1726097166538239e-01" purity="9.4256281852722168e-01" nType="-99"/>
          <Node pos="r" depth="2" NCoef="0" IVar="-1" Cut="0.0000000000000000e+00" cType="1" res="-1.1179751157760620e-01" rms="4.4553095102310181e-01" purity="6.2995600700378418e-01" nType="-99"/>
        </Node>
      </Node>
    </BinaryTree>
    <BinaryTree type="DecisionTree" boostWeight="1.0000000000000000e+00" itree="62">
      <Node pos="s" depth="0" NCoef="0" IVar="1" Cut="6.0470561981201172e+00" cType="1" res="-1.8697500228881836e-02" rms="3.9520981907844543e-01" purity="4.7637552022933960e-01" nType="0">
        <Node pos="l" depth="1" NCoef="0" IVar="1" Cut="4.1988992691040039e+00" cType="1" res="-1.1528623290359974e-02" rms="3.9477726817131042e-01" purity="4.6561428904533386e-01" nType="0">
          <Node pos="l" depth="2" NCoef="0" IVar="-1" Cut="0.0000000000000000e+00" cType="1" res="-8.4417210891842842e-03" rms="4.2077353596687317e-01" purity="3.4720638394355774e-01" nType="-99"/>
          <Node pos="r" depth="2" NCoef="0" IVar="-1" Cut="0.0000000000000000e+00" cType="1" res="1.7346432432532310e-02" rms="2.9383283853530884e-01" purity="8.2966601848602295e-01" nType="-99"/>
        </Node>
        <Node pos="r" depth="1" NCoef="0" IVar="-1" Cut="0.0000000000000000e+00" cType="1" res="-9.4468019902706146e-02" rms="3.7320345640182495e-01" purity="7.0432269573211670e-01" nType="-99"/>
      </Node>
    </BinaryTree>
    <BinaryTree type="DecisionTree" boostWeight="1.0000000000000000e+00" itree="63">
      <Node pos="s" depth="0" NCoef="0" IVar="1" Cut="4.0083985328674316e+00" cType="1" res="1.5292758122086525e-02" rms="3.9272779226303101e-01" purity="5.2577316761016846e-01" nType="0">
        <Node pos="l" depth="1" NCoef="0" IVar="2" Cut="5.5504501797258854e-03" cType="1" res="-1.0281882248818874e-02" rms="4.2754232883453369e-01" purity="3.6115548014640808e-01" nType="0">
          <Node pos="l" depth="2" NCoef="0" IVar="-1" Cut="0.0000000000000000e+00" cType="1" res="-2.5311460718512535e-02" rms="4.4831684231758118e-01" purity="4.8081886768341064e-01" nType="-99"/>
          <Node pos="r" depth="2" NCoef="0" IVar="-1" Cut="0.0000000000000000e+00" cType="1" res="9.6671079518273473e-04" rms="4.2247506976127625e-01" purity="3.4169852733612061e-01" nType="-99"/>
        </Node>
        <Node pos="r" depth="1" NCoef="0" IVar="3" Cut="1.0595096647739410e-01" cType="1" res="7.2143040597438812e-02" rms="2.9337468743324280e-01" purity="8.9170455932617188e-01" nType="0">
          <Node pos="l" depth="2" NCoef="0" IVar="-1" Cut="0.0000000000000000e+00" cType="1" res="-1.0948159731924534e-02" rms="3.5058996081352234e-01" purity="8.2956498861312866e-01" nType="-99"/>
          <Node pos="r" depth="2" NCoef="0" IVar="-1" Cut="0.0000000000000000e+00" cType="1" res="5.6464884430170059e-02" rms="2.0333558320999146e-01" purity="9.4337224960327148e-01" nType="-99"/>
        </Node>
      </Node>
    </BinaryTree>
    <BinaryTree type="DecisionTree" boostWeight="1.0000000000000000e+00" itree="64">
      <Node pos="s" depth="0" NCoef="0" IVar="2" Cut="1.4792592264711857e-02" cType="1" res="-1.3543806970119476e-02" rms="3.9461666345596313e-01" purity="4.9713066220283508e-01" nType="0">
        <Node pos="l" depth="1" NCoef="0" IVar="3" Cut="2.5865358114242554e-01" cType="1" res="3.0709661543369293e-02" rms="3.5922670364379883e-01" purity="6.6716033220291138e-01" nType="0">
          <Node pos="l" depth="2" NCoef="0" IVar="-1" Cut="0.0000000000000000e+00" cType="1" res="2.3681415244936943e-02" rms="2.9417231678962708e-01" purity="8.2605230808258057e-01" nType="-99"/>
          <Node pos="r" depth="2" NCoef="0" IVar="-1" Cut="0.0000000000000000e+00" cType="1" res="-4.5624603517353535e-03" rms="4.4244295358657837e-01" purity="4.0445181727409363e-01" nType="-99"/>
        </Node>
        <Node pos="r" depth="1" NCoef="0" IVar="1" Cut="5.5422277450561523e+00" cType="1" res="-4.3725010007619858e-02" rms="4.1433164477348328e-01" purity="3.8116914033889771e-01" nType="0">
          <Node pos="l" depth="2" NCoef="0" IVar="-1" Cut="0.0000000000000000e+00" cType="1" res="-7.1501359343528748e-03" rms="4.0927961468696594e-01" purity="3.5825181007385254e-01" nType="-99"/>
          <Node pos="r" depth="2" NCoef="0" IVar="-1" Cut="0.0000000000000000e+00" cType="1" res="-7.9933688044548035e-02" rms="4.2461872100830078e-01" purity="6.0666358470916748e-01" nType="-99"/>
        </Node>
      </Node>
    </BinaryTree>
    <BinaryTree type="DecisionTree" boostWeight="1.0000000000000000e+00" itree="65">
      <Node pos="s" depth="0" NCoef="0" IVar="1" Cut="4.8264408111572266e+00" cType="1" res="-1.1936264112591743e-02" rms="4.0193521976470947e-01" purity="4.9026057124137878e-01" nType="0">
        <Node pos="l" depth="1" NCoef="0" IVar="0" Cut="1.9987308349609375e+03" cType="1" res="6.9721220061182976e-03" rms="4.1039788722991943e-01" purity="4.3467676639556885e-01" nType="0">
          <Node pos="l" depth="2" NCoef="0" IVar="-1" Cut="0.0000000000000000e+00" cType="1" res="4.3785027228295803e-03" rms="4.1070094704627991e-01" purity="4.1890221834182739e-01" nType="-99"/>
          <Node pos="r" depth="2" NCoef="0" IVar="-1" Cut="0.0000000000000000e+00" cType="1" res="-7.0436485111713409e-02" rms="3.7476751208305359e-01" purity="7.0416921377182007e-01" nType="-99"/>
        </Node>
        <Node pos="r" depth="1" NCoef="0" IVar="0" Cut="1.9983448486328125e+03" cType="1" res="-9.5718637108802795e-02" rms="3.4998223185539246e-01" purity="7.3655039072036743e-01" nType="0">
          <Node pos="l" depth="2" NCoef="0" IVar="-1" Cut="0.0000000000000000e+00" cType="1" res="-6.6982783377170563e-02" rms="4.2051550745964050e-01" purity="5.2102500200271606e-01" nType="-99"/>
          <Node pos="r" depth="2" NCoef="0" IVar="-1" Cut="0.0000000000000000e+00" cType="1" res="1.0330921504646540e-03" rms="2.3787824809551239e-01" purity="9.1536813974380493e-01" nType="-99"/>
        </Node>
      </Node>
    </BinaryTree>
    <BinaryTree type="DecisionTree" boostWeight="1.0000000000000000e+00" itree="66">
      <Node pos="s" depth="0" NCoef="0" IVar="1" Cut="4.6925444602966309e+00" cType="1" res="3.1618346110917628e-04" rms="3.9637419581413269e-01" purity="5.1025646924972534e-01" nType="0">
        <Node pos="l" depth="1" NCoef="0" IVar="1" Cut="4.4617409706115723e+00" cType="1" res="-1.1357420124113560e-02" rms="4.2585286498069763e-01" purity="4.1685405373573303e-01" nType="0">
          <Node pos="l" depth="2" NCoef="0" IVar="-1" Cut="0.0000000000000000e+00" cType="1" res="1.7015646444633603e-03" rms="4.2079022526741028e-01" purity="4.0999975800514221e-01" nType="-99"/>
          <Node pos="r" depth="2" NCoef="0" IVar="-1" Cut="0.0000000000000000e+00" cType="1" res="-7.0178404450416565e-02" rms="4.2774760723114014e-01" purity="5.0434476137161255e-01" nType="-99"/>
        </Node>
        <Node pos="r" depth="1" NCoef="0" IVar="1" Cut="4.9832544326782227e+00" cType="1" res="4.8114608973264694e-02" rms="2.3457382619380951e-01" purity="8.9269977807998657e-01" nType="0">
          <Node pos="l" depth="2" NCoef="0" IVar="-1" Cut="0.0000000000000000e+00" cType="1" res="7.5482822954654694e-02" rms="-nan" purity="9.9342387914657593e-01" nType="-99"/>
          <Node pos="r" depth="2" NCoef="0" IVar="-1" Cut="0.0000000000000000e+00" cType="1" res="5.6303385645151138e-03" rms="2.6009383797645569e-01" purity="8.6521238088607788e-01" nType="-99"/>
        </Node>
      </Node>
    </BinaryTree>
    <BinaryTree type="DecisionTree" boostWeight="1.0000000000000000e+00" itree="67">
      <Node pos="s" depth="0" NCoef="0" IVar="0" Cut="9.8917791748046875e+02" cType="1" res="-4.1416897438466549e-03" rms="3.9521467685699463e-01" purity="5.0170475244522095e-01" nType="0">
        <Node pos="l" depth="1" NCoef="0" IVar="0" Cut="6.2068750000000000e+02" cType="1" res="3.3685825765132904e-02" rms="4.0558278560638428e-01" purity="3.4339660406112671e-01" nType="0">
          <Node pos="l" depth="2" NCoef="0" IVar="-1" Cut="0.0000000000000000e+00" cType="1" res="-1.3850061222910881e-02" rms="3.8140454888343811e-01" purity="1.9009549915790558e-01" nType="-99"/>
          <Node pos="r" depth="2" NCoef="0" IVar="-1" Cut="0.0000000000000000e+00" cType="1" res="2.3635810241103172e-02" rms="4.1293281316757202e-01" purity="4.4708743691444397e-01" nType="-99"/>
        </Node>
        <Node pos="r" depth="1" NCoef="0" IVar="3" Cut="3.3304956555366516e-01" cType="1" res="-4.0455844253301620e-02" rms="3.8148611783981323e-01" purity="6.5367960929870605e-01" nType="0">
          <Node pos="l" depth="2" NCoef="0" IVar="-1" Cut="0.0000000000000000e+00" cType="1" res="-5.6848744861781597e-03" rms="3.7023025751113892e-01" purity="7.7434176206588745e-01" nType="-99"/>
